booster[0]:
0:[f187533<0.516000986] yes=1,no=2,missing=2
	1:[f416678<0.266998976] yes=3,no=4,missing=4
		3:[f446292<0.516000986] yes=7,no=8,missing=8
			7:[f763396<0.516000986] yes=15,no=16,missing=16
				15:[f156287<0.266998976] yes=31,no=32,missing=32
					31:leaf=1.722222209
					32:leaf=-1.151515126
				16:[f298114<0.516000986] yes=33,no=34,missing=34
					33:[f696747<0.516000986] yes=65,no=66,missing=66
						65:leaf=-0.444444448
						66:leaf=-1.534644961
					34:[f275448<0.516000986] yes=67,no=68,missing=68
						67:leaf=-1.950310588
						68:leaf=-1.014390349
			8:[f177346<0.516000986] yes=17,no=18,missing=18
				17:[f352569<0.516000986] yes=35,no=36,missing=36
					35:[f959840<0.516000986] yes=69,no=70,missing=70
						69:leaf=-0.500000000
						70:leaf=0.500000000
					36:[f753085<0.266998976] yes=71,no=72,missing=72
						71:leaf=0.200000003
						72:leaf=0.962962985
				18:[f127722<0.266998976] yes=37,no=38,missing=38
					37:[f282699<0.516000986] yes=73,no=74,missing=74
						73:leaf=-1.131549597
						74:leaf=-1.710629582
					38:[f327590<0.516000986] yes=75,no=76,missing=76
						75:leaf=-1.770924687
						76:leaf=-1.855404735
		4:[f998864<0.516000986] yes=9,no=10,missing=10
			9:[f797675<0.516000986] yes=19,no=20,missing=20
				19:[f282699<0.516000986] yes=39,no=40,missing=40
					39:leaf=1.676300526
					40:leaf=-1.926298141
				20:[f648331<0.516000986] yes=41,no=42,missing=42
					41:[f495013<0.516000986] yes=77,no=78,missing=78
						77:leaf=1.448275805
						78:leaf=-1.905387044
					42:[f981215<0.516000986] yes=79,no=80,missing=80
						79:leaf=1.000000000
						80:leaf=-1.932637572
			10:[f412090<0.516000986] yes=21,no=22,missing=22
				21:[f306261<0.516000986] yes=43,no=44,missing=44
					43:[f827792<0.266998976] yes=81,no=82,missing=82
						81:leaf=0.666666687
						82:leaf=-0.526315808
					44:leaf=-1.363636374
				22:[f40080<0.516000986] yes=45,no=46,missing=46
					45:[f191661<0.516000986] yes=83,no=84,missing=84
						83:leaf=0.666666687
						84:leaf=-1.122994661
					46:[f26079<0.516000986] yes=85,no=86,missing=86
						85:leaf=-0.500000000
						86:leaf=-1.832857132
	2:[f228214<0.534000993] yes=5,no=6,missing=6
		5:[f328096<0.266998976] yes=11,no=12,missing=12
			11:[f416678<0.266998976] yes=23,no=24,missing=24
				23:[f274539<0.516000986] yes=47,no=48,missing=48
					47:[f232246<0.516000986] yes=87,no=88,missing=88
						87:leaf=-1.629268289
						88:leaf=-1.143515348
					48:[f422126<0.516000986] yes=89,no=90,missing=90
						89:leaf=-1.198933959
						90:leaf=-0.562606573
				24:[f274539<0.516000986] yes=49,no=50,missing=50
					49:[f981085<0.516000986] yes=91,no=92,missing=92
						91:leaf=-0.000000000
						92:leaf=-1.747211933
					50:[f177284<0.516000986] yes=93,no=94,missing=94
						93:leaf=-1.290867209
						94:leaf=-1.025776267
			12:[f187282<0.516000986] yes=25,no=26,missing=26
				25:[f127722<0.266998976] yes=51,no=52,missing=52
					51:[f5842<0.516000986] yes=95,no=96,missing=96
						95:leaf=0.699999988
						96:leaf=-0.688753247
					52:[f536024<0.266998976] yes=97,no=98,missing=98
						97:leaf=0.013405405
						98:leaf=-0.593471825
				26:[f56773<0.516000986] yes=53,no=54,missing=54
					53:[f653014<0.516000986] yes=99,no=100,missing=100
						99:leaf=0.573426545
						100:leaf=-0.846909642
					54:[f409348<0.266998976] yes=101,no=102,missing=102
						101:leaf=-0.756129026
						102:leaf=-1.245198131
		6:[f307400<0.516000986] yes=13,no=14,missing=14
			13:[f495107<0.516000986] yes=27,no=28,missing=28
				27:[f197914<0.516000986] yes=55,no=56,missing=56
					55:[f310417<0.516000986] yes=103,no=104,missing=104
						103:leaf=-0.000000000
						104:leaf=-1.000000000
					56:[f178698<0.516000986] yes=105,no=106,missing=106
						105:leaf=-0.638297856
						106:leaf=-1.769806862
				28:[f440770<0.516000986] yes=57,no=58,missing=58
					57:[f349743<0.516000986] yes=107,no=108,missing=108
						107:leaf=-0.993780911
						108:leaf=-0.692946553
					58:[f812440<0.516000986] yes=109,no=110,missing=110
						109:leaf=-0.641335249
						110:leaf=-1.013965726
			14:[f637069<0.534000993] yes=29,no=30,missing=30
				29:[f328096<0.266998976] yes=59,no=60,missing=60
					59:[f156287<0.266998976] yes=111,no=112,missing=112
						111:leaf=-0.809676349
						112:leaf=-1.144066095
					60:[f448332<0.516000986] yes=113,no=114,missing=114
						113:leaf=-0.053609166
						114:leaf=-1.339259624
				30:[f441381<0.534000993] yes=61,no=62,missing=62
					61:[f10165<0.516000986] yes=115,no=116,missing=116
						115:leaf=-1.673301220
						116:leaf=-0.979778111
					62:[f441768<0.516000986] yes=117,no=118,missing=118
						117:leaf=-1.030004859
						118:leaf=-1.607783198
booster[1]:
0:[f998864<0.516000986] yes=1,no=2,missing=2
	1:[f928312<0.516000986] yes=3,no=4,missing=4
		3:[f536024<0.266998976] yes=7,no=8,missing=8
			7:[f156287<0.266998976] yes=15,no=16,missing=16
				15:[f644572<0.266998976] yes=29,no=30,missing=30
					29:leaf=-0.698189139
					30:[f797675<0.516000986] yes=51,no=52,missing=52
						51:leaf=4.766684532
						52:leaf=2.167198896
				16:leaf=-0.955024242
			8:leaf=-1.174880028
		4:[f601728<0.516000986] yes=9,no=10,missing=10
			9:[f43759<0.516000986] yes=17,no=18,missing=18
				17:leaf=1.140775323
				18:leaf=4.256684780
			10:[f416678<0.266998976] yes=19,no=20,missing=20
				19:[f140749<0.516000986] yes=31,no=32,missing=32
					31:leaf=4.400864124
					32:[f132938<0.516000986] yes=53,no=54,missing=54
						53:leaf=4.702228546
						54:leaf=-0.778602898
				20:[f328952<0.516000986] yes=33,no=34,missing=34
					33:leaf=3.502013206
					34:[f670483<0.516000986] yes=55,no=56,missing=56
						55:leaf=-0.019630183
						56:leaf=-0.993915319
	2:[f891765<0.266998976] yes=5,no=6,missing=6
		5:[f413587<0.516000986] yes=11,no=12,missing=12
			11:[f556830<0.516000986] yes=21,no=22,missing=22
				21:[f908550<0.516000986] yes=35,no=36,missing=36
					35:[f43550<0.266998976] yes=57,no=58,missing=58
						57:leaf=-0.223005369
						58:leaf=2.692103386
					36:[f827792<0.266998976] yes=59,no=60,missing=60
						59:leaf=0.587531090
						60:leaf=1.401754022
				22:[f290619<0.516000986] yes=37,no=38,missing=38
					37:[f221098<0.516000986] yes=61,no=62,missing=62
						61:leaf=0.673859835
						62:leaf=1.553593159
					38:[f740848<0.516000986] yes=63,no=64,missing=64
						63:leaf=0.754403114
						64:leaf=1.822109699
			12:[f155962<0.516000986] yes=23,no=24,missing=24
				23:[f150493<0.516000986] yes=39,no=40,missing=40
					39:[f177373<0.266998976] yes=65,no=66,missing=66
						65:leaf=0.439350128
						66:leaf=1.367962122
					40:[f708011<0.516000986] yes=67,no=68,missing=68
						67:leaf=-0.044036973
						68:leaf=0.231675267
				24:[f252610<0.516000986] yes=41,no=42,missing=42
					41:[f177373<0.266998976] yes=69,no=70,missing=70
						69:leaf=-0.114548214
						70:leaf=-0.289513230
					42:[f547010<0.516000986] yes=71,no=72,missing=72
						71:leaf=0.512936354
						72:leaf=-0.825571954
		6:[f790364<0.516000986] yes=13,no=14,missing=14
			13:[f441381<0.266998976] yes=25,no=26,missing=26
				25:[f178125<0.516000986] yes=43,no=44,missing=44
					43:leaf=1.101578712
					44:[f555179<0.516000986] yes=73,no=74,missing=74
						73:leaf=0.874578536
						74:leaf=3.531496048
				26:[f445055<0.516000986] yes=45,no=46,missing=46
					45:leaf=1.261553764
					46:leaf=5.665464401
			14:[f754390<0.516000986] yes=27,no=28,missing=28
				27:[f684673<0.516000986] yes=47,no=48,missing=48
					47:leaf=-1.189049363
					48:[f606881<0.516000986] yes=75,no=76,missing=76
						75:leaf=1.322925210
						76:leaf=3.738446712
				28:[f538388<0.516000986] yes=49,no=50,missing=50
					49:[f177373<0.266998976] yes=77,no=78,missing=78
						77:leaf=2.605269432
						78:leaf=4.533706665
					50:[f73521<0.516000986] yes=79,no=80,missing=80
						79:leaf=2.215665579
						80:leaf=-0.344349414
booster[2]:
0:[f416678<0.534000993] yes=1,no=2,missing=2
	1:[f951642<0.516000986] yes=3,no=4,missing=4
		3:[f73521<0.516000986] yes=7,no=8,missing=8
			7:leaf=-2.684881687
			8:[f769919<0.516000986] yes=15,no=16,missing=16
				15:[f177373<0.266998976] yes=29,no=30,missing=30
					29:[f1184<0.516000986] yes=53,no=54,missing=54
						53:leaf=1.128321528
						54:leaf=-0.243575424
					30:[f820706<0.516000986] yes=55,no=56,missing=56
						55:leaf=0.947706521
						56:leaf=-0.526629746
				16:[f906221<0.516000986] yes=31,no=32,missing=32
					31:[f141273<0.516000986] yes=57,no=58,missing=58
						57:leaf=5.445506096
						58:leaf=-0.720705152
					32:[f904963<0.516000986] yes=59,no=60,missing=60
						59:leaf=-0.932965696
						60:leaf=-0.840296090
		4:[f797675<0.516000986] yes=9,no=10,missing=10
			9:[f307400<0.516000986] yes=17,no=18,missing=18
				17:[f221422<0.516000986] yes=33,no=34,missing=34
					33:[f614082<0.516000986] yes=61,no=62,missing=62
						61:leaf=-0.294063091
						62:leaf=-0.861790180
					34:[f495107<0.516000986] yes=63,no=64,missing=64
						63:leaf=-0.543610275
						64:leaf=0.309718043
				18:[f370719<0.516000986] yes=35,no=36,missing=36
					35:[f571065<0.516000986] yes=65,no=66,missing=66
						65:leaf=0.525818169
						66:leaf=4.488646030
					36:[f155962<0.516000986] yes=67,no=68,missing=68
						67:leaf=0.360749155
						68:leaf=-0.664568186
			10:[f328096<0.534000993] yes=19,no=20,missing=20
				19:[f752098<0.516000986] yes=37,no=38,missing=38
					37:[f177373<0.266998976] yes=69,no=70,missing=70
						69:leaf=3.399180651
						70:leaf=5.039183140
					38:[f517237<0.516000986] yes=71,no=72,missing=72
						71:leaf=1.257217526
						72:leaf=0.223852828
				20:[f86673<0.516000986] yes=39,no=40,missing=40
					39:[f972035<0.516000986] yes=73,no=74,missing=74
						73:leaf=2.004940748
						74:leaf=0.340110958
					40:[f929570<0.516000986] yes=75,no=76,missing=76
						75:leaf=-0.804391742
						76:leaf=-0.024503693
	2:[f502252<0.516000986] yes=5,no=6,missing=6
		5:[f441381<0.266998976] yes=11,no=12,missing=12
			11:[f410371<0.266998976] yes=21,no=22,missing=22
				21:leaf=1.420280099
				22:[f645538<0.516000986] yes=41,no=42,missing=42
					41:leaf=0.845623612
					42:[f177373<0.266998976] yes=77,no=78,missing=78
						77:leaf=3.428283453
						78:leaf=4.374252796
			12:[f177373<0.266998976] yes=23,no=24,missing=24
				23:[f62639<0.266998976] yes=43,no=44,missing=44
					43:leaf=3.458618641
					44:leaf=6.290047646
				24:leaf=7.305035591
		6:[f517237<0.516000986] yes=13,no=14,missing=14
			13:[f811650<0.516000986] yes=25,no=26,missing=26
				25:[f427233<0.516000986] yes=45,no=46,missing=46
					45:[f164124<0.516000986] yes=79,no=80,missing=80
						79:leaf=-0.185851842
						80:leaf=1.720084190
					46:[f195088<0.516000986] yes=81,no=82,missing=82
						81:leaf=0.671127558
						82:leaf=0.058832973
				26:[f156287<0.266998976] yes=47,no=48,missing=48
					47:[f349743<0.516000986] yes=83,no=84,missing=84
						83:leaf=-0.188414276
						84:leaf=0.920537233
					48:[f177373<0.266998976] yes=85,no=86,missing=86
						85:leaf=0.566932678
						86:leaf=2.152353764
			14:[f307400<0.516000986] yes=27,no=28,missing=28
				27:[f610351<0.516000986] yes=49,no=50,missing=50
					49:[f720676<0.516000986] yes=87,no=88,missing=88
						87:leaf=-0.982567430
						88:leaf=1.203407526
					50:[f727098<0.266998976] yes=89,no=90,missing=90
						89:leaf=0.780533075
						90:leaf=0.257449746
				28:[f441381<0.534000993] yes=51,no=52,missing=52
					51:[f727102<0.516000986] yes=91,no=92,missing=92
						91:leaf=2.938073158
						92:leaf=0.017940259
					52:[f328096<0.266998976] yes=93,no=94,missing=94
						93:leaf=-0.165051252
						94:leaf=-0.556936860
booster[3]:
0:[f187533<0.516000986] yes=1,no=2,missing=2
	1:[f327590<0.516000986] yes=3,no=4,missing=4
		3:[f874762<0.516000986] yes=7,no=8,missing=8
			7:[f177373<0.266998976] yes=15,no=16,missing=16
				15:[f827792<0.266998976] yes=31,no=32,missing=32
					31:[f595681<0.266998976] yes=63,no=64,missing=64
						63:leaf=-0.228047207
						64:leaf=0.942822039
					32:[f127722<0.266998976] yes=65,no=66,missing=66
						65:leaf=0.547359705
						66:leaf=0.066050209
				16:[f969311<0.266998976] yes=33,no=34,missing=34
					33:[f845649<0.516000986] yes=67,no=68,missing=68
						67:leaf=2.263503551
						68:leaf=0.080478027
					34:[f590983<0.516000986] yes=69,no=70,missing=70
						69:leaf=1.513430834
						70:leaf=-0.181557581
			8:[f177373<0.266998976] yes=17,no=18,missing=18
				17:[f382661<0.266998976] yes=35,no=36,missing=36
					35:[f951592<0.516000986] yes=71,no=72,missing=72
						71:leaf=0.429827482
						72:leaf=1.210125208
					36:[f649766<0.516000986] yes=73,no=74,missing=74
						73:leaf=0.631723046
						74:leaf=-0.143197149
				18:[f969311<0.266998976] yes=37,no=38,missing=38
					37:[f912849<0.516000986] yes=75,no=76,missing=76
						75:leaf=0.843005478
						76:leaf=-0.238647521
					38:[f809072<0.516000986] yes=77,no=78,missing=78
						77:leaf=1.293600440
						78:leaf=-0.371751428
		4:[f446292<0.516000986] yes=9,no=10,missing=10
			9:[f344595<0.516000986] yes=19,no=20,missing=20
				19:[f797675<0.516000986] yes=39,no=40,missing=40
					39:leaf=3.451861858
					40:leaf=1.395513177
				20:[f536323<0.516000986] yes=41,no=42,missing=42
					41:[f818717<0.516000986] yes=79,no=80,missing=80
						79:leaf=-0.207755953
						80:leaf=1.083859444
					42:[f108679<0.516000986] yes=81,no=82,missing=82
						81:leaf=2.330801964
						82:leaf=0.101691298
			10:[f293179<0.516000986] yes=21,no=22,missing=22
				21:[f644572<0.266998976] yes=43,no=44,missing=44
					43:[f282699<0.516000986] yes=83,no=84,missing=84
						83:leaf=0.133553177
						84:leaf=-0.487385720
					44:[f767365<0.516000986] yes=85,no=86,missing=86
						85:leaf=0.766102612
						86:leaf=-0.953705549
				22:[f912284<0.266998976] yes=45,no=46,missing=46
					45:[f797675<0.516000986] yes=87,no=88,missing=88
						87:leaf=3.481401443
						88:leaf=1.204184771
					46:[f14756<0.516000986] yes=89,no=90,missing=90
						89:leaf=-0.753321707
						90:leaf=-0.438642710
	2:[f187282<0.516000986] yes=5,no=6,missing=6
		5:[f62639<0.266998976] yes=11,no=12,missing=12
			11:[f534329<0.266998976] yes=23,no=24,missing=24
				23:[f382447<0.266998976] yes=47,no=48,missing=48
					47:[f274643<0.516000986] yes=91,no=92,missing=92
						91:leaf=1.999185562
						92:leaf=-0.418587953
					48:[f177373<0.266998976] yes=93,no=94,missing=94
						93:leaf=2.228181124
						94:leaf=4.996256828
				24:[f243307<0.516000986] yes=49,no=50,missing=50
					49:[f104267<0.516000986] yes=95,no=96,missing=96
						95:leaf=0.447486848
						96:leaf=7.356611252
					50:[f65962<0.516000986] yes=97,no=98,missing=98
						97:leaf=-1.002188444
						98:leaf=3.462320328
			12:[f746405<0.516000986] yes=25,no=26,missing=26
				25:[f444671<0.516000986] yes=51,no=52,missing=52
					51:[f631563<0.516000986] yes=99,no=100,missing=100
						99:leaf=0.143810719
						100:leaf=2.393671274
					52:[f323649<0.516000986] yes=101,no=102,missing=102
						101:leaf=2.237382174
						102:leaf=-0.266473055
				26:[f690415<0.516000986] yes=53,no=54,missing=54
					53:[f600340<0.516000986] yes=103,no=104,missing=104
						103:leaf=0.863895118
						104:leaf=3.820094585
					54:[f655111<0.516000986] yes=105,no=106,missing=106
						105:leaf=6.825769901
						106:leaf=0.768425107
		6:[f205982<0.516000986] yes=13,no=14,missing=14
			13:[f156287<0.266998976] yes=27,no=28,missing=28
				27:[f508197<0.266998976] yes=55,no=56,missing=56
					55:[f996146<0.266998976] yes=107,no=108,missing=108
						107:leaf=1.115447640
						108:leaf=0.450096905
					56:[f797675<0.516000986] yes=109,no=110,missing=110
						109:leaf=-1.028478384
						110:leaf=1.167826653
				28:[f581996<0.266998976] yes=57,no=58,missing=58
					57:[f382447<0.266998976] yes=111,no=112,missing=112
						111:leaf=1.438098192
						112:leaf=0.403354377
					58:[f240296<0.516000986] yes=113,no=114,missing=114
						113:leaf=1.899253726
						114:leaf=-0.117924429
			14:[f167132<0.266998976] yes=29,no=30,missing=30
				29:[f177373<0.266998976] yes=59,no=60,missing=60
					59:[f644572<0.266998976] yes=115,no=116,missing=116
						115:leaf=0.836670995
						116:leaf=-0.146211773
					60:[f763396<0.516000986] yes=117,no=118,missing=118
						117:leaf=1.567060709
						118:leaf=0.579066932
				30:[f441768<0.516000986] yes=61,no=62,missing=62
					61:[f735737<0.516000986] yes=119,no=120,missing=120
						119:leaf=-0.574370086
						120:leaf=0.430162489
					62:[f536024<0.534000993] yes=121,no=122,missing=122
						121:leaf=-0.022084674
						122:leaf=-0.202278078
booster[4]:
0:[f11501<0.516000986] yes=1,no=2,missing=2
	1:[f213401<0.516000986] yes=3,no=4,missing=4
		3:[f804027<0.516000986] yes=7,no=8,missing=8
			7:leaf=3.454181910
			8:[f247449<0.266998976] yes=15,no=16,missing=16
				15:leaf=3.904933214
				16:[f659917<0.266998976] yes=27,no=28,missing=28
					27:leaf=4.035265923
					28:[f531508<0.266998976] yes=47,no=48,missing=48
						47:leaf=3.820409060
						48:leaf=6.228309155
		4:[f496231<0.516000986] yes=9,no=10,missing=10
			9:leaf=-1.066830397
			10:[f535350<0.516000986] yes=17,no=18,missing=18
				17:leaf=-0.933409333
				18:[f116990<0.516000986] yes=29,no=30,missing=30
					29:[f804027<0.516000986] yes=49,no=50,missing=50
						49:leaf=1.844737411
						50:leaf=5.060596466
					30:[f706696<0.266998976] yes=51,no=52,missing=52
						51:leaf=5.063040257
						52:leaf=2.892963171
	2:[f696858<0.516000986] yes=5,no=6,missing=6
		5:[f416678<0.266998976] yes=11,no=12,missing=12
			11:[f177373<0.266998976] yes=19,no=20,missing=20
				19:[f629988<0.516000986] yes=31,no=32,missing=32
					31:leaf=-0.887070239
					32:[f536024<0.266998976] yes=55,no=56,missing=56
						55:leaf=1.438710809
						56:leaf=2.239556551
				20:[f629988<0.516000986] yes=33,no=34,missing=34
					33:[f410371<0.266998976] yes=57,no=58,missing=58
						57:leaf=0.691810429
						58:leaf=-0.801680744
					34:[f321394<0.516000986] yes=59,no=60,missing=60
						59:leaf=4.118494034
						60:leaf=2.471913099
			12:[f569100<0.516000986] yes=21,no=22,missing=22
				21:[f969311<0.266998976] yes=35,no=36,missing=36
					35:leaf=1.689754009
					36:[f54993<0.266998976] yes=61,no=62,missing=62
						61:leaf=1.252648830
						62:leaf=0.084834091
				22:[f223570<0.516000986] yes=37,no=38,missing=38
					37:leaf=1.282547951
					38:[f408566<0.266998976] yes=63,no=64,missing=64
						63:leaf=0.125645936
						64:leaf=-0.733298719
		6:[f801043<0.516000986] yes=13,no=14,missing=14
			13:[f417513<0.516000986] yes=23,no=24,missing=24
				23:[f181753<0.516000986] yes=39,no=40,missing=40
					39:leaf=0.964340687
					40:[f802188<0.516000986] yes=65,no=66,missing=66
						65:leaf=0.695841312
						66:leaf=-0.883304179
				24:[f536024<0.266998976] yes=41,no=42,missing=42
					41:[f959840<0.516000986] yes=67,no=68,missing=68
						67:leaf=-0.259611964
						68:leaf=0.766339183
					42:[f156287<0.266998976] yes=69,no=70,missing=70
						69:leaf=3.681095362
						70:leaf=1.154395580
			14:[f763396<0.516000986] yes=25,no=26,missing=26
				25:[f180463<0.266998976] yes=43,no=44,missing=44
					43:[f536024<0.266998976] yes=71,no=72,missing=72
						71:leaf=1.370016098
						72:leaf=0.668156862
					44:[f292412<0.516000986] yes=73,no=74,missing=74
						73:leaf=-5.449585438
						74:leaf=0.135703683
				26:[f912284<0.534000993] yes=45,no=46,missing=46
					45:[f797675<0.516000986] yes=75,no=76,missing=76
						75:leaf=2.215803623
						76:leaf=0.822198868
					46:[f54993<0.534000993] yes=77,no=78,missing=78
						77:leaf=0.200356379
						78:leaf=-0.078673333
booster[5]:
0:[f307400<0.516000986] yes=1,no=2,missing=2
	1:[f187282<0.516000986] yes=3,no=4,missing=4
		3:[f440770<0.516000986] yes=7,no=8,missing=8
			7:[f202994<0.516000986] yes=15,no=16,missing=16
				15:[f763396<0.516000986] yes=31,no=32,missing=32
					31:[f349743<0.516000986] yes=63,no=64,missing=64
						63:leaf=0.584933758
						64:leaf=-0.498599619
					32:[f976508<0.516000986] yes=65,no=66,missing=66
						65:leaf=-0.772201598
						66:leaf=0.438293517
				16:[f629988<0.516000986] yes=33,no=34,missing=34
					33:leaf=0.674786985
					34:[f229947<0.516000986] yes=69,no=70,missing=70
						69:leaf=0.651050091
						70:leaf=-0.678072989
			8:[f476054<0.516000986] yes=17,no=18,missing=18
				17:[f551276<0.516000986] yes=35,no=36,missing=36
					35:[f560064<0.516000986] yes=71,no=72,missing=72
						71:leaf=0.593150318
						72:leaf=-1.078241944
					36:[f958294<0.266998976] yes=73,no=74,missing=74
						73:leaf=-1.064552784
						74:leaf=0.952788413
				18:[f536024<0.266998976] yes=37,no=38,missing=38
					37:[f416678<0.266998976] yes=75,no=76,missing=76
						75:leaf=-0.193872929
						76:leaf=-0.501013875
					38:[f577353<0.516000986] yes=77,no=78,missing=78
						77:leaf=0.179452822
						78:leaf=-0.545141518
		4:[f328096<0.266998976] yes=9,no=10,missing=10
			9:[f577353<0.516000986] yes=19,no=20,missing=20
				19:[f706519<0.516000986] yes=39,no=40,missing=40
					39:leaf=-1.243914008
					40:[f569374<0.516000986] yes=79,no=80,missing=80
						79:leaf=-1.221904278
						80:leaf=0.304302394
				20:[f313947<0.266998976] yes=41,no=42,missing=42
					41:[f431340<0.516000986] yes=81,no=82,missing=82
						81:leaf=2.665031195
						82:leaf=0.400203526
					42:[f247449<0.266998976] yes=83,no=84,missing=84
						83:leaf=0.592227995
						84:leaf=-0.295667589
			10:[f521265<0.516000986] yes=21,no=22,missing=22
				21:[f416678<0.266998976] yes=43,no=44,missing=44
					43:[f418493<0.516000986] yes=85,no=86,missing=86
						85:leaf=0.219670936
						86:leaf=0.815144241
					44:[f696007<0.516000986] yes=87,no=88,missing=88
						87:leaf=-0.070210494
						88:leaf=0.511545181
				22:[f124245<0.516000986] yes=45,no=46,missing=46
					45:[f482845<0.516000986] yes=89,no=90,missing=90
						89:leaf=2.422685146
						90:leaf=0.745390713
					46:[f416678<0.266998976] yes=91,no=92,missing=92
						91:leaf=0.305351704
						92:leaf=0.145265520
	2:[f644572<0.534000993] yes=5,no=6,missing=6
		5:[f180463<0.266998976] yes=11,no=12,missing=12
			11:[f114823<0.516000986] yes=23,no=24,missing=24
				23:[f560163<0.516000986] yes=47,no=48,missing=48
					47:leaf=2.172987938
					48:[f127722<0.266998976] yes=93,no=94,missing=94
						93:leaf=0.119496845
						94:leaf=-0.516331792
				24:[f416678<0.266998976] yes=49,no=50,missing=50
					49:[f156287<0.266998976] yes=95,no=96,missing=96
						95:leaf=0.988413692
						96:leaf=1.393114328
					50:[f714970<0.516000986] yes=97,no=98,missing=98
						97:leaf=0.826173007
						98:leaf=1.945969939
			12:[f245290<0.516000986] yes=25,no=26,missing=26
				25:[f408563<0.516000986] yes=51,no=52,missing=52
					51:[f287432<0.516000986] yes=99,no=100,missing=100
						99:leaf=1.988227606
						100:leaf=4.890717506
					52:[f11501<0.516000986] yes=101,no=102,missing=102
						101:leaf=-2.946688175
						102:leaf=-0.226788267
				26:[f820525<0.516000986] yes=53,no=54,missing=54
					53:[f727102<0.516000986] yes=103,no=104,missing=104
						103:leaf=6.847593307
						104:leaf=1.035300136
					54:[f50169<0.516000986] yes=105,no=106,missing=106
						105:leaf=7.514487267
						106:leaf=0.126580283
		6:[f301157<0.516000986] yes=13,no=14,missing=14
			13:[f441768<0.516000986] yes=27,no=28,missing=28
				27:[f173642<0.266998976] yes=55,no=56,missing=56
					55:[f177373<0.266998976] yes=107,no=108,missing=108
						107:leaf=-0.060594659
						108:leaf=2.309607029
					56:[f213401<0.516000986] yes=109,no=110,missing=110
						109:leaf=1.651043296
						110:leaf=-0.056304447
				28:[f180463<0.266998976] yes=57,no=58,missing=58
					57:[f484147<0.516000986] yes=111,no=112,missing=112
						111:leaf=0.269541174
						112:leaf=3.042033434
					58:[f129608<0.516000986] yes=113,no=114,missing=114
						113:leaf=3.413944721
						114:leaf=1.590586424
			14:[f856179<0.516000986] yes=29,no=30,missing=30
				29:[f180463<0.266998976] yes=59,no=60,missing=60
					59:[f536024<0.266998976] yes=115,no=116,missing=116
						115:leaf=1.214287281
						116:leaf=0.326694340
					60:[f963986<0.266998976] yes=117,no=118,missing=118
						117:leaf=0.867401481
						118:leaf=0.157128647
				30:[f469041<0.516000986] yes=61,no=62,missing=62
					61:[f797675<0.516000986] yes=119,no=120,missing=120
						119:leaf=3.179740429
						120:leaf=1.185906529
					62:[f228214<0.534000993] yes=121,no=122,missing=122
						121:leaf=0.171618402
						122:leaf=-0.106492668
booster[6]:
0:[f704082<0.516000986] yes=1,no=2,missing=2
	1:[f910698<0.516000986] yes=3,no=4,missing=4
		3:[f409348<0.266998976] yes=7,no=8,missing=8
			7:[f969311<0.266998976] yes=15,no=16,missing=16
				15:leaf=0.142373189
				16:leaf=1.247592330
			8:leaf=-0.605610967
		4:[f367238<0.516000986] yes=9,no=10,missing=10
			9:leaf=1.770381212
			10:[f177373<0.266998976] yes=17,no=18,missing=18
				17:[f702297<0.516000986] yes=27,no=28,missing=28
					27:[f763396<0.516000986] yes=37,no=38,missing=38
						37:leaf=-0.191530436
						38:leaf=0.882861972
					28:[f342163<0.516000986] yes=39,no=40,missing=40
						39:leaf=0.375079989
						40:leaf=-0.943062067
				18:[f688223<0.516000986] yes=29,no=30,missing=30
					29:[f536024<0.266998976] yes=41,no=42,missing=42
						41:leaf=0.895183623
						42:leaf=-0.578839898
					30:[f984470<0.516000986] yes=43,no=44,missing=44
						43:leaf=0.036290392
						44:leaf=-1.061553478
	2:[f541364<0.516000986] yes=5,no=6,missing=6
		5:[f301157<0.516000986] yes=11,no=12,missing=12
			11:leaf=2.137676477
			12:[f54993<0.266998976] yes=19,no=20,missing=20
				19:leaf=3.970230579
				20:leaf=11.204770088
		6:[f874933<0.516000986] yes=13,no=14,missing=14
			13:[f156287<0.266998976] yes=21,no=22,missing=22
				21:[f644572<0.266998976] yes=31,no=32,missing=32
					31:[f362688<0.516000986] yes=45,no=46,missing=46
						45:leaf=3.773873091
						46:leaf=1.948407292
					32:[f232246<0.516000986] yes=47,no=48,missing=48
						47:leaf=4.137229919
						48:leaf=2.736172199
				22:leaf=8.432356834
			14:[f958744<0.516000986] yes=23,no=24,missing=24
				23:[f797675<0.516000986] yes=33,no=34,missing=34
					33:leaf=15.798215866
					34:leaf=9.250277519
				24:[f213401<0.516000986] yes=35,no=36,missing=36
					35:[f301965<0.266998976] yes=49,no=50,missing=50
						49:leaf=1.399053454
						50:leaf=-0.037004612
					36:[f488852<0.516000986] yes=51,no=52,missing=52
						51:leaf=1.689700961
						52:leaf=-0.019493500
booster[7]:
0:[f130028<0.516000986] yes=1,no=2,missing=2
	1:[f331155<0.516000986] yes=3,no=4,missing=4
		3:[f797675<0.516000986] yes=7,no=8,missing=8
			7:[f708011<0.516000986] yes=15,no=16,missing=16
				15:[f696007<0.516000986] yes=31,no=32,missing=32
					31:leaf=3.565861464
					32:[f385278<0.516000986] yes=59,no=60,missing=60
						59:leaf=1.299901724
						60:leaf=4.911017418
				16:[f809414<0.516000986] yes=33,no=34,missing=34
					33:[f345782<0.516000986] yes=61,no=62,missing=62
						61:leaf=-0.629752934
						62:leaf=1.031943679
					34:[f635659<0.516000986] yes=63,no=64,missing=64
						63:leaf=5.198544979
						64:leaf=3.432507515
			8:[f708011<0.516000986] yes=17,no=18,missing=18
				17:[f24385<0.516000986] yes=35,no=36,missing=36
					35:leaf=-0.294698119
					36:[f582811<0.516000986] yes=65,no=66,missing=66
						65:leaf=0.140694112
						66:leaf=3.109695435
				18:[f504960<0.266998976] yes=37,no=38,missing=38
					37:[f876257<0.516000986] yes=67,no=68,missing=68
						67:leaf=-0.675882757
						68:leaf=2.537015200
					38:[f137702<0.516000986] yes=69,no=70,missing=70
						69:leaf=0.800100029
						70:leaf=1.594689369
		4:[f809250<0.516000986] yes=9,no=10,missing=10
			9:[f177373<0.266998976] yes=19,no=20,missing=20
				19:[f536024<0.266998976] yes=39,no=40,missing=40
					39:[f708011<0.516000986] yes=71,no=72,missing=72
						71:leaf=3.086400270
						72:leaf=0.944574654
					40:[f690880<0.516000986] yes=73,no=74,missing=74
						73:leaf=0.903492630
						74:leaf=-0.296860844
				20:[f536024<0.266998976] yes=41,no=42,missing=42
					41:[f913497<0.516000986] yes=75,no=76,missing=76
						75:leaf=6.351126671
						76:leaf=2.267858744
					42:[f891765<0.266998976] yes=77,no=78,missing=78
						77:leaf=2.986799002
						78:leaf=1.078024507
			10:[f416678<0.266998976] yes=21,no=22,missing=22
				21:[f731682<0.516000986] yes=43,no=44,missing=44
					43:leaf=6.217181683
					44:[f260893<0.516000986] yes=79,no=80,missing=80
						79:leaf=1.594030261
						80:leaf=-0.561251402
				22:[f406335<0.516000986] yes=45,no=46,missing=46
					45:[f213401<0.516000986] yes=81,no=82,missing=82
						81:leaf=2.545299053
						82:leaf=-0.592482150
					46:[f309072<0.516000986] yes=83,no=84,missing=84
						83:leaf=2.132837296
						84:leaf=1.056869030
	2:[f547010<0.516000986] yes=5,no=6,missing=6
		5:[f891765<0.266998976] yes=11,no=12,missing=12
			11:[f849711<0.516000986] yes=23,no=24,missing=24
				23:leaf=2.433343410
				24:[f856179<0.516000986] yes=47,no=48,missing=48
					47:[f410371<0.266998976] yes=85,no=86,missing=86
						85:leaf=-0.385701507
						86:leaf=0.215966538
					48:[f153666<0.516000986] yes=87,no=88,missing=88
						87:leaf=-0.303240240
						88:leaf=0.377422452
			12:[f440770<0.516000986] yes=25,no=26,missing=26
				25:[f177373<0.266998976] yes=49,no=50,missing=50
					49:[f313947<0.266998976] yes=89,no=90,missing=90
						89:leaf=-0.589847803
						90:leaf=0.905766726
					50:[f185321<0.516000986] yes=91,no=92,missing=92
						91:leaf=-0.094179310
						92:leaf=1.643799067
				26:[f54993<0.266998976] yes=51,no=52,missing=52
					51:[f566915<0.516000986] yes=93,no=94,missing=94
						93:leaf=1.763907194
						94:leaf=0.993855178
					52:[f417513<0.516000986] yes=95,no=96,missing=96
						95:leaf=0.277253211
						96:leaf=2.029197454
		6:[f216081<0.516000986] yes=13,no=14,missing=14
			13:[f72314<0.516000986] yes=27,no=28,missing=28
				27:leaf=2.785644054
				28:[f298114<0.516000986] yes=53,no=54,missing=54
					53:leaf=3.878955364
					54:leaf=11.812108040
			14:[f362042<0.516000986] yes=29,no=30,missing=30
				29:[f441768<0.516000986] yes=55,no=56,missing=56
					55:[f405029<0.516000986] yes=97,no=98,missing=98
						97:leaf=1.696206450
						98:leaf=0.246863067
					56:[f205982<0.516000986] yes=99,no=100,missing=100
						99:leaf=2.798812389
						100:leaf=1.850268841
				30:[f136741<0.516000986] yes=57,no=58,missing=58
					57:[f891765<0.266998976] yes=101,no=102,missing=102
						101:leaf=3.977500677
						102:leaf=2.415667772
					58:[f252610<0.516000986] yes=103,no=104,missing=104
						103:leaf=0.396756738
						104:leaf=-0.022394449
booster[8]:
0:[f408008<0.516000986] yes=1,no=2,missing=2
	1:[f708011<0.516000986] yes=3,no=4,missing=4
		3:[f797675<0.516000986] yes=7,no=8,missing=8
			7:[f696007<0.516000986] yes=15,no=16,missing=16
				15:leaf=-1.791287899
				16:[f385278<0.516000986] yes=31,no=32,missing=32
					31:leaf=0.014710539
					32:leaf=-5.270659447
			8:[f294101<0.516000986] yes=17,no=18,missing=18
				17:[f964686<0.266998976] yes=33,no=34,missing=34
					33:leaf=-0.282751769
					34:leaf=0.756290972
				18:[f582811<0.516000986] yes=35,no=36,missing=36
					35:leaf=0.033596594
					36:[f589747<0.516000986] yes=61,no=62,missing=62
						61:leaf=-0.173446596
						62:leaf=-1.591908336
		4:[f797675<0.516000986] yes=9,no=10,missing=10
			9:[f635659<0.516000986] yes=19,no=20,missing=20
				19:leaf=-6.171768665
				20:[f438164<0.516000986] yes=37,no=38,missing=38
					37:[f535471<0.516000986] yes=63,no=64,missing=64
						63:leaf=0.360978633
						64:leaf=-0.415430844
					38:[f549943<0.516000986] yes=65,no=66,missing=66
						65:leaf=0.907573164
						66:leaf=-1.676924229
			10:[f778871<0.516000986] yes=21,no=22,missing=22
				21:[f177373<0.266998976] yes=39,no=40,missing=40
					39:[f65370<0.516000986] yes=67,no=68,missing=68
						67:leaf=2.083386183
						68:leaf=0.203086421
					40:[f697554<0.266998976] yes=69,no=70,missing=70
						69:leaf=1.906917453
						70:leaf=3.842844963
				22:[f849794<0.516000986] yes=41,no=42,missing=42
					41:[f137702<0.516000986] yes=71,no=72,missing=72
						71:leaf=0.808646083
						72:leaf=3.981744289
					42:[f912849<0.516000986] yes=73,no=74,missing=74
						73:leaf=5.793631554
						74:leaf=-0.607167065
	2:[f216081<0.516000986] yes=5,no=6,missing=6
		5:[f298114<0.516000986] yes=11,no=12,missing=12
			11:leaf=-1.604213476
			12:[f536024<0.266998976] yes=23,no=24,missing=24
				23:[f62639<0.266998976] yes=43,no=44,missing=44
					43:leaf=0.380605429
					44:leaf=-12.427190781
				24:[f857288<0.266998976] yes=45,no=46,missing=46
					45:leaf=-0.390638500
					46:leaf=-89.853347778
		6:[f517237<0.516000986] yes=13,no=14,missing=14
			13:[f328096<0.266998976] yes=25,no=26,missing=26
				25:[f177373<0.266998976] yes=47,no=48,missing=48
					47:[f416678<0.266998976] yes=75,no=76,missing=76
						75:leaf=-0.510404110
						76:leaf=0.134421498
					48:[f969311<0.266998976] yes=77,no=78,missing=78
						77:leaf=-0.363862425
						78:leaf=0.236481309
				26:[f416678<0.266998976] yes=49,no=50,missing=50
					49:[f811650<0.516000986] yes=79,no=80,missing=80
						79:leaf=0.124383800
						80:leaf=1.390175104
					50:[f811650<0.516000986] yes=81,no=82,missing=82
						81:leaf=0.217280298
						82:leaf=-0.247096434
			14:[f128512<0.534000993] yes=27,no=28,missing=28
				27:[f797675<0.516000986] yes=51,no=52,missing=52
					51:[f416678<0.266998976] yes=83,no=84,missing=84
						83:leaf=0.358643681
						84:leaf=-0.289694697
					52:[f5842<0.516000986] yes=85,no=86,missing=86
						85:leaf=1.209725261
						86:leaf=0.539354146
				28:[f289338<0.516000986] yes=53,no=54,missing=54
					53:[f797675<0.516000986] yes=87,no=88,missing=88
						87:leaf=1.767745018
						88:leaf=0.163684547
					54:[f446292<0.516000986] yes=89,no=90,missing=90
						89:leaf=0.812009215
						90:leaf=-0.041953608
booster[9]:
0:[f216081<0.516000986] yes=1,no=2,missing=2
	1:[f298114<0.516000986] yes=3,no=4,missing=4
		3:[f925223<0.516000986] yes=7,no=8,missing=8
			7:leaf=-0.652580500
			8:leaf=0.283310384
		4:[f72314<0.516000986] yes=9,no=10,missing=10
			9:leaf=-0.006625831
			10:leaf=119.793388367
	2:[f314732<0.516000986] yes=5,no=6,missing=6
		5:[f57091<0.516000986] yes=11,no=12,missing=12
			11:[f277967<0.266998976] yes=19,no=20,missing=20
				19:[f320551<0.266998976] yes=27,no=28,missing=28
					27:leaf=2.490132809
					28:[f713688<0.516000986] yes=43,no=44,missing=44
						43:leaf=-0.712343395
						44:leaf=0.584878623
				20:[f581996<0.266998976] yes=29,no=30,missing=30
					29:[f804027<0.516000986] yes=45,no=46,missing=46
						45:leaf=1.189016104
						46:leaf=4.451985836
					30:[f713688<0.516000986] yes=47,no=48,missing=48
						47:leaf=1.375483394
						48:leaf=3.318225145
			12:[f690415<0.516000986] yes=21,no=22,missing=22
				21:[f390934<0.516000986] yes=31,no=32,missing=32
					31:[f267747<0.516000986] yes=49,no=50,missing=50
						49:leaf=1.298067212
						50:leaf=0.062830232
					32:[f298114<0.516000986] yes=51,no=52,missing=52
						51:leaf=1.103658557
						52:leaf=3.495400667
				22:[f416678<0.266998976] yes=33,no=34,missing=34
					33:[f837095<0.516000986] yes=53,no=54,missing=54
						53:leaf=3.763930798
						54:leaf=0.537131846
					34:[f595936<0.516000986] yes=55,no=56,missing=56
						55:leaf=-0.690472186
						56:leaf=1.612857699
		6:[f398033<0.516000986] yes=13,no=14,missing=14
			13:[f155962<0.516000986] yes=23,no=24,missing=24
				23:[f797675<0.516000986] yes=35,no=36,missing=36
					35:[f303714<0.516000986] yes=57,no=58,missing=58
						57:leaf=0.216960102
						58:leaf=0.947423100
					36:[f659917<0.266998976] yes=59,no=60,missing=60
						59:leaf=1.076848745
						60:leaf=1.733378172
				24:[f644572<0.266998976] yes=37,no=38,missing=38
					37:[f861615<0.516000986] yes=61,no=62,missing=62
						61:leaf=-0.805424631
						62:leaf=1.648474813
					38:[f763396<0.516000986] yes=63,no=64,missing=64
						63:leaf=0.060704418
						64:leaf=-0.889703870
			14:[f820525<0.516000986] yes=25,no=26,missing=26
				25:[f156287<0.266998976] yes=39,no=40,missing=40
					39:[f644572<0.266998976] yes=65,no=66,missing=66
						65:leaf=-0.175762534
						66:leaf=1.270224810
					40:[f789806<0.516000986] yes=67,no=68,missing=68
						67:leaf=7.100919724
						68:leaf=-0.056662980
				26:[f148915<0.516000986] yes=41,no=42,missing=42
					41:[f612465<0.516000986] yes=69,no=70,missing=70
						69:leaf=5.605179310
						70:leaf=0.660411298
					42:[f35004<0.516000986] yes=71,no=72,missing=72
						71:leaf=3.294199705
						72:leaf=-0.029024769
booster[10]:
0:[f148915<0.516000986] yes=1,no=2,missing=2
	1:[f656459<0.516000986] yes=3,no=4,missing=4
		3:[f177373<0.266998976] yes=7,no=8,missing=8
			7:leaf=-14.604195595
			8:[f785998<0.266998976] yes=15,no=16,missing=16
				15:leaf=-0.421431541
				16:[f378952<0.516000986] yes=29,no=30,missing=30
					29:leaf=-3.661572695
					30:[f595681<0.266998976] yes=53,no=54,missing=54
						53:leaf=-2.724295139
						54:leaf=-9.936768532
		4:[f536024<0.266998976] yes=9,no=10,missing=10
			9:[f6330<0.266998976] yes=17,no=18,missing=18
				17:[f177373<0.266998976] yes=31,no=32,missing=32
					31:leaf=1.450726509
					32:leaf=0.233878404
				18:[f51420<0.516000986] yes=33,no=34,missing=34
					33:leaf=2.773453712
					34:[f224591<0.516000986] yes=55,no=56,missing=56
						55:leaf=0.269334406
						56:leaf=-1.037989616
			10:[f127722<0.266998976] yes=19,no=20,missing=20
				19:leaf=-0.731334865
				20:[f359370<0.516000986] yes=37,no=38,missing=38
					37:leaf=-0.326099336
					38:[f750003<0.266998976] yes=57,no=58,missing=58
						57:leaf=-0.849000871
						58:leaf=-3.846031904
	2:[f441768<0.516000986] yes=5,no=6,missing=6
		5:[f931239<0.516000986] yes=11,no=12,missing=12
			11:[f714625<0.516000986] yes=21,no=22,missing=22
				21:leaf=0.109255813
				22:[f538657<0.516000986] yes=41,no=42,missing=42
					41:leaf=0.136406466
					42:[f970438<0.516000986] yes=61,no=62,missing=62
						61:leaf=0.194957316
						62:leaf=-1.132560372
			12:[f416678<0.266998976] yes=23,no=24,missing=24
				23:[f299167<0.516000986] yes=43,no=44,missing=44
					43:[f581996<0.266998976] yes=63,no=64,missing=64
						63:leaf=-0.220267370
						64:leaf=-0.691530645
					44:[f924570<0.516000986] yes=65,no=66,missing=66
						65:leaf=3.921207428
						66:leaf=0.297609925
				24:[f813132<0.516000986] yes=45,no=46,missing=46
					45:[f257525<0.266998976] yes=67,no=68,missing=68
						67:leaf=2.914855719
						68:leaf=0.700625837
					46:[f911396<0.516000986] yes=69,no=70,missing=70
						69:leaf=0.356716514
						70:leaf=-0.658069849
		6:[f313244<0.534000993] yes=13,no=14,missing=14
			13:[f204940<0.516000986] yes=25,no=26,missing=26
				25:leaf=12.101254463
				26:[f301965<0.266998976] yes=47,no=48,missing=48
					47:[f277936<0.516000986] yes=71,no=72,missing=72
						71:leaf=-1.027965426
						72:leaf=-0.330508947
					48:[f808382<0.516000986] yes=73,no=74,missing=74
						73:leaf=1.922790766
						74:leaf=-0.734108627
			14:[f216081<0.516000986] yes=27,no=28,missing=28
				27:[f298114<0.516000986] yes=49,no=50,missing=50
					49:[f127722<0.266998976] yes=75,no=76,missing=76
						75:leaf=0.348483115
						76:leaf=-0.329659462
					50:[f857288<0.266998976] yes=77,no=78,missing=78
						77:leaf=-0.156761691
						78:leaf=-69.585990906
				28:[f240296<0.516000986] yes=51,no=52,missing=52
					51:[f205982<0.516000986] yes=79,no=80,missing=80
						79:leaf=-0.273572803
						80:leaf=1.882462978
					52:[f575071<0.516000986] yes=81,no=82,missing=82
						81:leaf=2.674825668
						82:leaf=-0.020918060
booster[11]:
0:[f216081<0.516000986] yes=1,no=2,missing=2
	1:[f298114<0.516000986] yes=3,no=4,missing=4
		3:leaf=-0.013466293
		4:leaf=104.957328796
	2:[f148915<0.516000986] yes=5,no=6,missing=6
		5:[f656459<0.516000986] yes=9,no=10,missing=10
			9:[f378952<0.516000986] yes=15,no=16,missing=16
				15:[f969311<0.266998976] yes=25,no=26,missing=26
					25:[f43550<0.266998976] yes=43,no=44,missing=44
						43:leaf=0.231019258
						44:leaf=1.479596615
					26:[f754595<0.266998976] yes=45,no=46,missing=46
						45:leaf=0.934610605
						46:leaf=16.138475418
				16:[f595681<0.266998976] yes=27,no=28,missing=28
					27:[f598994<0.266998976] yes=47,no=48,missing=48
						47:leaf=0.154740840
						48:leaf=1.929024577
					28:[f229947<0.516000986] yes=49,no=50,missing=50
						49:leaf=9.805088043
						50:leaf=252.516204834
			10:[f185761<0.516000986] yes=17,no=18,missing=18
				17:[f359370<0.516000986] yes=29,no=30,missing=30
					29:leaf=-0.103547364
					30:[f177373<0.266998976] yes=51,no=52,missing=52
						51:leaf=0.498223603
						52:leaf=2.044946194
				18:[f410371<0.266998976] yes=31,no=32,missing=32
					31:leaf=0.966627896
					32:[f51420<0.516000986] yes=53,no=54,missing=54
						53:leaf=0.694390953
						54:leaf=-0.351587713
		6:[f486902<0.516000986] yes=11,no=12,missing=12
			11:[f928312<0.516000986] yes=19,no=20,missing=20
				19:[f416678<0.266998976] yes=33,no=34,missing=34
					33:[f418493<0.516000986] yes=55,no=56,missing=56
						55:leaf=1.089421868
						56:leaf=-0.344490319
					34:[f349743<0.516000986] yes=57,no=58,missing=58
						57:leaf=-0.932189286
						58:leaf=0.464802086
				20:[f416678<0.266998976] yes=35,no=36,missing=36
					35:[f240296<0.516000986] yes=59,no=60,missing=60
						59:leaf=-0.705143332
						60:leaf=1.307576895
					36:[f436650<0.516000986] yes=61,no=62,missing=62
						61:leaf=1.659984112
						62:leaf=2.508919001
			12:[f541364<0.516000986] yes=21,no=22,missing=22
				21:[f54993<0.266998976] yes=37,no=38,missing=38
					37:leaf=-1.713021278
					38:leaf=-40.446529388
				22:[f605388<0.266998976] yes=39,no=40,missing=40
					39:[f432485<0.516000986] yes=63,no=64,missing=64
						63:leaf=1.288368702
						64:leaf=-0.419762760
					40:[f595681<0.266998976] yes=65,no=66,missing=66
						65:leaf=0.284160942
						66:leaf=-0.008568161
booster[12]:
0:[f541364<0.516000986] yes=1,no=2,missing=2
	1:[f412525<0.266998976] yes=3,no=4,missing=4
		3:[f804027<0.516000986] yes=7,no=8,missing=8
			7:leaf=0.838989198
			8:leaf=11.916978836
		4:[f247449<0.266998976] yes=9,no=10,missing=10
			9:leaf=11.063605309
			10:leaf=81.064880371
	2:[f216081<0.516000986] yes=5,no=6,missing=6
		5:[f201482<0.516000986] yes=11,no=12,missing=12
			11:[f127722<0.266998976] yes=15,no=16,missing=16
				15:leaf=-3.926247835
				16:leaf=-12.831522942
			12:[f484457<0.516000986] yes=17,no=18,missing=18
				17:leaf=-13.826507568
				18:leaf=-48.348350525
		6:[f148915<0.516000986] yes=13,no=14,missing=14
			13:[f656459<0.516000986] yes=19,no=20,missing=20
				19:[f177373<0.266998976] yes=23,no=24,missing=24
					23:[f298114<0.516000986] yes=31,no=32,missing=32
						31:leaf=-8.321118355
						32:leaf=-86.857246399
					24:[f378952<0.516000986] yes=33,no=34,missing=34
						33:leaf=0.181877017
						34:leaf=-22.718944550
				20:[f156287<0.266998976] yes=25,no=26,missing=26
					25:[f659917<0.266998976] yes=35,no=36,missing=36
						35:leaf=-0.934124351
						36:leaf=0.228874177
					26:leaf=-0.861271322
			14:[f320398<0.516000986] yes=21,no=22,missing=22
				21:[f655428<0.516000986] yes=27,no=28,missing=28
					27:[f678670<0.516000986] yes=37,no=38,missing=38
						37:leaf=-0.964732885
						38:leaf=1.332609057
					28:[f891765<0.266998976] yes=39,no=40,missing=40
						39:leaf=2.420289755
						40:leaf=0.557797909
				22:[f612561<0.516000986] yes=29,no=30,missing=30
					29:[f783464<0.266998976] yes=41,no=42,missing=42
						41:leaf=7.716309071
						42:leaf=0.622106254
					30:[f534773<0.516000986] yes=43,no=44,missing=44
						43:leaf=0.725317776
						44:leaf=-0.009945395
booster[13]:
0:[f612561<0.516000986] yes=1,no=2,missing=2
	1:[f783464<0.266998976] yes=3,no=4,missing=4
		3:leaf=-52.281307220
		4:[f127722<0.266998976] yes=7,no=8,missing=8
			7:[f62639<0.266998976] yes=11,no=12,missing=12
				11:leaf=-0.902295947
				12:leaf=1.148256898
			8:[f62639<0.266998976] yes=13,no=14,missing=14
				13:[f536024<0.266998976] yes=21,no=22,missing=22
					21:leaf=3.764255762
					22:leaf=1.055248380
				14:leaf=-0.728522182
	2:[f541364<0.516000986] yes=5,no=6,missing=6
		5:leaf=-36.617301941
		6:[f148915<0.516000986] yes=9,no=10,missing=10
			9:[f656459<0.516000986] yes=15,no=16,missing=16
				15:[f969311<0.266998976] yes=23,no=24,missing=24
					23:[f515885<0.516000986] yes=33,no=34,missing=34
						33:leaf=-0.201083541
						34:leaf=-11.822312355
					24:leaf=-99.663436890
				16:[f338260<0.516000986] yes=25,no=26,missing=26
					25:leaf=0.754081130
					26:[f298114<0.516000986] yes=37,no=38,missing=38
						37:leaf=0.517117858
						38:leaf=-0.197967470
			10:[f635169<0.516000986] yes=17,no=18,missing=18
				17:[f849794<0.516000986] yes=27,no=28,missing=28
					27:[f240296<0.516000986] yes=39,no=40,missing=40
						39:leaf=0.017416595
						40:leaf=5.099762917
					28:[f156287<0.266998976] yes=41,no=42,missing=42
						41:leaf=1.013189912
						42:leaf=2.352334976
				18:[f5842<0.516000986] yes=29,no=30,missing=30
					29:[f167132<0.266998976] yes=43,no=44,missing=44
						43:leaf=0.811634660
						44:leaf=0.259376109
					30:[f416678<0.266998976] yes=45,no=46,missing=46
						45:leaf=-0.032477181
						46:leaf=0.090673342
booster[14]:
0:[f612561<0.516000986] yes=1,no=2,missing=2
	1:[f62639<0.266998976] yes=3,no=4,missing=4
		3:[f431478<0.516000986] yes=7,no=8,missing=8
			7:leaf=1.242539644
			8:[f703373<0.516000986] yes=15,no=16,missing=16
				15:leaf=-0.100572787
				16:leaf=-1.077721953
		4:[f256705<0.516000986] yes=9,no=10,missing=10
			9:[f300970<0.516000986] yes=17,no=18,missing=18
				17:leaf=-0.573487639
				18:leaf=4.718882561
			10:leaf=168.630157471
	2:[f148915<0.516000986] yes=5,no=6,missing=6
		5:[f656459<0.516000986] yes=11,no=12,missing=12
			11:[f526669<0.516000986] yes=19,no=20,missing=20
				19:leaf=2.293415785
				20:leaf=-148.431335449
			12:[f728207<0.516000986] yes=21,no=22,missing=22
				21:leaf=-0.636010528
				22:[f564644<0.516000986] yes=29,no=30,missing=30
					29:leaf=-0.319477260
					30:[f958687<0.266998976] yes=41,no=42,missing=42
						41:leaf=-0.833396435
						42:leaf=0.217085809
		6:[f941005<0.516000986] yes=13,no=14,missing=14
			13:[f127722<0.266998976] yes=23,no=24,missing=24
				23:[f156287<0.266998976] yes=31,no=32,missing=32
					31:[f221098<0.516000986] yes=43,no=44,missing=44
						43:leaf=0.694914997
						44:leaf=3.047580004
					32:[f504960<0.266998976] yes=45,no=46,missing=46
						45:leaf=0.141970798
						46:leaf=1.234928131
				24:[f763396<0.516000986] yes=33,no=34,missing=34
					33:[f551276<0.516000986] yes=47,no=48,missing=48
						47:leaf=2.244413376
						48:leaf=1.387478709
					34:[f177373<0.266998976] yes=49,no=50,missing=50
						49:leaf=1.344461918
						50:leaf=0.303362668
			14:[f136741<0.516000986] yes=25,no=26,missing=26
				25:[f891765<0.266998976] yes=35,no=36,missing=36
					35:[f600895<0.516000986] yes=51,no=52,missing=52
						51:leaf=-0.357192278
						52:leaf=-2.584305286
					36:[f458796<0.516000986] yes=53,no=54,missing=54
						53:leaf=1.102651358
						54:leaf=-0.836577117
				26:[f771447<0.516000986] yes=37,no=38,missing=38
					37:[f205982<0.516000986] yes=55,no=56,missing=56
						55:leaf=3.852648973
						56:leaf=2.169039011
					38:[f447964<0.516000986] yes=57,no=58,missing=58
						57:leaf=-0.733362854
						58:leaf=-0.001340518
booster[15]:
0:[f148915<0.516000986] yes=1,no=2,missing=2
	1:[f612465<0.516000986] yes=3,no=4,missing=4
		3:[f416678<0.266998976] yes=7,no=8,missing=8
			7:[f969311<0.266998976] yes=15,no=16,missing=16
				15:leaf=-17.596076965
				16:[f515885<0.516000986] yes=27,no=28,missing=28
					27:leaf=32.057384491
					28:leaf=201.565887451
			8:[f804027<0.516000986] yes=17,no=18,missing=18
				17:leaf=-0.559648454
				18:leaf=0.286021680
		4:[f213401<0.516000986] yes=9,no=10,missing=10
			9:leaf=-0.459271431
			10:leaf=0.082314022
	2:[f612561<0.516000986] yes=5,no=6,missing=6
		5:[f62639<0.266998976] yes=11,no=12,missing=12
			11:[f551276<0.516000986] yes=21,no=22,missing=22
				21:leaf=-1.153500438
				22:[f317491<0.516000986] yes=35,no=36,missing=36
					35:leaf=-0.686966658
					36:[f127722<0.266998976] yes=49,no=50,missing=50
						49:leaf=0.673414767
						50:leaf=-0.131627753
			12:leaf=-120.062057495
		6:[f374630<0.516000986] yes=13,no=14,missing=14
			13:[f441768<0.516000986] yes=23,no=24,missing=24
				23:[f362657<0.266998976] yes=37,no=38,missing=38
					37:leaf=-0.858468831
					38:[f802676<0.516000986] yes=51,no=52,missing=52
						51:leaf=-0.717717946
						52:leaf=0.369635940
				24:[f441381<0.266998976] yes=39,no=40,missing=40
					39:[f5842<0.516000986] yes=53,no=54,missing=54
						53:leaf=0.498865962
						54:leaf=1.468204618
					40:[f517237<0.516000986] yes=55,no=56,missing=56
						55:leaf=0.554505169
						56:leaf=2.413464069
			14:[f860862<0.516000986] yes=25,no=26,missing=26
				25:[f440770<0.516000986] yes=41,no=42,missing=42
					41:[f3446<0.516000986] yes=57,no=58,missing=58
						57:leaf=5.553445339
						58:leaf=2.350368261
					42:[f681264<0.516000986] yes=59,no=60,missing=60
						59:leaf=-0.308979750
						60:leaf=0.009376261
				26:[f553606<0.516000986] yes=43,no=44,missing=44
					43:[f359370<0.516000986] yes=61,no=62,missing=62
						61:leaf=0.971415579
						62:leaf=6.098917007
					44:[f660363<0.516000986] yes=63,no=64,missing=64
						63:leaf=5.136445999
						64:leaf=-0.005143391
booster[16]:
0:[f553606<0.516000986] yes=1,no=2,missing=2
	1:[f359370<0.516000986] yes=3,no=4,missing=4
		3:[f1184<0.516000986] yes=7,no=8,missing=8
			7:leaf=-0.734881997
			8:leaf=0.828155816
		4:[f323391<0.516000986] yes=9,no=10,missing=10
			9:leaf=-4.160170555
			10:[f798744<0.266998976] yes=15,no=16,missing=16
				15:leaf=-4.304829121
				16:leaf=-17.265953064
	2:[f660363<0.516000986] yes=5,no=6,missing=6
		5:[f891765<0.266998976] yes=11,no=12,missing=12
			11:[f746234<0.516000986] yes=17,no=18,missing=18
				17:leaf=-1.738513589
				18:[f548865<0.516000986] yes=23,no=24,missing=24
					23:leaf=-2.000283003
					24:[f406260<0.266998976] yes=33,no=34,missing=34
						33:leaf=-1.588649869
						34:leaf=-5.459500313
			12:leaf=-9.066810608
		6:[f148915<0.516000986] yes=13,no=14,missing=14
			13:[f612465<0.516000986] yes=19,no=20,missing=20
				19:[f515885<0.516000986] yes=25,no=26,missing=26
					25:[f548865<0.516000986] yes=35,no=36,missing=36
						35:leaf=-0.408346713
						36:leaf=16.868133545
					26:[f694315<0.516000986] yes=37,no=38,missing=38
						37:leaf=-0.121349402
						38:leaf=-115.006805420
				20:leaf=-0.022434587
			14:[f303225<0.516000986] yes=21,no=22,missing=22
				21:[f3446<0.516000986] yes=29,no=30,missing=30
					29:[f860862<0.516000986] yes=41,no=42,missing=42
						41:leaf=-9.049636841
						42:leaf=0.223785475
					30:[f904963<0.516000986] yes=43,no=44,missing=44
						43:leaf=0.096010216
						44:leaf=-0.812371910
				22:[f531859<0.516000986] yes=31,no=32,missing=32
					31:[f891765<0.266998976] yes=45,no=46,missing=46
						45:leaf=7.391551018
						46:leaf=-1.092436075
					32:[f445706<0.516000986] yes=47,no=48,missing=48
						47:leaf=3.709739447
						48:leaf=0.000575302
booster[17]:
0:[f148915<0.516000986] yes=1,no=2,missing=2
	1:[f656459<0.516000986] yes=3,no=4,missing=4
		3:leaf=235.011154175
		4:[f549742<0.516000986] yes=7,no=8,missing=8
			7:[f229947<0.516000986] yes=13,no=14,missing=14
				13:leaf=-0.030688662
				14:leaf=2.791316271
			8:[f763396<0.516000986] yes=15,no=16,missing=16
				15:[f6330<0.266998976] yes=23,no=24,missing=24
					23:leaf=0.127596453
					24:leaf=2.349148750
				16:[f185761<0.516000986] yes=25,no=26,missing=26
					25:leaf=-1.197590232
					26:leaf=-0.039428353
	2:[f553606<0.516000986] yes=5,no=6,missing=6
		5:[f798744<0.266998976] yes=9,no=10,missing=10
			9:leaf=1.747593284
			10:[f323391<0.516000986] yes=17,no=18,missing=18
				17:leaf=1.568740368
				18:[f181753<0.516000986] yes=29,no=30,missing=30
					29:leaf=0.158423319
					30:leaf=130.339233398
		6:[f660363<0.516000986] yes=11,no=12,missing=12
			11:[f891765<0.266998976] yes=19,no=20,missing=20
				19:[f548865<0.516000986] yes=31,no=32,missing=32
					31:[f150493<0.516000986] yes=41,no=42,missing=42
						41:leaf=0.612529695
						42:leaf=-0.263200223
					32:[f746234<0.516000986] yes=43,no=44,missing=44
						43:leaf=0.139129892
						44:leaf=7.744595528
				20:leaf=121.738594055
			12:[f445706<0.516000986] yes=21,no=22,missing=22
				21:[f875408<0.516000986] yes=33,no=34,missing=34
					33:[f750589<0.516000986] yes=45,no=46,missing=46
						45:leaf=-0.292293251
						46:leaf=-1.476225615
					34:[f809072<0.516000986] yes=47,no=48,missing=48
						47:leaf=0.211858153
						48:leaf=-2.868285179
				22:[f304322<0.516000986] yes=35,no=36,missing=36
					35:[f328096<0.266998976] yes=49,no=50,missing=50
						49:leaf=6.250703812
						50:leaf=3.030909777
					36:[f558454<0.516000986] yes=51,no=52,missing=52
						51:leaf=-0.637360334
						52:leaf=0.001294990
booster[18]:
0:[f660363<0.516000986] yes=1,no=2,missing=2
	1:[f548865<0.516000986] yes=3,no=4,missing=4
		3:[f150493<0.516000986] yes=7,no=8,missing=8
			7:leaf=0.200975671
			8:leaf=-1.933250427
		4:[f746234<0.516000986] yes=9,no=10,missing=10
			9:leaf=0.027128588
			10:leaf=-127.690116882
	2:[f553606<0.516000986] yes=5,no=6,missing=6
		5:[f798744<0.266998976] yes=11,no=12,missing=12
			11:[f177373<0.266998976] yes=17,no=18,missing=18
				17:[f644572<0.266998976] yes=25,no=26,missing=26
					25:leaf=0.106547937
					26:leaf=-0.944840729
				18:leaf=0.538380802
			12:[f323391<0.516000986] yes=19,no=20,missing=20
				19:[f254935<0.266998976] yes=29,no=30,missing=30
					29:leaf=0.544847250
					30:leaf=-0.458882391
				20:leaf=-122.723564148
		6:[f148915<0.516000986] yes=13,no=14,missing=14
			13:[f612465<0.516000986] yes=21,no=22,missing=22
				21:[f578124<0.516000986] yes=31,no=32,missing=32
					31:leaf=1.667059779
					32:leaf=-131.310836792
				22:[f763396<0.516000986] yes=33,no=34,missing=34
					33:[f6330<0.266998976] yes=45,no=46,missing=46
						45:leaf=0.024651576
						46:leaf=-1.355878711
					34:leaf=-0.045161843
			14:[f273739<0.516000986] yes=23,no=24,missing=24
				23:[f416678<0.266998976] yes=35,no=36,missing=36
					35:[f129608<0.516000986] yes=49,no=50,missing=50
						49:leaf=-0.050930463
						50:leaf=0.691004336
					36:[f820525<0.516000986] yes=51,no=52,missing=52
						51:leaf=0.694751799
						52:leaf=2.055864573
				24:[f535626<0.516000986] yes=37,no=38,missing=38
					37:[f22400<0.516000986] yes=53,no=54,missing=54
						53:leaf=-6.918193340
						54:leaf=-0.452190161
					38:[f637069<0.534000993] yes=55,no=56,missing=56
						55:leaf=0.105958015
						56:leaf=-0.014030988
booster[19]:
0:[f660363<0.516000986] yes=1,no=2,missing=2
	1:[f746234<0.516000986] yes=3,no=4,missing=4
		3:leaf=0.005073717
		4:[f578124<0.516000986] yes=9,no=10,missing=10
			9:leaf=8.467828751
			10:leaf=150.363906860
	2:[f553606<0.516000986] yes=5,no=6,missing=6
		5:[f798744<0.266998976] yes=11,no=12,missing=12
			11:[f510562<0.516000986] yes=15,no=16,missing=16
				15:leaf=0.526239872
				16:[f127722<0.266998976] yes=23,no=24,missing=24
					23:leaf=0.382109404
					24:[f773270<0.516000986] yes=33,no=34,missing=34
						33:leaf=0.188869491
						34:leaf=-0.796333611
			12:[f323391<0.516000986] yes=17,no=18,missing=18
				17:leaf=0.059222132
				18:leaf=119.272903442
		6:[f148915<0.516000986] yes=13,no=14,missing=14
			13:[f612465<0.516000986] yes=19,no=20,missing=20
				19:leaf=-77.728126526
				20:[f362657<0.266998976] yes=27,no=28,missing=28
					27:leaf=0.712166548
					28:leaf=-0.132797047
			14:[f274539<0.516000986] yes=21,no=22,missing=22
				21:[f228214<0.266998976] yes=29,no=30,missing=30
					29:[f763396<0.516000986] yes=39,no=40,missing=40
						39:leaf=-0.478635192
						40:leaf=-0.144578665
					30:[f240296<0.516000986] yes=41,no=42,missing=42
						41:leaf=-1.712558031
						42:leaf=-0.769394398
				22:[f49609<0.516000986] yes=31,no=32,missing=32
					31:[f455968<0.516000986] yes=43,no=44,missing=44
						43:leaf=6.906840801
						44:leaf=0.146736890
					32:[f228214<0.534000993] yes=45,no=46,missing=46
						45:leaf=0.149274692
						46:leaf=-0.023232941
booster[20]:
0:[f660363<0.516000986] yes=1,no=2,missing=2
	1:[f75720<0.516000986] yes=3,no=4,missing=4
		3:leaf=-2.498250246
		4:[f181753<0.516000986] yes=7,no=8,missing=8
			7:leaf=-1.000353694
			8:leaf=-274.884857178
	2:[f553606<0.516000986] yes=5,no=6,missing=6
		5:[f323391<0.516000986] yes=9,no=10,missing=10
			9:leaf=0.063534006
			10:[f156287<0.266998976] yes=15,no=16,missing=16
				15:[f177373<0.266998976] yes=23,no=24,missing=24
					23:[f644572<0.266998976] yes=37,no=38,missing=38
						37:leaf=-39.339725494
						38:leaf=-12.213946342
					24:leaf=-73.369216919
				16:leaf=-12.127614975
		6:[f323391<0.516000986] yes=11,no=12,missing=12
			11:[f963986<0.266998976] yes=17,no=18,missing=18
				17:[f254935<0.266998976] yes=25,no=26,missing=26
					25:[f5842<0.516000986] yes=39,no=40,missing=40
						39:leaf=0.581900358
						40:leaf=2.515698195
					26:[f785998<0.266998976] yes=41,no=42,missing=42
						41:leaf=1.954937458
						42:leaf=0.881309390
				18:[f180463<0.266998976] yes=27,no=28,missing=28
					27:[f536024<0.266998976] yes=43,no=44,missing=44
						43:leaf=1.324739218
						44:leaf=0.157341003
					28:[f254935<0.266998976] yes=45,no=46,missing=46
						45:leaf=0.345209569
						46:leaf=0.107404932
			12:[f405486<0.516000986] yes=19,no=20,missing=20
				19:[f150493<0.516000986] yes=29,no=30,missing=30
					29:[f531508<0.266998976] yes=47,no=48,missing=48
						47:leaf=-0.106696025
						48:leaf=3.495899439
					30:[f536024<0.266998976] yes=49,no=50,missing=50
						49:leaf=0.332244039
						50:leaf=0.856957376
				20:[f30729<0.266998976] yes=31,no=32,missing=32
					31:[f328096<0.266998976] yes=51,no=52,missing=52
						51:leaf=0.306015700
						52:leaf=0.810143769
					32:[f107911<0.516000986] yes=53,no=54,missing=54
						53:leaf=-0.785989106
						54:leaf=-0.011559306
booster[21]:
0:[f660363<0.516000986] yes=1,no=2,missing=2
	1:[f181753<0.516000986] yes=3,no=4,missing=4
		3:leaf=-0.468586564
		4:leaf=192.964416504
	2:[f553606<0.516000986] yes=5,no=6,missing=6
		5:[f254935<0.266998976] yes=7,no=8,missing=8
			7:[f351470<0.516000986] yes=11,no=12,missing=12
				11:leaf=0.367753416
				12:leaf=-1.214618444
			8:[f785998<0.266998976] yes=13,no=14,missing=14
				13:[f798744<0.266998976] yes=19,no=20,missing=20
					19:leaf=2.688993216
					20:leaf=-8.542043686
				14:leaf=-92.402862549
		6:[f233145<0.516000986] yes=9,no=10,missing=10
			9:[f836492<0.516000986] yes=15,no=16,missing=16
				15:[f750003<0.266998976] yes=21,no=22,missing=22
					21:leaf=-0.875839770
					22:[f531508<0.266998976] yes=29,no=30,missing=30
						29:leaf=-0.800514400
						30:leaf=13.276465416
				16:[f416678<0.266998976] yes=23,no=24,missing=24
					23:[f209444<0.516000986] yes=31,no=32,missing=32
						31:leaf=-0.161563411
						32:leaf=0.973660350
					24:leaf=-0.972074211
			10:[f776586<0.516000986] yes=17,no=18,missing=18
				17:[f715564<0.516000986] yes=25,no=26,missing=26
					25:[f696007<0.516000986] yes=33,no=34,missing=34
						33:leaf=-0.579222679
						34:leaf=0.445932090
					26:[f394269<0.516000986] yes=35,no=36,missing=36
						35:leaf=0.997848868
						36:leaf=5.471506596
				18:[f696747<0.516000986] yes=27,no=28,missing=28
					27:[f963986<0.266998976] yes=37,no=38,missing=38
						37:leaf=1.173295140
						38:leaf=0.220266908
					28:[f35004<0.516000986] yes=39,no=40,missing=40
						39:leaf=-1.342909932
						40:leaf=-0.008495305
booster[22]:
0:[f660363<0.516000986] yes=1,no=2,missing=2
	1:leaf=-107.411224365
	2:[f553606<0.516000986] yes=3,no=4,missing=4
		3:[f548865<0.516000986] yes=5,no=6,missing=6
			5:leaf=-0.356733710
			6:leaf=83.486511230
		4:[f776586<0.516000986] yes=7,no=8,missing=8
			7:[f394269<0.516000986] yes=9,no=10,missing=10
				9:[f177373<0.266998976] yes=13,no=14,missing=14
					13:leaf=1.076416612
					14:leaf=-0.500389338
				10:[f715564<0.516000986] yes=15,no=16,missing=16
					15:leaf=-0.117932908
					16:[f638495<0.516000986] yes=23,no=24,missing=24
						23:leaf=-2.933611631
						24:leaf=-9.360952377
			8:[f178447<0.516000986] yes=11,no=12,missing=12
				11:[f891765<0.266998976] yes=17,no=18,missing=18
					17:[f416678<0.266998976] yes=25,no=26,missing=26
						25:leaf=2.483927488
						26:leaf=5.055127144
					18:[f925280<0.516000986] yes=27,no=28,missing=28
						27:leaf=2.849029064
						28:leaf=1.150349259
				12:[f116013<0.516000986] yes=19,no=20,missing=20
					19:[f993306<0.516000986] yes=29,no=30,missing=30
						29:leaf=10.270261765
						30:leaf=-0.520906031
					20:[f881465<0.516000986] yes=31,no=32,missing=32
						31:leaf=3.442624807
						32:leaf=-0.002276320
booster[23]:
0:[f553606<0.516000986] yes=1,no=2,missing=2
	1:leaf=-125.636070251
	2:[f776586<0.516000986] yes=3,no=4,missing=4
		3:[f638495<0.516000986] yes=5,no=6,missing=6
			5:[f523791<0.266998976] yes=9,no=10,missing=10
				9:leaf=-0.624181151
				10:[f320551<0.266998976] yes=17,no=18,missing=18
					17:leaf=0.112265930
					18:leaf=1.361474872
			6:[f394269<0.516000986] yes=11,no=12,missing=12
				11:[f798744<0.266998976] yes=19,no=20,missing=20
					19:leaf=-0.752529681
					20:leaf=0.393137395
				12:[f715564<0.516000986] yes=21,no=22,missing=22
					21:leaf=-0.044064958
					22:leaf=140.761108398
		4:[f116013<0.516000986] yes=7,no=8,missing=8
			7:[f63822<0.516000986] yes=13,no=14,missing=14
				13:[f629663<0.266998976] yes=23,no=24,missing=24
					23:leaf=4.039251804
					24:leaf=-98.242912292
				14:leaf=-0.977137208
			8:[f881465<0.516000986] yes=15,no=16,missing=16
				15:[f783464<0.266998976] yes=25,no=26,missing=26
					25:[f256705<0.516000986] yes=33,no=34,missing=34
						33:leaf=-2.159589052
						34:leaf=-0.693740010
					26:[f532639<0.516000986] yes=35,no=36,missing=36
						35:leaf=0.076742545
						36:leaf=-2.429270267
				16:[f696858<0.516000986] yes=27,no=28,missing=28
					27:[f177373<0.266998976] yes=37,no=38,missing=38
						37:leaf=-0.263622910
						38:leaf=-0.743880451
					28:[f110797<0.516000986] yes=39,no=40,missing=40
						39:leaf=0.918092847
						40:leaf=-0.001280963
booster[24]:
0:[f116013<0.516000986] yes=1,no=2,missing=2
	1:[f63822<0.516000986] yes=3,no=4,missing=4
		3:leaf=73.542968750
		4:leaf=-0.885592103
	2:[f776586<0.516000986] yes=5,no=6,missing=6
		5:[f638495<0.516000986] yes=7,no=8,missing=8
			7:[f409348<0.266998976] yes=11,no=12,missing=12
				11:leaf=0.857300699
				12:leaf=-0.013083936
			8:[f394269<0.516000986] yes=13,no=14,missing=14
				13:[f958687<0.266998976] yes=21,no=22,missing=22
					21:leaf=0.296824574
					22:[f763396<0.516000986] yes=33,no=34,missing=34
						33:leaf=0.239842951
						34:leaf=-0.667999566
				14:leaf=-96.395477295
		6:[f704082<0.516000986] yes=9,no=10,missing=10
			9:[f177373<0.266998976] yes=15,no=16,missing=16
				15:[f56773<0.516000986] yes=23,no=24,missing=24
					23:[f964686<0.266998976] yes=35,no=36,missing=36
						35:leaf=0.585898519
						36:leaf=-0.147874221
					24:[f275917<0.266998976] yes=37,no=38,missing=38
						37:leaf=0.282670557
						38:leaf=-0.688064396
				16:[f523791<0.266998976] yes=25,no=26,missing=26
					25:[f409348<0.266998976] yes=39,no=40,missing=40
						39:leaf=0.941261649
						40:leaf=-0.535871625
					26:[f164329<0.516000986] yes=41,no=42,missing=42
						41:leaf=0.288017333
						42:leaf=-0.944274426
			10:[f948585<0.516000986] yes=17,no=18,missing=18
				17:[f177373<0.266998976] yes=27,no=28,missing=28
					27:[f410371<0.266998976] yes=43,no=44,missing=44
						43:leaf=0.220926613
						44:leaf=-0.757961035
					28:[f521030<0.516000986] yes=45,no=46,missing=46
						45:leaf=-0.600919902
						46:leaf=-1.032125950
				18:[f765237<0.516000986] yes=29,no=30,missing=30
					29:[f508197<0.266998976] yes=47,no=48,missing=48
						47:leaf=-0.871843219
						48:leaf=-0.522902131
					30:[f933360<0.516000986] yes=49,no=50,missing=50
						49:leaf=2.978756905
						50:leaf=0.003512791
booster[25]:
0:[f116013<0.516000986] yes=1,no=2,missing=2
	1:[f301965<0.266998976] yes=3,no=4,missing=4
		3:leaf=157.993804932
		4:leaf=-0.649872899
	2:[f776586<0.516000986] yes=5,no=6,missing=6
		5:[f638495<0.516000986] yes=7,no=8,missing=8
			7:leaf=0.155784324
			8:[f629663<0.266998976] yes=13,no=14,missing=14
				13:leaf=-2.597969294
				14:[f958687<0.266998976] yes=21,no=22,missing=22
					21:leaf=-10.294962883
					22:leaf=-99.479057312
		6:[f804493<0.516000986] yes=9,no=10,missing=10
			9:[f226344<0.516000986] yes=15,no=16,missing=16
				15:leaf=13.932962418
				16:[f581810<0.516000986] yes=23,no=24,missing=24
					23:leaf=12.830993652
					24:[f449991<0.516000986] yes=31,no=32,missing=32
						31:leaf=1.663613558
						32:leaf=0.595990658
			10:[f905558<0.516000986] yes=17,no=18,missing=18
				17:[f563262<0.266998976] yes=25,no=26,missing=26
					25:leaf=5.460005283
					26:[f441768<0.516000986] yes=33,no=34,missing=34
						33:leaf=0.386827439
						34:leaf=2.084365845
				18:[f763396<0.516000986] yes=27,no=28,missing=28
					27:[f292412<0.516000986] yes=35,no=36,missing=36
						35:leaf=10.509525299
						36:leaf=0.088439919
					28:[f50169<0.516000986] yes=37,no=38,missing=38
						37:leaf=-9.747407913
						38:leaf=-0.013930967
booster[26]:
0:[f50169<0.516000986] yes=1,no=2,missing=2
	1:[f763396<0.516000986] yes=3,no=4,missing=4
		3:leaf=8.172979355
		4:leaf=74.090393066
	2:[f621777<0.516000986] yes=5,no=6,missing=6
		5:[f536024<0.266998976] yes=7,no=8,missing=8
			7:[f714970<0.516000986] yes=11,no=12,missing=12
				11:leaf=-106.293449402
				12:[f644572<0.266998976] yes=17,no=18,missing=18
					17:leaf=1.323453665
					18:[f320551<0.266998976] yes=27,no=28,missing=28
						27:leaf=0.946401417
						28:leaf=-0.394455582
			8:leaf=-130.845138550
		6:[f776586<0.516000986] yes=9,no=10,missing=10
			9:[f320836<0.516000986] yes=13,no=14,missing=14
				13:[f523791<0.266998976] yes=19,no=20,missing=20
					19:leaf=-0.326989174
					20:[f339487<0.516000986] yes=29,no=30,missing=30
						29:leaf=-0.149876028
						30:leaf=1.214852691
				14:[f187282<0.516000986] yes=21,no=22,missing=22
					21:leaf=7.385228634
					22:leaf=114.772491455
			10:[f538388<0.516000986] yes=15,no=16,missing=16
				15:[f969311<0.266998976] yes=23,no=24,missing=24
					23:leaf=-166.477554321
					24:[f277967<0.266998976] yes=31,no=32,missing=32
						31:leaf=-2.913218498
						32:leaf=-0.962269425
				16:[f450725<0.516000986] yes=25,no=26,missing=26
					25:[f441768<0.516000986] yes=33,no=34,missing=34
						33:leaf=-0.029656721
						34:leaf=1.817463636
					26:[f152299<0.516000986] yes=35,no=36,missing=36
						35:leaf=1.524981976
						36:leaf=-0.001495083
booster[27]:
0:[f116013<0.516000986] yes=1,no=2,missing=2
	1:[f750589<0.516000986] yes=3,no=4,missing=4
		3:leaf=-0.268239439
		4:[f167958<0.516000986] yes=7,no=8,missing=8
			7:leaf=-1.850223899
			8:leaf=-250.993148804
	2:[f776586<0.516000986] yes=5,no=6,missing=6
		5:[f339487<0.516000986] yes=9,no=10,missing=10
			9:leaf=-0.008590464
			10:leaf=-100.561630249
		6:[f292412<0.516000986] yes=11,no=12,missing=12
			11:[f521030<0.516000986] yes=13,no=14,missing=14
				13:[f127722<0.266998976] yes=17,no=18,missing=18
					17:leaf=6.183251381
					18:leaf=366.391601562
				14:[f54993<0.266998976] yes=19,no=20,missing=20
					19:[f553135<0.516000986] yes=25,no=26,missing=26
						25:leaf=-0.492305040
						26:leaf=1.226985574
					20:[f328096<0.266998976] yes=27,no=28,missing=28
						27:leaf=0.180617020
						28:leaf=-0.896101117
			12:[f187533<0.516000986] yes=15,no=16,missing=16
				15:[f24288<0.516000986] yes=21,no=22,missing=22
					21:leaf=10.748324394
					22:[f10165<0.516000986] yes=29,no=30,missing=30
						29:leaf=1.609664083
						30:leaf=0.158332258
				16:[f3446<0.516000986] yes=23,no=24,missing=24
					23:[f303225<0.516000986] yes=31,no=32,missing=32
						31:leaf=11.119831085
						32:leaf=0.368902326
					24:[f496781<0.516000986] yes=33,no=34,missing=34
						33:leaf=-0.270232767
						34:leaf=-0.006191506
booster[28]:
0:[f116013<0.516000986] yes=1,no=2,missing=2
	1:leaf=81.869689941
	2:[f776586<0.516000986] yes=3,no=4,missing=4
		3:leaf=93.548408508
		4:[f418493<0.516000986] yes=5,no=6,missing=6
			5:[f44558<0.516000986] yes=7,no=8,missing=8
				7:[f797675<0.516000986] yes=11,no=12,missing=12
					11:leaf=17.958427429
					12:leaf=7.478854179
				8:[f207825<0.516000986] yes=13,no=14,missing=14
					13:[f797675<0.516000986] yes=17,no=18,missing=18
						17:leaf=14.970957756
						18:leaf=1.249581695
					14:[f666703<0.516000986] yes=19,no=20,missing=20
						19:leaf=2.949806452
						20:leaf=0.143647641
			6:[f455968<0.516000986] yes=9,no=10,missing=10
				9:leaf=-23.249710083
				10:[f483910<0.516000986] yes=15,no=16,missing=16
					15:[f891765<0.266998976] yes=21,no=22,missing=22
						21:leaf=1.474990845
						22:leaf=0.531652808
					16:[f191543<0.516000986] yes=23,no=24,missing=24
						23:leaf=11.055208206
						24:leaf=-0.011110205
booster[29]:
0:[f776586<0.516000986] yes=1,no=2,missing=2
	1:leaf=-125.191986084
	2:[f621777<0.516000986] yes=3,no=4,missing=4
		3:[f129608<0.516000986] yes=5,no=6,missing=6
			5:[f306274<0.516000986] yes=9,no=10,missing=10
				9:leaf=0.772041321
				10:[f62639<0.266998976] yes=17,no=18,missing=18
					17:leaf=0.391643375
					18:leaf=-0.723725200
			6:[f409348<0.266998976] yes=11,no=12,missing=12
				11:[f232246<0.516000986] yes=19,no=20,missing=20
					19:leaf=-0.334683776
					20:[f156287<0.266998976] yes=27,no=28,missing=28
						27:leaf=0.773584127
						28:leaf=-0.361657619
				12:leaf=114.187294006
		4:[f870880<0.516000986] yes=7,no=8,missing=8
			7:[f73521<0.516000986] yes=13,no=14,missing=14
				13:leaf=-2.249862909
				14:[f940344<0.516000986] yes=21,no=22,missing=22
					21:[f495496<0.516000986] yes=29,no=30,missing=30
						29:leaf=9.197504044
						30:leaf=-0.665276885
					22:[f129608<0.516000986] yes=31,no=32,missing=32
						31:leaf=-1.141303062
						32:leaf=-0.778919518
			8:[f28604<0.516000986] yes=15,no=16,missing=16
				15:[f563262<0.266998976] yes=23,no=24,missing=24
					23:[f750003<0.266998976] yes=33,no=34,missing=34
						33:leaf=0.946269572
						34:leaf=6.071289539
					24:[f441768<0.516000986] yes=35,no=36,missing=36
						35:leaf=0.301274955
						36:leaf=2.516991854
				16:[f146670<0.516000986] yes=25,no=26,missing=26
					25:[f928312<0.516000986] yes=37,no=38,missing=38
						37:leaf=2.779230833
						38:leaf=1.464877963
					26:[f549742<0.516000986] yes=39,no=40,missing=40
						39:leaf=-0.637842655
						40:leaf=0.000029928
booster[30]:
0:[f621777<0.516000986] yes=1,no=2,missing=2
	1:[f177373<0.266998976] yes=3,no=4,missing=4
		3:[f129608<0.516000986] yes=7,no=8,missing=8
			7:[f156287<0.266998976] yes=15,no=16,missing=16
				15:leaf=0.585866332
				16:leaf=-0.387910277
			8:leaf=-3.891300201
		4:[f320551<0.266998976] yes=9,no=10,missing=10
			9:leaf=-0.077832356
			10:leaf=88.873001099
	2:[f54993<0.534000993] yes=5,no=6,missing=6
		5:[f180463<0.266998976] yes=11,no=12,missing=12
			11:[f515885<0.516000986] yes=19,no=20,missing=20
				19:[f320551<0.266998976] yes=29,no=30,missing=30
					29:[f607524<0.266998976] yes=45,no=46,missing=46
						45:leaf=-0.375821918
						46:leaf=0.497534424
					30:[f298114<0.516000986] yes=47,no=48,missing=48
						47:leaf=0.539411545
						48:leaf=-0.423509330
				20:[f114823<0.516000986] yes=31,no=32,missing=32
					31:[f408566<0.266998976] yes=49,no=50,missing=50
						49:leaf=0.771485090
						50:leaf=-0.235948861
					32:[f320551<0.266998976] yes=51,no=52,missing=52
						51:leaf=1.707713008
						52:leaf=1.175267696
			12:[f963986<0.266998976] yes=21,no=22,missing=22
				21:[f320551<0.266998976] yes=33,no=34,missing=34
					33:[f242186<0.516000986] yes=53,no=54,missing=54
						53:leaf=2.923280239
						54:leaf=1.196064353
					34:[f287362<0.266998976] yes=55,no=56,missing=56
						55:leaf=0.984234571
						56:leaf=0.406208217
				22:[f320551<0.534000993] yes=35,no=36,missing=36
					35:[f534329<0.266998976] yes=57,no=58,missing=58
						57:leaf=-0.269681871
						58:leaf=0.181369990
					36:[f156287<0.266998976] yes=59,no=60,missing=60
						59:leaf=-0.120095305
						60:leaf=0.028325336
		6:[f644572<0.534000993] yes=13,no=14,missing=14
			13:[f148915<0.516000986] yes=23,no=24,missing=24
				23:[f536024<0.266998976] yes=37,no=38,missing=38
					37:leaf=0.261222035
					38:leaf=-91.202270508
				24:[f220635<0.516000986] yes=39,no=40,missing=40
					39:[f156287<0.266998976] yes=63,no=64,missing=64
						63:leaf=1.318427682
						64:leaf=0.219593331
					40:[f63822<0.516000986] yes=65,no=66,missing=66
						65:leaf=1.306962132
						66:leaf=0.045154095
			14:[f148915<0.516000986] yes=25,no=26,missing=26
				25:[f6330<0.266998976] yes=41,no=42,missing=42
					41:[f216124<0.516000986] yes=67,no=68,missing=68
						67:leaf=0.358285427
						68:leaf=-0.451380342
					42:[f177373<0.266998976] yes=69,no=70,missing=70
						69:leaf=-6.080324650
						70:leaf=76.808326721
				26:[f165230<0.516000986] yes=43,no=44,missing=44
					43:[f177373<0.266998976] yes=71,no=72,missing=72
						71:leaf=-0.012730023
						72:leaf=0.623671234
					44:[f292412<0.516000986] yes=73,no=74,missing=74
						73:leaf=-2.649737835
						74:leaf=-0.029205626
booster[31]:
0:[f621777<0.516000986] yes=1,no=2,missing=2
	1:[f129608<0.516000986] yes=3,no=4,missing=4
		3:[f177373<0.266998976] yes=7,no=8,missing=8
			7:[f416678<0.266998976] yes=13,no=14,missing=14
				13:leaf=-0.385022461
				14:leaf=0.534528911
			8:[f306274<0.516000986] yes=15,no=16,missing=16
				15:leaf=-0.188978150
				16:leaf=-4.686230183
		4:leaf=-183.975158691
	2:[f148915<0.516000986] yes=5,no=6,missing=6
		5:[f612465<0.516000986] yes=9,no=10,missing=10
			9:[f643601<0.516000986] yes=17,no=18,missing=18
				17:leaf=0.270016044
				18:leaf=110.573646545
			10:[f177373<0.266998976] yes=19,no=20,missing=20
				19:[f6330<0.266998976] yes=25,no=26,missing=26
					25:leaf=-0.063346572
					26:[f73521<0.516000986] yes=39,no=40,missing=40
						39:leaf=-0.271213025
						40:leaf=0.698446929
				20:[f298114<0.516000986] yes=27,no=28,missing=28
					27:leaf=0.114093639
					28:leaf=-9.214166641
		6:[f641729<0.516000986] yes=11,no=12,missing=12
			11:[f797675<0.516000986] yes=21,no=22,missing=22
				21:[f336586<0.516000986] yes=29,no=30,missing=30
					29:leaf=0.861890197
					30:[f100770<0.516000986] yes=41,no=42,missing=42
						41:leaf=0.085758992
						42:leaf=-0.993985534
				22:[f656902<0.516000986] yes=31,no=32,missing=32
					31:[f717173<0.516000986] yes=43,no=44,missing=44
						43:leaf=6.772053242
						44:leaf=1.585089207
					32:[f534902<0.266998976] yes=45,no=46,missing=46
						45:leaf=0.354425520
						46:leaf=2.296471119
			12:[f121225<0.516000986] yes=23,no=24,missing=24
				23:[f917096<0.516000986] yes=33,no=34,missing=34
					33:[f763396<0.516000986] yes=47,no=48,missing=48
						47:leaf=0.926966488
						48:leaf=-0.496839970
					34:[f14756<0.516000986] yes=49,no=50,missing=50
						49:leaf=0.103014804
						50:leaf=0.745511651
				24:[f409348<0.266998976] yes=35,no=36,missing=36
					35:[f156287<0.266998976] yes=51,no=52,missing=52
						51:leaf=0.189292341
						52:leaf=-0.145227656
					36:[f126819<0.516000986] yes=53,no=54,missing=54
						53:leaf=0.475151837
						54:leaf=-0.021607045
booster[32]:
0:[f621777<0.516000986] yes=1,no=2,missing=2
	1:[f177373<0.266998976] yes=3,no=4,missing=4
		3:[f518266<0.516000986] yes=7,no=8,missing=8
			7:leaf=-0.376127005
			8:[f62639<0.266998976] yes=13,no=14,missing=14
				13:leaf=0.033344023
				14:leaf=1.514855146
		4:leaf=146.566513062
	2:[f148915<0.516000986] yes=5,no=6,missing=6
		5:[f656459<0.516000986] yes=9,no=10,missing=10
			9:leaf=-45.887138367
			10:[f185761<0.516000986] yes=15,no=16,missing=16
				15:leaf=17.515508652
				16:[f177373<0.266998976] yes=21,no=22,missing=22
					21:[f763396<0.516000986] yes=31,no=32,missing=32
						31:leaf=0.733764172
						32:leaf=-0.183615968
					22:leaf=-9.337811470
		6:[f136541<0.516000986] yes=11,no=12,missing=12
			11:[f328096<0.266998976] yes=17,no=18,missing=18
				17:[f66871<0.516000986] yes=23,no=24,missing=24
					23:[f644572<0.266998976] yes=33,no=34,missing=34
						33:leaf=4.047427654
						34:leaf=8.261494637
					24:[f785750<0.516000986] yes=35,no=36,missing=36
						35:leaf=5.425253868
						36:leaf=2.386249781
				18:[f783464<0.266998976] yes=25,no=26,missing=26
					25:[f69860<0.266998976] yes=37,no=38,missing=38
						37:leaf=-0.019994993
						38:leaf=0.286844581
					26:[f187282<0.516000986] yes=39,no=40,missing=40
						39:leaf=-1.808270931
						40:leaf=0.614757180
			12:[f578124<0.516000986] yes=19,no=20,missing=20
				19:[f963986<0.266998976] yes=27,no=28,missing=28
					27:[f181753<0.516000986] yes=41,no=42,missing=42
						41:leaf=2.690215111
						42:leaf=1.147065163
					28:[f180463<0.266998976] yes=43,no=44,missing=44
						43:leaf=1.256766796
						44:leaf=0.173988327
				20:[f589912<0.516000986] yes=29,no=30,missing=30
					29:[f536239<0.516000986] yes=45,no=46,missing=46
						45:leaf=2.508875608
						46:leaf=0.630559027
					30:[f986667<0.516000986] yes=47,no=48,missing=48
						47:leaf=1.724621534
						48:leaf=-0.011865450
booster[33]:
0:[f116013<0.516000986] yes=1,no=2,missing=2
	1:leaf=-222.965759277
	2:[f282008<0.516000986] yes=3,no=4,missing=4
		3:[f182983<0.516000986] yes=5,no=6,missing=6
			5:leaf=6.203305244
			6:[f187282<0.516000986] yes=9,no=10,missing=10
				9:[f320551<0.266998976] yes=15,no=16,missing=16
					15:leaf=0.513102591
					16:[f43759<0.516000986] yes=27,no=28,missing=28
						27:leaf=0.287117690
						28:leaf=-0.830968201
				10:[f416678<0.266998976] yes=17,no=18,missing=18
					17:[f162420<0.266998976] yes=29,no=30,missing=30
						29:leaf=-0.063745327
						30:leaf=1.901516795
					18:[f797675<0.516000986] yes=31,no=32,missing=32
						31:leaf=0.250469089
						32:leaf=2.036530733
		4:[f189867<0.516000986] yes=7,no=8,missing=8
			7:[f315268<0.266998976] yes=11,no=12,missing=12
				11:[f644572<0.266998976] yes=19,no=20,missing=20
					19:[f287362<0.266998976] yes=33,no=34,missing=34
						33:leaf=0.171150789
						34:leaf=-0.248738006
					20:[f343748<0.516000986] yes=35,no=36,missing=36
						35:leaf=2.225706816
						36:leaf=-0.696785450
				12:[f44405<0.516000986] yes=21,no=22,missing=22
					21:leaf=3.874388456
					22:[f42264<0.516000986] yes=37,no=38,missing=38
						37:leaf=-1.055231571
						38:leaf=-0.247753844
			8:[f550494<0.516000986] yes=13,no=14,missing=14
				13:[f785998<0.266998976] yes=23,no=24,missing=24
					23:leaf=0.854744315
					24:[f141999<0.266998976] yes=39,no=40,missing=40
						39:leaf=9.753708839
						40:leaf=5.239536285
				14:[f289775<0.516000986] yes=25,no=26,missing=26
					25:[f156287<0.266998976] yes=41,no=42,missing=42
						41:leaf=1.572956920
						42:leaf=0.629215539
					26:[f795077<0.516000986] yes=43,no=44,missing=44
						43:leaf=4.729957581
						44:leaf=-0.001506586
booster[34]:
0:[f621777<0.516000986] yes=1,no=2,missing=2
	1:[f156287<0.266998976] yes=3,no=4,missing=4
		3:[f301965<0.266998976] yes=7,no=8,missing=8
			7:leaf=103.616844177
			8:leaf=-2.734056950
		4:[f277936<0.516000986] yes=9,no=10,missing=10
			9:leaf=-1.150811195
			10:leaf=-12.443830490
	2:[f550494<0.516000986] yes=5,no=6,missing=6
		5:[f141999<0.266998976] yes=11,no=12,missing=12
			11:leaf=-74.817626953
			12:[f785998<0.266998976] yes=15,no=16,missing=16
				15:leaf=0.438735753
				16:[f410371<0.266998976] yes=21,no=22,missing=22
					21:leaf=-3.143256426
					22:leaf=-6.595952034
		6:[f652494<0.516000986] yes=13,no=14,missing=14
			13:[f282008<0.516000986] yes=17,no=18,missing=18
				17:leaf=-9.549258232
				18:[f167132<0.266998976] yes=23,no=24,missing=24
					23:leaf=0.406279862
					24:[f697554<0.266998976] yes=29,no=30,missing=30
						29:leaf=0.233390510
						30:leaf=-0.942094326
			14:[f795077<0.516000986] yes=19,no=20,missing=20
				19:[f750003<0.266998976] yes=25,no=26,missing=26
					25:[f75720<0.516000986] yes=31,no=32,missing=32
						31:leaf=0.191283703
						32:leaf=-2.938033819
					26:[f515637<0.516000986] yes=33,no=34,missing=34
						33:leaf=-1.205012321
						34:leaf=-5.454412937
				20:[f431478<0.516000986] yes=27,no=28,missing=28
					27:[f186387<0.516000986] yes=35,no=36,missing=36
						35:leaf=0.764544010
						36:leaf=8.031959534
					28:[f226630<0.516000986] yes=37,no=38,missing=38
						37:leaf=2.049561501
						38:leaf=-0.003534853
booster[35]:
0:[f550494<0.516000986] yes=1,no=2,missing=2
	1:[f410371<0.266998976] yes=3,no=4,missing=4
		3:[f515637<0.516000986] yes=7,no=8,missing=8
			7:leaf=0.842465281
			8:[f42391<0.266998976] yes=17,no=18,missing=18
				17:leaf=0.881820977
				18:leaf=4.337583065
		4:[f785998<0.266998976] yes=9,no=10,missing=10
			9:leaf=0.060054377
			10:leaf=51.231468201
	2:[f913215<0.516000986] yes=5,no=6,missing=6
		5:[f891765<0.266998976] yes=11,no=12,missing=12
			11:[f391721<0.516000986] yes=21,no=22,missing=22
				21:leaf=0.742110729
				22:[f639077<0.516000986] yes=29,no=30,missing=30
					29:[f127722<0.266998976] yes=41,no=42,missing=42
						41:leaf=0.632119060
						42:leaf=-0.381270140
					30:[f261120<0.516000986] yes=43,no=44,missing=44
						43:leaf=0.199281037
						44:leaf=-0.761610687
			12:[f711232<0.516000986] yes=23,no=24,missing=24
				23:leaf=0.167604715
				24:[f267530<0.516000986] yes=31,no=32,missing=32
					31:[f644572<0.266998976] yes=45,no=46,missing=46
						45:leaf=0.351159811
						46:leaf=-0.592654884
					32:[f335138<0.516000986] yes=47,no=48,missing=48
						47:leaf=0.369144708
						48:leaf=-0.938350379
		6:[f739927<0.516000986] yes=13,no=14,missing=14
			13:[f441768<0.516000986] yes=25,no=26,missing=26
				25:[f504960<0.266998976] yes=33,no=34,missing=34
					33:leaf=2.016068697
					34:[f177373<0.266998976] yes=49,no=50,missing=50
						49:leaf=-0.880611241
						50:leaf=0.271269679
				26:[f301965<0.266998976] yes=35,no=36,missing=36
					35:[f129608<0.516000986] yes=51,no=52,missing=52
						51:leaf=4.736960888
						52:leaf=1.381407261
					36:[f128512<0.266998976] yes=53,no=54,missing=54
						53:leaf=0.731100857
						54:leaf=2.858825445
			14:[f683694<0.516000986] yes=27,no=28,missing=28
				27:[f187282<0.516000986] yes=37,no=38,missing=38
					37:[f62639<0.266998976] yes=55,no=56,missing=56
						55:leaf=-0.556577325
						56:leaf=3.319739103
					38:[f213401<0.516000986] yes=57,no=58,missing=58
						57:leaf=1.875813484
						58:leaf=5.887233734
				28:[f721151<0.516000986] yes=39,no=40,missing=40
					39:[f416678<0.266998976] yes=59,no=60,missing=60
						59:leaf=2.350813150
						60:leaf=4.401839256
					40:[f78508<0.516000986] yes=61,no=62,missing=62
						61:leaf=1.417444706
						62:leaf=-0.000335705
booster[36]:
0:[f683694<0.516000986] yes=1,no=2,missing=2
	1:[f187282<0.516000986] yes=3,no=4,missing=4
		3:[f62639<0.266998976] yes=7,no=8,missing=8
			7:[f279241<0.516000986] yes=15,no=16,missing=16
				15:leaf=-1.022359967
				16:[f718440<0.516000986] yes=31,no=32,missing=32
					31:leaf=0.849720657
					32:[f531508<0.266998976] yes=55,no=56,missing=56
						55:leaf=0.678470552
						56:leaf=-0.121848606
			8:[f412525<0.266998976] yes=17,no=18,missing=18
				17:leaf=-0.352340162
				18:[f654164<0.516000986] yes=33,no=34,missing=34
					33:[f177373<0.266998976] yes=57,no=58,missing=58
						57:leaf=0.223457217
						58:leaf=-1.184309959
					34:[f569100<0.516000986] yes=59,no=60,missing=60
						59:leaf=-0.660472333
						60:leaf=-2.520118475
		4:[f213401<0.516000986] yes=9,no=10,missing=10
			9:[f143594<0.516000986] yes=19,no=20,missing=20
				19:leaf=-1.002312422
				20:[f804027<0.516000986] yes=37,no=38,missing=38
					37:leaf=-1.202424288
					38:[f696007<0.516000986] yes=61,no=62,missing=62
						61:leaf=-0.974171221
						62:leaf=0.246537909
			10:[f908550<0.516000986] yes=21,no=22,missing=22
				21:leaf=-1.435130835
				22:[f911396<0.516000986] yes=39,no=40,missing=40
					39:leaf=-3.543612719
					40:leaf=-12.125731468
	2:[f795077<0.516000986] yes=5,no=6,missing=6
		5:[f750003<0.266998976] yes=11,no=12,missing=12
			11:[f714970<0.516000986] yes=23,no=24,missing=24
				23:leaf=-0.015332328
				24:leaf=1.131460071
			12:[f311749<0.516000986] yes=25,no=26,missing=26
				25:leaf=0.006018750
				26:[f785998<0.266998976] yes=43,no=44,missing=44
					43:leaf=1.520339131
					44:[f187282<0.516000986] yes=63,no=64,missing=64
						63:leaf=2.704458714
						64:leaf=9.259775162
		6:[f279995<0.516000986] yes=13,no=14,missing=14
			13:[f534329<0.266998976] yes=27,no=28,missing=28
				27:[f964651<0.516000986] yes=45,no=46,missing=46
					45:leaf=5.521134377
					46:[f156287<0.266998976] yes=65,no=66,missing=66
						65:leaf=4.146739960
						66:leaf=-0.359501243
				28:[f508197<0.266998976] yes=47,no=48,missing=48
					47:[f797675<0.516000986] yes=67,no=68,missing=68
						67:leaf=0.376149029
						68:leaf=0.822627604
					48:[f802188<0.516000986] yes=69,no=70,missing=70
						69:leaf=5.280573368
						70:leaf=0.348959237
			14:[f634796<0.516000986] yes=29,no=30,missing=30
				29:[f441381<0.266998976] yes=49,no=50,missing=50
					49:[f724102<0.516000986] yes=71,no=72,missing=72
						71:leaf=-0.091638081
						72:leaf=1.890459180
					50:[f245290<0.516000986] yes=73,no=74,missing=74
						73:leaf=1.601308823
						74:leaf=4.235991001
				30:[f825971<0.516000986] yes=51,no=52,missing=52
					51:[f213401<0.516000986] yes=75,no=76,missing=76
						75:leaf=-0.554806650
						76:leaf=0.836532772
					52:[f652494<0.516000986] yes=77,no=78,missing=78
						77:leaf=8.430090904
						78:leaf=-0.005222494
booster[37]:
0:[f795077<0.516000986] yes=1,no=2,missing=2
	1:[f750003<0.266998976] yes=3,no=4,missing=4
		3:[f177373<0.266998976] yes=7,no=8,missing=8
			7:leaf=0.745243311
			8:[f904963<0.516000986] yes=15,no=16,missing=16
				15:[f416678<0.266998976] yes=23,no=24,missing=24
					23:[f354020<0.516000986] yes=39,no=40,missing=40
						39:leaf=-0.278887391
						40:leaf=0.704939604
					24:[f354020<0.516000986] yes=41,no=42,missing=42
						41:leaf=0.148573071
						42:leaf=-0.460418820
				16:leaf=-0.477348715
		4:[f311749<0.516000986] yes=9,no=10,missing=10
			9:leaf=0.001063553
			10:[f785998<0.266998976] yes=17,no=18,missing=18
				17:[f964686<0.266998976] yes=27,no=28,missing=28
					27:leaf=0.857439816
					28:leaf=-0.509518623
				18:[f187282<0.516000986] yes=29,no=30,missing=30
					29:[f673709<0.516000986] yes=43,no=44,missing=44
						43:leaf=0.446944565
						44:leaf=-0.767768800
					30:leaf=-118.619018555
	2:[f652494<0.516000986] yes=5,no=6,missing=6
		5:[f282008<0.516000986] yes=11,no=12,missing=12
			11:leaf=-3.562942505
			12:leaf=-51.581943512
		6:[f170305<0.516000986] yes=13,no=14,missing=14
			13:[f177373<0.266998976] yes=19,no=20,missing=20
				19:[f129608<0.516000986] yes=31,no=32,missing=32
					31:[f190595<0.516000986] yes=45,no=46,missing=46
						45:leaf=-1.098595262
						46:leaf=0.297919869
					32:[f536024<0.266998976] yes=47,no=48,missing=48
						47:leaf=-0.453609467
						48:leaf=-0.073023856
				20:[f969311<0.266998976] yes=33,no=34,missing=34
					33:[f267498<0.516000986] yes=49,no=50,missing=50
						49:leaf=1.671890497
						50:leaf=0.116239190
					34:[f891765<0.266998976] yes=51,no=52,missing=52
						51:leaf=2.079214096
						52:leaf=0.768707752
			14:[f691985<0.516000986] yes=21,no=22,missing=22
				21:[f563262<0.266998976] yes=35,no=36,missing=36
					35:leaf=6.255311489
					36:[f205982<0.516000986] yes=53,no=54,missing=54
						53:leaf=5.107276917
						54:leaf=2.676726580
				22:[f110404<0.516000986] yes=37,no=38,missing=38
					37:[f245290<0.516000986] yes=55,no=56,missing=56
						55:leaf=1.174748063
						56:leaf=3.563309908
					38:[f864727<0.516000986] yes=57,no=58,missing=58
						57:leaf=-1.819840550
						58:leaf=-0.002193394
booster[38]:
0:[f795077<0.516000986] yes=1,no=2,missing=2
	1:[f750003<0.266998976] yes=3,no=4,missing=4
		3:[f349743<0.516000986] yes=7,no=8,missing=8
			7:leaf=0.436563253
			8:[f536024<0.266998976] yes=15,no=16,missing=16
				15:leaf=-0.168316573
				16:[f728207<0.516000986] yes=29,no=30,missing=30
					29:leaf=-0.409728020
					30:[f904963<0.516000986] yes=49,no=50,missing=50
						49:leaf=0.925651610
						50:leaf=0.040643446
		4:[f311749<0.516000986] yes=9,no=10,missing=10
			9:leaf=0.000187434
			10:[f785998<0.266998976] yes=17,no=18,missing=18
				17:leaf=-0.034281392
				18:[f410371<0.266998976] yes=33,no=34,missing=34
					33:leaf=2.010975838
					34:leaf=77.746963501
	2:[f121549<0.516000986] yes=5,no=6,missing=6
		5:[f416678<0.266998976] yes=11,no=12,missing=12
			11:[f839312<0.516000986] yes=19,no=20,missing=20
				19:leaf=4.411956787
				20:[f177373<0.266998976] yes=35,no=36,missing=36
					35:[f245290<0.516000986] yes=53,no=54,missing=54
						53:leaf=0.165313557
						54:leaf=1.193246365
					36:[f54993<0.266998976] yes=55,no=56,missing=56
						55:leaf=0.606707573
						56:leaf=2.419861555
			12:[f569100<0.516000986] yes=21,no=22,missing=22
				21:[f677407<0.516000986] yes=37,no=38,missing=38
					37:leaf=-0.056274477
					38:[f127722<0.266998976] yes=57,no=58,missing=58
						57:leaf=1.340423226
						58:leaf=3.983088970
				22:[f390934<0.516000986] yes=39,no=40,missing=40
					39:leaf=0.254798591
					40:[f450725<0.516000986] yes=59,no=60,missing=60
						59:leaf=0.580823004
						60:leaf=6.411158085
		6:[f57652<0.516000986] yes=13,no=14,missing=14
			13:[f14756<0.516000986] yes=23,no=24,missing=24
				23:leaf=-0.601217330
				24:[f127722<0.266998976] yes=41,no=42,missing=42
					41:leaf=2.816902637
					42:[f696007<0.516000986] yes=63,no=64,missing=64
						63:leaf=2.010924816
						64:leaf=6.405858517
			14:[f407183<0.516000986] yes=25,no=26,missing=26
				25:[f374630<0.516000986] yes=43,no=44,missing=44
					43:leaf=0.869321406
					44:leaf=11.096113205
				26:[f779242<0.516000986] yes=45,no=46,missing=46
					45:[f416678<0.266998976] yes=65,no=66,missing=66
						65:leaf=1.439650655
						66:leaf=2.802636147
					46:[f267957<0.516000986] yes=67,no=68,missing=68
						67:leaf=4.617110252
						68:leaf=-0.001369720
booster[39]:
0:[f57652<0.516000986] yes=1,no=2,missing=2
	1:[f127722<0.266998976] yes=3,no=4,missing=4
		3:[f563262<0.266998976] yes=7,no=8,missing=8
			7:leaf=-0.123207495
			8:[f247449<0.266998976] yes=17,no=18,missing=18
				17:leaf=-0.272188991
				18:leaf=-1.263512015
		4:[f696007<0.516000986] yes=9,no=10,missing=10
			9:leaf=0.010451904
			10:leaf=-17.405008316
	2:[f795077<0.516000986] yes=5,no=6,missing=6
		5:[f750003<0.266998976] yes=11,no=12,missing=12
			11:leaf=0.051959071
			12:[f311749<0.516000986] yes=23,no=24,missing=24
				23:leaf=0.000032836
				24:[f595681<0.266998976] yes=33,no=34,missing=34
					33:leaf=0.328970760
					34:leaf=60.173145294
		6:[f252610<0.516000986] yes=13,no=14,missing=14
			13:[f891765<0.266998976] yes=25,no=26,missing=26
				25:[f981639<0.516000986] yes=35,no=36,missing=36
					35:[f990605<0.516000986] yes=47,no=48,missing=48
						47:leaf=-0.191068694
						48:leaf=0.290947676
					36:[f536024<0.266998976] yes=49,no=50,missing=50
						49:leaf=0.264541894
						50:leaf=-0.023939876
				26:[f566915<0.516000986] yes=37,no=38,missing=38
					37:[f339516<0.516000986] yes=51,no=52,missing=52
						51:leaf=0.577767968
						52:leaf=0.346039683
					38:[f475162<0.516000986] yes=53,no=54,missing=54
						53:leaf=0.464250892
						54:leaf=0.187867939
			14:[f637069<0.534000993] yes=27,no=28,missing=28
				27:[f618075<0.516000986] yes=39,no=40,missing=40
					39:[f156287<0.266998976] yes=55,no=56,missing=56
						55:leaf=1.169281006
						56:leaf=0.206627458
					40:[f177373<0.534000993] yes=57,no=58,missing=58
						57:leaf=0.013390156
						58:leaf=0.217029542
				28:[f619179<0.516000986] yes=41,no=42,missing=42
					41:[f177373<0.266998976] yes=59,no=60,missing=60
						59:leaf=-0.259965986
						60:leaf=0.543120325
					42:[f613054<0.516000986] yes=61,no=62,missing=62
						61:leaf=1.385450125
						62:leaf=-0.018860757
booster[40]:
0:[f795077<0.516000986] yes=1,no=2,missing=2
	1:[f750003<0.266998976] yes=3,no=4,missing=4
		3:leaf=0.002618813
		4:[f311749<0.516000986] yes=9,no=10,missing=10
			9:leaf=0.000006024
			10:[f298114<0.516000986] yes=17,no=18,missing=18
				17:leaf=-1.413755894
				18:leaf=-106.793449402
	2:[f57652<0.516000986] yes=5,no=6,missing=6
		5:[f127722<0.266998976] yes=11,no=12,missing=12
			11:[f867599<0.516000986] yes=19,no=20,missing=20
				19:leaf=-0.832807660
				20:[f450096<0.516000986] yes=29,no=30,missing=30
					29:leaf=0.610640883
					30:leaf=-0.219075665
			12:[f351470<0.516000986] yes=21,no=22,missing=22
				21:leaf=4.274916172
				22:leaf=51.169258118
		6:[f363925<0.516000986] yes=13,no=14,missing=14
			13:[f328096<0.266998976] yes=23,no=24,missing=24
				23:[f277967<0.266998976] yes=31,no=32,missing=32
					31:[f54993<0.266998976] yes=43,no=44,missing=44
						43:leaf=2.216656685
						44:leaf=-0.028930606
					32:[f240296<0.516000986] yes=45,no=46,missing=46
						45:leaf=0.654155731
						46:leaf=5.242733955
				24:leaf=0.266643375
			14:[f842200<0.516000986] yes=25,no=26,missing=26
				25:[f187282<0.516000986] yes=33,no=34,missing=34
					33:leaf=-2.251884699
					34:[f595681<0.266998976] yes=47,no=48,missing=48
						47:leaf=0.225758627
						48:leaf=-1.034068704
				26:[f194940<0.516000986] yes=35,no=36,missing=36
					35:[f891765<0.266998976] yes=49,no=50,missing=50
						49:leaf=2.110828400
						50:leaf=1.022693872
					36:[f683694<0.516000986] yes=51,no=52,missing=52
						51:leaf=3.049634218
						52:leaf=-0.002325118
booster[41]:
0:[f57652<0.516000986] yes=1,no=2,missing=2
	1:[f644572<0.266998976] yes=3,no=4,missing=4
		3:[f958290<0.516000986] yes=7,no=8,missing=8
			7:[f247449<0.266998976] yes=13,no=14,missing=14
				13:leaf=0.371752053
				14:leaf=-0.499258578
			8:[f650779<0.516000986] yes=15,no=16,missing=16
				15:leaf=-1.205052614
				16:leaf=-8.045003891
		4:leaf=-131.835449219
	2:[f795077<0.516000986] yes=5,no=6,missing=6
		5:[f750003<0.266998976] yes=9,no=10,missing=10
			9:leaf=0.000132959
			10:leaf=30.988098145
		6:[f363925<0.516000986] yes=11,no=12,missing=12
			11:[f277967<0.266998976] yes=19,no=20,missing=20
				19:[f643200<0.516000986] yes=27,no=28,missing=28
					27:leaf=-0.663900793
					28:[f127722<0.266998976] yes=39,no=40,missing=40
						39:leaf=-0.386779726
						40:leaf=0.613708138
				20:[f240296<0.516000986] yes=29,no=30,missing=30
					29:leaf=0.210211173
					30:[f328096<0.266998976] yes=41,no=42,missing=42
						41:leaf=-8.150003433
						42:leaf=0.084129550
			12:[f267957<0.516000986] yes=21,no=22,missing=22
				21:[f129608<0.516000986] yes=31,no=32,missing=32
					31:[f189867<0.516000986] yes=43,no=44,missing=44
						43:leaf=-0.334251761
						44:leaf=-3.838742256
					32:leaf=-6.183481216
				22:[f984962<0.516000986] yes=33,no=34,missing=34
					33:[f458796<0.516000986] yes=45,no=46,missing=46
						45:leaf=14.066235542
						46:leaf=1.576555371
					34:[f596006<0.516000986] yes=47,no=48,missing=48
						47:leaf=2.934759855
						48:leaf=-0.001209268
booster[42]:
0:[f363925<0.516000986] yes=1,no=2,missing=2
	1:[f644572<0.266998976] yes=3,no=4,missing=4
		3:[f328096<0.266998976] yes=7,no=8,missing=8
			7:leaf=60.991226196
			8:leaf=0.203609750
		4:[f277967<0.266998976] yes=9,no=10,missing=10
			9:leaf=-0.103162341
			10:leaf=11.358909607
	2:[f57652<0.516000986] yes=5,no=6,missing=6
		5:[f581996<0.266998976] yes=11,no=12,missing=12
			11:leaf=-2.241760254
			12:[f533830<0.516000986] yes=19,no=20,missing=20
				19:leaf=3.655306101
				20:[f247449<0.266998976] yes=27,no=28,missing=28
					27:leaf=5.763682365
					28:leaf=39.892257690
		6:[f795077<0.516000986] yes=13,no=14,missing=14
			13:[f891765<0.266998976] yes=21,no=22,missing=22
				21:leaf=0.029705357
				22:[f904963<0.516000986] yes=31,no=32,missing=32
					31:[f425587<0.516000986] yes=37,no=38,missing=38
						37:leaf=-0.049632214
						38:leaf=6.657989502
					32:leaf=43.425991058
			14:[f42391<0.534000993] yes=23,no=24,missing=24
				23:[f228214<0.266998976] yes=33,no=34,missing=34
					33:[f416678<0.266998976] yes=39,no=40,missing=40
						39:leaf=0.160980329
						40:leaf=-0.321669847
					34:[f805084<0.516000986] yes=41,no=42,missing=42
						41:leaf=2.390569210
						42:leaf=-0.361464858
				24:[f257023<0.516000986] yes=35,no=36,missing=36
					35:[f63822<0.516000986] yes=43,no=44,missing=44
						43:leaf=61.633926392
						44:leaf=-0.123198710
					36:[f220417<0.516000986] yes=45,no=46,missing=46
						45:leaf=0.609262526
						46:leaf=0.001492583
booster[43]:
0:[f363925<0.516000986] yes=1,no=2,missing=2
	1:[f277967<0.266998976] yes=3,no=4,missing=4
		3:leaf=-0.020276546
		4:leaf=-70.770904541
	2:[f795077<0.516000986] yes=5,no=6,missing=6
		5:[f891765<0.266998976] yes=9,no=10,missing=10
			9:leaf=0.005598520
			10:[f991910<0.516000986] yes=17,no=18,missing=18
				17:leaf=12.971993446
				18:leaf=46.916046143
		6:[f348002<0.516000986] yes=11,no=12,missing=12
			11:[f177373<0.266998976] yes=19,no=20,missing=20
				19:leaf=-6.034273148
				20:leaf=44.085651398
			12:[f498621<0.516000986] yes=21,no=22,missing=22
				21:[f245290<0.516000986] yes=23,no=24,missing=24
					23:[f513974<0.266998976] yes=27,no=28,missing=28
						27:leaf=-0.282545120
						28:leaf=1.470448613
					24:[f98015<0.516000986] yes=29,no=30,missing=30
						29:leaf=-0.605738521
						30:leaf=3.496643305
				22:[f814559<0.516000986] yes=25,no=26,missing=26
					25:[f517237<0.516000986] yes=31,no=32,missing=32
						31:leaf=-0.747179449
						32:leaf=2.882325411
					26:[f830231<0.516000986] yes=33,no=34,missing=34
						33:leaf=1.374240994
						34:leaf=-0.001692998
booster[44]:
0:[f363925<0.516000986] yes=1,no=2,missing=2
	1:[f54993<0.266998976] yes=3,no=4,missing=4
		3:leaf=-0.008958778
		4:leaf=93.809165955
	2:[f795077<0.516000986] yes=5,no=6,missing=6
		5:[f891765<0.266998976] yes=9,no=10,missing=10
			9:leaf=0.001066832
			10:[f531508<0.266998976] yes=15,no=16,missing=16
				15:leaf=0.694128513
				16:[f696007<0.516000986] yes=19,no=20,missing=20
					19:leaf=-7.010515213
					20:leaf=-85.646614075
		6:[f348002<0.516000986] yes=11,no=12,missing=12
			11:leaf=23.694700241
			12:[f772342<0.516000986] yes=17,no=18,missing=18
				17:[f996146<0.266998976] yes=21,no=22,missing=22
					21:leaf=4.364881992
					22:[f39064<0.516000986] yes=25,no=26,missing=26
						25:leaf=5.976427555
						26:leaf=1.241619229
				18:[f402188<0.516000986] yes=23,no=24,missing=24
					23:[f441381<0.266998976] yes=27,no=28,missing=28
						27:leaf=1.674478173
						28:leaf=3.376335382
					24:[f257525<0.534000993] yes=29,no=30,missing=30
						29:leaf=0.234138340
						30:leaf=-0.004099342
booster[45]:
0:[f363925<0.516000986] yes=1,no=2,missing=2
	1:[f177373<0.266998976] yes=3,no=4,missing=4
		3:leaf=-85.119071960
		4:leaf=-7.145348549
	2:[f795077<0.516000986] yes=5,no=6,missing=6
		5:[f891765<0.266998976] yes=7,no=8,missing=8
			7:leaf=0.000203618
			8:leaf=63.368438721
		6:[f57652<0.516000986] yes=9,no=10,missing=10
			9:leaf=-21.906927109
			10:[f488852<0.516000986] yes=13,no=14,missing=14
				13:[f129608<0.516000986] yes=15,no=16,missing=16
					15:[f644572<0.266998976] yes=19,no=20,missing=20
						19:leaf=-1.003873944
						20:leaf=-1.594006896
					16:[f110797<0.516000986] yes=21,no=22,missing=22
						21:leaf=-1.447622418
						22:leaf=-0.063172661
				14:[f706519<0.516000986] yes=17,no=18,missing=18
					17:[f963986<0.266998976] yes=23,no=24,missing=24
						23:leaf=0.954763412
						24:leaf=0.244417638
					18:[f121549<0.516000986] yes=25,no=26,missing=26
						25:leaf=-2.461817026
						26:leaf=-0.001469446
booster[46]:
0:[f795077<0.516000986] yes=1,no=2,missing=2
	1:[f891765<0.266998976] yes=3,no=4,missing=4
		3:leaf=0.000038872
		4:[f75720<0.516000986] yes=9,no=10,missing=10
			9:leaf=-4.581169605
			10:leaf=-72.425216675
	2:[f57652<0.516000986] yes=5,no=6,missing=6
		5:leaf=55.948600769
		6:[f408008<0.516000986] yes=11,no=12,missing=12
			11:[f708011<0.516000986] yes=13,no=14,missing=14
				13:[f797675<0.516000986] yes=17,no=18,missing=18
					17:[f696007<0.516000986] yes=25,no=26,missing=26
						25:leaf=0.250821769
						26:leaf=9.651855469
					18:[f785998<0.266998976] yes=27,no=28,missing=28
						27:leaf=-0.429133922
						28:leaf=0.516470253
