booster[0]:
0:[f67<0.774999976] yes=1,no=2,missing=1
	1:[f39<0.732142866] yes=3,no=4,missing=3
		3:[f196<564650.500000000] yes=7,no=8,missing=7
			7:leaf=-1.995353580
			8:leaf=-1.966656685
		4:[f190<7.500000000] yes=9,no=10,missing=9
			9:leaf=-1.775122046
			10:leaf=-1.945667267
	2:[f190<8.500000000] yes=5,no=6,missing=5
		5:[f54<1.500000000] yes=11,no=12,missing=11
			11:leaf=-1.636719465
			12:leaf=-0.969909012
		6:[f54<1.500000000] yes=13,no=14,missing=13
			13:leaf=-1.920397997
			14:leaf=-1.749361753
booster[1]:
0:[f67<0.708333373] yes=1,no=2,missing=1
	1:[f32<0.050142501] yes=3,no=4,missing=3
		3:[f185<4.500000000] yes=7,no=8,missing=7
			7:leaf=-1.125614166
			8:leaf=-1.051141739
		4:[f214<0.500000000] yes=9,no=10,missing=9
			9:leaf=-0.678467631
			10:leaf=-1.021421552
	2:[f190<9.500000000] yes=5,no=6,missing=5
		5:[f213<0.500000000] yes=11,no=12,missing=11
			11:leaf=-0.981879771
			12:leaf=-0.357653826
		6:[f8<781.500000000] yes=13,no=14,missing=13
			13:leaf=-0.966540992
			14:leaf=2.081940413
booster[2]:
0:[f150<1.500000000] yes=1,no=2,missing=1
	1:[f60<0.029728500] yes=3,no=4,missing=3
		3:[f32<0.056469999] yes=7,no=8,missing=7
			7:leaf=-1.013242126
			8:leaf=-0.797683537
		4:[f56<1.500000000] yes=9,no=10,missing=9
			9:leaf=-0.832264304
			10:leaf=-0.321703106
	2:[f190<7.500000000] yes=5,no=6,missing=5
		5:[f213<0.500000000] yes=11,no=12,missing=11
			11:leaf=-0.747165918
			12:leaf=0.286243886
		6:[f138<4.500000000] yes=13,no=14,missing=13
			13:leaf=-0.832253754
			14:leaf=-0.361405998
booster[3]:
0:[f174<4.500000000] yes=1,no=2,missing=1
	1:[f7<0.500000000] yes=3,no=4,missing=3
		3:[f209<0.500000000] yes=7,no=8,missing=7
			7:leaf=0.158817291
			8:leaf=-0.777060688
		4:[f185<6.500000000] yes=9,no=10,missing=9
			9:leaf=-0.262190282
			10:leaf=0.644078672
	2:[f196<554354.500000000] yes=5,no=6,missing=5
		5:[f54<1.500000000] yes=11,no=12,missing=11
			11:leaf=-0.979084015
			12:leaf=0.170518592
		6:[f8<659.500000000] yes=13,no=14,missing=13
			13:leaf=-0.797239184
			14:leaf=-0.295472056
booster[4]:
0:[f196<549801.500000000] yes=1,no=2,missing=1
	1:[f39<0.732142866] yes=3,no=4,missing=3
		3:[f54<1.500000000] yes=7,no=8,missing=7
			7:leaf=-0.882915437
			8:leaf=1.169157982
		4:[f200<3.500000000] yes=9,no=10,missing=9
			9:leaf=1.473387957
			10:leaf=-0.398714304
	2:[f188<7.500000000] yes=5,no=6,missing=5
		5:[f214<0.500000000] yes=11,no=12,missing=11
			11:leaf=0.925742269
			12:leaf=-0.010191930
		6:[f140<5.500000000] yes=13,no=14,missing=13
			13:leaf=-0.518868983
			14:leaf=-0.022135673
booster[5]:
0:[f173<8.500000000] yes=1,no=2,missing=1
	1:[f213<0.500000000] yes=3,no=4,missing=3
		3:[f6<24.500000000] yes=7,no=8,missing=7
			7:leaf=-0.176468804
			8:leaf=-0.818650544
		4:[f4<8.500000000] yes=9,no=10,missing=9
			9:leaf=-0.065288372
			10:leaf=0.685839057
	2:[f15<0.437671483] yes=5,no=6,missing=5
		5:[f16<0.283788502] yes=11,no=12,missing=11
			11:leaf=-0.851764441
			12:leaf=-0.043768197
		6:[f209<0.500000000] yes=13,no=14,missing=13
			13:leaf=0.451340824
			14:leaf=-0.538856328
booster[6]:
0:[f212<0.500000000] yes=1,no=2,missing=1
	1:[f213<99.500000000] yes=3,no=4,missing=3
		3:[f48<5.500000000] yes=7,no=8,missing=7
			7:leaf=0.227304563
			8:leaf=1.605814099
		4:[f66<0.500000000] yes=9,no=10,missing=9
			9:leaf=-0.395023823
			10:leaf=0.575772166
	2:[f124<1.585714340] yes=5,no=6,missing=5
		5:[f196<568064.500000000] yes=11,no=12,missing=11
			11:leaf=-0.647618234
			12:leaf=-0.228171527
		6:[f33<2.500000000] yes=13,no=14,missing=13
			13:leaf=0.474605262
			14:leaf=-0.266425461
booster[7]:
0:[f190<10.500000000] yes=1,no=2,missing=1
	1:[f199<2.500000000] yes=3,no=4,missing=3
		3:[f216<84.500000000] yes=7,no=8,missing=7
			7:leaf=-0.349281609
			8:leaf=0.121112429
		4:[f155<0.688781977] yes=9,no=10,missing=9
			9:leaf=0.249498338
			10:leaf=1.133993268
	2:[f213<0.500000000] yes=5,no=6,missing=5
		5:[f207<3.500000000] yes=11,no=12,missing=11
			11:leaf=-0.975957811
			12:leaf=-0.442988962
		6:[f128<0.307060510] yes=13,no=14,missing=13
			13:leaf=-0.369064271
			14:leaf=2.260552406
booster[8]:
0:[f196<534849.500000000] yes=1,no=2,missing=1
	1:[f60<0.011786500] yes=3,no=4,missing=3
		3:[f98<1.500000000] yes=7,no=8,missing=7
			7:leaf=-0.698780835
			8:leaf=3.468478203
		4:[f143<0.052689500] yes=9,no=10,missing=9
			9:leaf=4.226675987
			10:leaf=-0.225079373
	2:[f126<1.464285731] yes=5,no=6,missing=5
		5:[f7<1.500000000] yes=11,no=12,missing=11
			11:leaf=-0.374789178
			12:leaf=0.027296068
		6:[f193<5.500000000] yes=13,no=14,missing=13
			13:leaf=-0.165733978
			14:leaf=0.397735894
booster[9]:
0:[f188<14.500000000] yes=1,no=2,missing=1
	1:[f5<53.500000000] yes=3,no=4,missing=3
		3:[f207<2.500000000] yes=7,no=8,missing=7
			7:leaf=-0.506476641
			8:leaf=0.056948647
		4:[f116<0.204639003] yes=9,no=10,missing=9
			9:leaf=-1.055911303
			10:leaf=-0.135139033
	2:[f143<0.497107506] yes=5,no=6,missing=5
		5:[f190<4.500000000] yes=11,no=12,missing=11
			11:leaf=0.075198896
			12:leaf=-0.607159853
		6:[f10<12.500000000] yes=13,no=14,missing=13
			13:leaf=1.374711514
			14:leaf=-0.044587299
booster[10]:
0:[f200<4.500000000] yes=1,no=2,missing=1
	1:[f127<1.117074251] yes=3,no=4,missing=3
		3:[f207<3.500000000] yes=7,no=8,missing=7
			7:leaf=0.093360893
			8:leaf=0.939987123
		4:[f114<0.155205503] yes=9,no=10,missing=9
			9:leaf=0.784979880
			10:leaf=3.286175966
	2:[f3<0.500000000] yes=5,no=6,missing=5
		5:[f213<2.500000000] yes=11,no=12,missing=11
			11:leaf=-0.358779699
			12:leaf=0.284334004
		6:[f29<0.220481500] yes=13,no=14,missing=13
			13:leaf=-0.331536472
			14:leaf=0.414718717
booster[11]:
0:[f4<345.500000000] yes=1,no=2,missing=1
	1:[f190<6.500000000] yes=3,no=4,missing=3
		3:[f18<0.059429999] yes=7,no=8,missing=7
			7:leaf=0.760906875
			8:leaf=0.081883006
		4:[f216<89.500000000] yes=9,no=10,missing=9
			9:leaf=-0.295074880
			10:leaf=0.039044347
	2:[f79<13.500000000] yes=5,no=6,missing=5
		5:[f190<4.500000000] yes=11,no=12,missing=11
			11:leaf=-0.916160822
			12:leaf=-1.773905277
		6:[f4<3234.000000000] yes=13,no=14,missing=13
			13:leaf=-0.469856203
			14:leaf=0.955236256
booster[12]:
0:[f6<3.500000000] yes=1,no=2,missing=1
	1:[f43<0.058766998] yes=3,no=4,missing=3
		3:[f2<16.500000000] yes=7,no=8,missing=7
			7:leaf=0.553423405
			8:leaf=-0.337148577
		4:[f196<540378.500000000] yes=9,no=10,missing=9
			9:leaf=1.968981266
			10:leaf=-0.872959673
	2:[f209<0.500000000] yes=5,no=6,missing=5
		5:[f19<26.500000000] yes=11,no=12,missing=11
			11:leaf=-0.075262882
			12:leaf=0.720720470
		6:[f2<7.500000000] yes=13,no=14,missing=13
			13:leaf=1.830619693
			14:leaf=-0.093850829
booster[13]:
0:[f172<0.012782000] yes=1,no=2,missing=1
	1:[f59<0.092396498] yes=3,no=4,missing=3
		3:[f142<0.201030999] yes=7,no=8,missing=7
			7:leaf=-0.570598722
			8:leaf=1.864713311
		4:[f9<0.608819485] yes=9,no=10,missing=9
			9:leaf=2.553012609
			10:leaf=-0.623002887
	2:[f208<1.500000000] yes=5,no=6,missing=5
		5:[f43<0.368500501] yes=11,no=12,missing=11
			11:leaf=0.027741576
			12:leaf=2.835916281
		6:[f6<1037.500000000] yes=13,no=14,missing=13
			13:leaf=-0.441143155
			14:leaf=4.021413326
booster[14]:
0:[f6<1078.500000000] yes=1,no=2,missing=1
	1:[f192<0.500000000] yes=3,no=4,missing=3
		3:[f145<319.500000000] yes=7,no=8,missing=7
			7:leaf=0.058026418
			8:leaf=-0.302820712
		4:[f6<1024.500000000] yes=9,no=10,missing=9
			9:leaf=-0.375696063
			10:leaf=2.458799124
	2:[f208<1.500000000] yes=5,no=6,missing=5
		5:[f216<87.500000000] yes=11,no=12,missing=11
			11:leaf=0.963959932
			12:leaf=-0.691801727
		6:[f2<4132.500000000] yes=13,no=14,missing=13
			13:leaf=-0.893219769
			14:leaf=-1.280526042
booster[15]:
0:[f196<518537.500000000] yes=1,no=2,missing=1
	1:[f30<0.014705500] yes=3,no=4,missing=3
		3:[f16<0.229040995] yes=7,no=8,missing=7
			7:leaf=-0.844376445
			8:leaf=1.004522800
		4:[f128<0.016059000] yes=9,no=10,missing=9
			9:leaf=1.737525821
			10:leaf=-0.330402404
	2:[f5<24.500000000] yes=5,no=6,missing=5
		5:[f6<2.500000000] yes=11,no=12,missing=11
			11:leaf=-0.165856928
			12:leaf=-1.008066416
		6:[f188<19.500000000] yes=13,no=14,missing=13
			13:leaf=0.036306739
			14:leaf=-0.542847157
booster[16]:
0:[f43<0.371057510] yes=1,no=2,missing=1
	1:[f212<68.500000000] yes=3,no=4,missing=3
		3:[f33<8.500000000] yes=7,no=8,missing=7
			7:leaf=0.044570893
			8:leaf=-0.274828345
		4:[f47<10.500000000] yes=9,no=10,missing=9
			9:leaf=-0.634015739
			10:leaf=2.536443710
	2:[f7<1.500000000] yes=5,no=6,missing=5
		5:[f58<0.199858993] yes=11,no=12,missing=11
			11:leaf=-0.928188920
			12:leaf=0.130305469
		6:[f2<613.500000000] yes=13,no=14,missing=13
			13:leaf=-0.685790420
			14:leaf=-1.744660020
booster[17]:
0:[f62<3.500000000] yes=1,no=2,missing=1
	1:[f207<4.500000000] yes=3,no=4,missing=3
		3:[f208<0.500000000] yes=7,no=8,missing=7
			7:leaf=-0.006687428
			8:leaf=-0.302612543
		4:[f57<0.077482507] yes=9,no=10,missing=9
			9:leaf=0.261594415
			10:leaf=3.035485744
	2:[f4<27.500000000] yes=5,no=6,missing=5
		5:[f125<3.291666508] yes=11,no=12,missing=11
			11:leaf=0.905673683
			12:leaf=0.104702048
		6:[f188<12.500000000] yes=13,no=14,missing=13
			13:leaf=-0.433124304
			14:leaf=0.366438866
booster[18]:
0:[f20<11.500000000] yes=1,no=2,missing=1
	1:[f58<0.239778012] yes=3,no=4,missing=3
		3:[f202<300.500000000] yes=7,no=8,missing=7
			7:leaf=-0.126868799
			8:leaf=-0.585055590
		4:[f202<207.000000000] yes=9,no=10,missing=9
			9:leaf=1.589261413
			10:leaf=0.211397439
	2:[f185<1.500000000] yes=5,no=6,missing=5
		5:[f8<593.500000000] yes=11,no=12,missing=11
			11:leaf=-0.397963911
			12:leaf=0.398319542
		6:[f23<0.500000000] yes=13,no=14,missing=13
			13:leaf=0.037933636
			14:leaf=0.436349064
booster[19]:
0:[f59<0.062022999] yes=1,no=2,missing=1
	1:[f7<0.500000000] yes=3,no=4,missing=3
		3:[f3<0.500000000] yes=7,no=8,missing=7
			7:leaf=0.082226187
			8:leaf=-0.306134075
		4:[f213<0.500000000] yes=9,no=10,missing=9
			9:leaf=-0.365712702
			10:leaf=0.271337926
	2:[f170<0.014985001] yes=5,no=6,missing=5
		5:[f113<0.110719502] yes=11,no=12,missing=11
			11:leaf=-0.642973244
			12:leaf=1.010040998
		6:[f214<0.500000000] yes=13,no=14,missing=13
			13:leaf=-0.397163242
			14:leaf=0.049383875
booster[20]:
0:[f213<99.500000000] yes=1,no=2,missing=1
	1:[f188<7.500000000] yes=3,no=4,missing=3
		3:[f158<0.049104501] yes=7,no=8,missing=7
			7:leaf=1.069850445
			8:leaf=-0.070691638
		4:[f3<0.500000000] yes=9,no=10,missing=9
			9:leaf=0.526419520
			10:leaf=-0.035825752
	2:[f113<0.076615497] yes=5,no=6,missing=5
		5:[f6<70.500000000] yes=11,no=12,missing=11
			11:leaf=0.066455744
			12:leaf=-0.289456993
		6:[f158<0.190778002] yes=13,no=14,missing=13
			13:leaf=-0.469636410
			14:leaf=0.096523181
booster[21]:
0:[f2<6678.500000000] yes=1,no=2,missing=1
	1:[f142<0.004266500] yes=3,no=4,missing=3
		3:[f8<541.500000000] yes=7,no=8,missing=7
			7:leaf=-0.363234133
			8:leaf=3.222779989
		4:[f118<65.500000000] yes=9,no=10,missing=9
			9:leaf=-0.008923465
			10:leaf=-0.690793097
	2:[f145<4.500000000] yes=5,no=6,missing=5
		5:leaf=1.633476019
		6:[f207<4.500000000] yes=11,no=12,missing=11
			11:leaf=-0.619597197
			12:leaf=1.198632717
booster[22]:
0:[f142<0.005063000] yes=1,no=2,missing=1
	1:[f18<0.094791502] yes=3,no=4,missing=3
		3:[f156<0.000985500] yes=7,no=8,missing=7
			7:leaf=0.955466986
			8:leaf=-1.070212960
		4:[f9<0.583397508] yes=9,no=10,missing=9
			9:leaf=1.077070355
			10:leaf=-0.978599429
	2:[f5<53.500000000] yes=5,no=6,missing=5
		5:[f185<3.500000000] yes=11,no=12,missing=11
			11:leaf=-0.103862420
			12:leaf=0.061967574
		6:[f216<42.500000000] yes=13,no=14,missing=13
			13:leaf=0.978284836
			14:leaf=-0.858118057
booster[23]:
0:[f216<75.500000000] yes=1,no=2,missing=1
	1:[f190<10.500000000] yes=3,no=4,missing=3
		3:[f133<0.291666687] yes=7,no=8,missing=7
			7:leaf=-0.090588696
			8:leaf=2.209395170
		4:[f188<5.500000000] yes=9,no=10,missing=9
			9:leaf=0.049852554
			10:leaf=-0.696239114
	2:[f174<4.500000000] yes=5,no=6,missing=5
		5:[f34<6.500000000] yes=11,no=12,missing=11
			11:leaf=0.021023817
			12:leaf=-0.284241289
		6:[f213<0.500000000] yes=13,no=14,missing=13
			13:leaf=-0.495056540
			14:leaf=0.278329492
booster[24]:
0:[f100<0.026326001] yes=1,no=2,missing=1
	1:[f190<5.500000000] yes=3,no=4,missing=3
		3:[f148<3.500000000] yes=7,no=8,missing=7
			7:leaf=-0.099675596
			8:leaf=0.473416299
		4:[f2<401.500000000] yes=9,no=10,missing=9
			9:leaf=-0.249175623
			10:leaf=-0.000496107
	2:[f126<1.549999952] yes=5,no=6,missing=5
		5:[f127<0.065715998] yes=11,no=12,missing=11
			11:leaf=-0.989434242
			12:leaf=0.202999681
		6:[f193<17.000000000] yes=13,no=14,missing=13
			13:leaf=0.735097051
			14:leaf=3.183519602
booster[25]:
0:[f4<1.500000000] yes=1,no=2,missing=1
	1:[f195<1.500000000] yes=3,no=4,missing=3
		3:[f207<2.500000000] yes=7,no=8,missing=7
			7:leaf=-0.469345331
			8:leaf=0.070752598
		4:[f15<0.152608991] yes=9,no=10,missing=9
			9:leaf=0.572023392
			10:leaf=2.798414469
	2:[f139<21.500000000] yes=5,no=6,missing=5
		5:[f47<4.500000000] yes=11,no=12,missing=11
			11:leaf=-0.103896394
			12:leaf=0.422135144
		6:[f185<75.500000000] yes=13,no=14,missing=13
			13:leaf=-0.369361222
			14:leaf=0.517392099
booster[26]:
0:[f193<16.500000000] yes=1,no=2,missing=1
	1:[f193<15.500000000] yes=3,no=4,missing=3
		3:[f185<6.500000000] yes=7,no=8,missing=7
			7:leaf=0.073447786
			8:leaf=-0.098609000
		4:[f202<239.000000000] yes=9,no=10,missing=9
			9:leaf=0.831528306
			10:leaf=0.017107613
	2:[f190<15.500000000] yes=5,no=6,missing=5
		5:[f155<0.129496008] yes=11,no=12,missing=11
			11:leaf=-0.782503724
			12:leaf=-0.077990949
		6:[f193<18.500000000] yes=13,no=14,missing=13
			13:leaf=-0.998811960
			14:leaf=-0.443021864
booster[27]:
0:[f62<5.500000000] yes=1,no=2,missing=1
	1:[f174<662.500000000] yes=3,no=4,missing=3
		3:[f2<1733.500000000] yes=7,no=8,missing=7
			7:leaf=-0.020130409
			8:leaf=0.200525627
		4:[f8<704.500000000] yes=9,no=10,missing=9
			9:leaf=-0.503877997
			10:leaf=0.583703518
	2:[f196<571243.000000000] yes=5,no=6,missing=5
		5:[f2<61.000000000] yes=11,no=12,missing=11
			11:leaf=1.284774661
			12:leaf=-0.944926441
		6:[f126<2.450000048] yes=13,no=14,missing=13
			13:leaf=-0.256332189
			14:leaf=2.092187643
booster[28]:
0:[f200<8.500000000] yes=1,no=2,missing=1
	1:[f142<1.205793023] yes=3,no=4,missing=3
		3:[f30<0.149156496] yes=7,no=8,missing=7
			7:leaf=-0.023718644
			8:leaf=0.174385533
		4:[f99<0.221734494] yes=9,no=10,missing=9
			9:leaf=-0.788506746
			10:leaf=0.370494843
	2:[f142<1.054300070] yes=5,no=6,missing=5
		5:[f126<2.291666508] yes=11,no=12,missing=11
			11:leaf=-0.674309313
			12:leaf=0.332166344
		6:[f212<10.500000000] yes=13,no=14,missing=13
			13:leaf=3.699460745
			14:leaf=-0.566518366
booster[29]:
0:[f142<0.150257498] yes=1,no=2,missing=1
	1:[f158<0.172172502] yes=3,no=4,missing=3
		3:[f135<15.774999619] yes=7,no=8,missing=7
			7:leaf=0.148343354
			8:leaf=-0.221217662
		4:[f9<0.614847541] yes=9,no=10,missing=9
			9:leaf=7.593501091
			10:leaf=1.099555016
	2:[f142<0.151088998] yes=5,no=6,missing=5
		5:[f180<3.250000000] yes=11,no=12,missing=11
			11:leaf=0.351562172
			12:leaf=-1.397944450
		6:[f57<0.465431988] yes=13,no=14,missing=13
			13:leaf=-0.060352821
			14:leaf=-1.278258801
booster[30]:
0:[f174<142.500000000] yes=1,no=2,missing=1
	1:[f196<537380.500000000] yes=3,no=4,missing=3
		3:[f220<6.500000000] yes=7,no=8,missing=7
			7:leaf=-0.360841155
			8:leaf=2.335092068
		4:[f144<0.079770997] yes=9,no=10,missing=9
			9:leaf=1.255913138
			10:leaf=-0.003156236
	2:[f144<0.153428003] yes=5,no=6,missing=5
		5:[f6<125.500000000] yes=11,no=12,missing=11
			11:leaf=0.185257480
			12:leaf=-0.504241705
		6:[f142<0.109669499] yes=13,no=14,missing=13
			13:leaf=-1.963272691
			14:leaf=-0.242808953
booster[31]:
0:[f174<21.500000000] yes=1,no=2,missing=1
	1:[f14<4.500000000] yes=3,no=4,missing=3
		3:[f156<0.016059000] yes=7,no=8,missing=7
			7:leaf=-0.211835891
			8:leaf=0.029486416
		4:[f45<0.028160000] yes=9,no=10,missing=9
			9:leaf=1.645426869
			10:leaf=-0.553535700
	2:[f126<1.416666746] yes=5,no=6,missing=5
		5:[f144<0.089160994] yes=11,no=12,missing=11
			11:leaf=1.590963840
			12:leaf=-0.024279863
		6:[f158<0.167224497] yes=13,no=14,missing=13
			13:leaf=-0.132771552
			14:leaf=-1.548712492
booster[32]:
0:[f190<23.500000000] yes=1,no=2,missing=1
	1:[f155<4.476613998] yes=3,no=4,missing=3
		3:[f196<563960.500000000] yes=7,no=8,missing=7
			7:leaf=-0.106840186
			8:leaf=0.048821405
		4:[f213<85.500000000] yes=9,no=10,missing=9
			9:leaf=-0.609723806
			10:leaf=0.098102808
	2:[f156<0.004428000] yes=5,no=6,missing=5
		5:[f209<2.500000000] yes=11,no=12,missing=11
			11:leaf=3.266698360
			12:leaf=-0.603791475
		6:[f58<0.225928992] yes=13,no=14,missing=13
			13:leaf=-0.728357852
			14:leaf=0.668996751
booster[33]:
0:[f157<0.037244499] yes=1,no=2,missing=1
	1:[f43<0.102601498] yes=3,no=4,missing=3
		3:[f154<4.500000000] yes=7,no=8,missing=7
			7:leaf=0.299339384
			8:leaf=-0.478610933
		4:[f169<0.071835995] yes=9,no=10,missing=9
			9:leaf=0.776577830
			10:leaf=5.586501122
	2:[f5<26.000000000] yes=5,no=6,missing=5
		5:[f209<0.500000000] yes=11,no=12,missing=11
			11:leaf=0.547578394
			12:leaf=-0.107284412
		6:[f5<52.500000000] yes=13,no=14,missing=13
			13:leaf=-1.027811527
			14:leaf=-0.026732828
booster[34]:
0:[f6<4.500000000] yes=1,no=2,missing=1
	1:[f167<10.500000000] yes=3,no=4,missing=3
		3:[f179<0.633333325] yes=7,no=8,missing=7
			7:leaf=0.022887968
			8:leaf=-0.535266817
		4:[f127<0.774114013] yes=9,no=10,missing=9
			9:leaf=3.601637840
			10:leaf=0.003849663
	2:[f210<2.500000000] yes=5,no=6,missing=5
		5:[f24<0.500000000] yes=11,no=12,missing=11
			11:leaf=0.195017278
			12:leaf=-0.034707393
		6:[f44<0.055009499] yes=13,no=14,missing=13
			13:leaf=0.311895937
			14:leaf=2.935712814
booster[35]:
0:[f143<0.052132502] yes=1,no=2,missing=1
	1:[f58<0.011829000] yes=3,no=4,missing=3
		3:[f125<9.366666794] yes=7,no=8,missing=7
			7:leaf=0.086391382
			8:leaf=-0.564812243
		4:[f196<533432.500000000] yes=9,no=10,missing=9
			9:leaf=-1.213397384
			10:leaf=-0.230719298
	2:[f209<10.500000000] yes=5,no=6,missing=5
		5:[f2<158.500000000] yes=11,no=12,missing=11
			11:leaf=-0.301326096
			12:leaf=-0.023555346
		6:[f48<6.500000000] yes=13,no=14,missing=13
			13:leaf=0.037444998
			14:leaf=0.462635726
booster[36]:
0:[f190<9.500000000] yes=1,no=2,missing=1
	1:[f2<325.500000000] yes=3,no=4,missing=3
		3:[f6<145.500000000] yes=7,no=8,missing=7
			7:leaf=0.175713345
			8:leaf=1.629012585
		4:[f199<2.500000000] yes=9,no=10,missing=9
			9:leaf=0.063366346
			10:leaf=-0.194053143
	2:[f155<0.367688477] yes=5,no=6,missing=5
		5:[f193<19.500000000] yes=11,no=12,missing=11
			11:leaf=-0.274981886
			12:leaf=-2.221829891
		6:[f57<0.087770499] yes=13,no=14,missing=13
			13:leaf=-0.083023474
			14:leaf=0.429265946
booster[37]:
0:[f192<0.500000000] yes=1,no=2,missing=1
	1:[f193<9.500000000] yes=3,no=4,missing=3
		3:[f179<0.690476179] yes=7,no=8,missing=7
			7:leaf=0.369938850
			8:leaf=0.035815798
		4:[f149<35.500000000] yes=9,no=10,missing=9
			9:leaf=-0.004939070
			10:leaf=-0.267405927
	2:[f213<71.500000000] yes=5,no=6,missing=5
		5:[f150<3.500000000] yes=11,no=12,missing=11
			11:leaf=-0.787210882
			12:leaf=-0.091921605
		6:[f213<91.500000000] yes=13,no=14,missing=13
			13:leaf=1.417644382
			14:leaf=-0.116452627
booster[38]:
0:[f193<13.500000000] yes=1,no=2,missing=1
	1:[f199<0.500000000] yes=3,no=4,missing=3
		3:[f216<99.500000000] yes=7,no=8,missing=7
			7:leaf=-0.192122325
			8:leaf=0.165257767
		4:[f209<1.500000000] yes=9,no=10,missing=9
			9:leaf=-0.106931299
			10:leaf=0.154097900
	2:[f57<0.026034500] yes=5,no=6,missing=5
		5:[f213<89.500000000] yes=11,no=12,missing=11
			11:leaf=0.486332059
			12:leaf=-0.040191308
		6:[f3<1.500000000] yes=13,no=14,missing=13
			13:leaf=0.122758389
			14:leaf=-0.360990524
booster[39]:
0:[f4<182.500000000] yes=1,no=2,missing=1
	1:[f158<0.043848000] yes=3,no=4,missing=3
		3:[f57<0.041564003] yes=7,no=8,missing=7
			7:leaf=0.358240783
			8:leaf=2.616206884
		4:[f212<6.500000000] yes=9,no=10,missing=9
			9:leaf=0.037976254
			10:leaf=-0.102767482
	2:[f212<6.500000000] yes=5,no=6,missing=5
		5:[f19<79.500000000] yes=11,no=12,missing=11
			11:leaf=-0.467588544
			12:leaf=-1.122270823
		6:[f30<0.033872999] yes=13,no=14,missing=13
			13:leaf=-0.420559108
			14:leaf=0.547242105
booster[40]:
0:[f6<68.500000000] yes=1,no=2,missing=1
	1:[f47<3.500000000] yes=3,no=4,missing=3
		3:[f15<0.805498004] yes=7,no=8,missing=7
			7:leaf=-0.098502204
			8:leaf=0.237076223
		4:[f185<9.500000000] yes=9,no=10,missing=9
			9:leaf=-0.071294472
			10:leaf=-0.433736593
	2:[f2<802.500000000] yes=5,no=6,missing=5
		5:[f212<0.500000000] yes=11,no=12,missing=11
			11:leaf=-0.276040733
			12:leaf=0.059245914
		6:[f213<0.500000000] yes=13,no=14,missing=13
			13:leaf=-0.533220291
			14:leaf=0.166408017
booster[41]:
0:[f193<15.500000000] yes=1,no=2,missing=1
	1:[f213<13.500000000] yes=3,no=4,missing=3
		3:[f213<1.500000000] yes=7,no=8,missing=7
			7:leaf=0.052386098
			8:leaf=0.614152074
		4:[f190<13.500000000] yes=9,no=10,missing=9
			9:leaf=0.013776374
			10:leaf=-0.183410183
	2:[f57<0.291819513] yes=5,no=6,missing=5
		5:[f199<1.500000000] yes=11,no=12,missing=11
			11:leaf=-0.280250639
			12:leaf=0.033551760
		6:[f216<91.500000000] yes=13,no=14,missing=13
			13:leaf=2.874303341
			14:leaf=0.557156563
booster[42]:
0:[f47<8.500000000] yes=1,no=2,missing=1
	1:[f2<2515.500000000] yes=3,no=4,missing=3
		3:[f169<4.049646378] yes=7,no=8,missing=7
			7:leaf=-0.009324784
			8:leaf=2.184832573
		4:[f139<1.500000000] yes=9,no=10,missing=9
			9:leaf=1.627791286
			10:leaf=-0.271316320
	2:[f16<0.164847493] yes=5,no=6,missing=5
		5:[f42<1.500000000] yes=11,no=12,missing=11
			11:leaf=-0.164807037
			12:leaf=0.457001448
		6:[f144<0.538529992] yes=13,no=14,missing=13
			13:leaf=2.208418846
			14:leaf=0.569590092
booster[43]:
0:[f34<2.500000000] yes=1,no=2,missing=1
	1:[f58<0.006775000] yes=3,no=4,missing=3
		3:[f213<0.500000000] yes=7,no=8,missing=7
			7:leaf=-0.492984176
			8:leaf=-0.006491368
		4:[f169<0.166985005] yes=9,no=10,missing=9
			9:leaf=0.297330678
			10:leaf=-0.060902406
	2:[f4<5.500000000] yes=5,no=6,missing=5
		5:[f190<7.500000000] yes=11,no=12,missing=11
			11:leaf=-0.364775956
			12:leaf=-0.094708487
		6:[f185<6.500000000] yes=13,no=14,missing=13
			13:leaf=0.497073323
			14:leaf=-0.047841076
booster[44]:
0:[f4<1.500000000] yes=1,no=2,missing=1
	1:[f144<0.058043502] yes=3,no=4,missing=3
		3:[f19<46.500000000] yes=7,no=8,missing=7
			7:leaf=-0.159560859
			8:leaf=5.001096249
		4:[f165<0.550000012] yes=9,no=10,missing=9
			9:leaf=1.788936019
			10:leaf=0.030357383
	2:[f6<1563.500000000] yes=5,no=6,missing=5
		5:[f209<0.500000000] yes=11,no=12,missing=11
			11:leaf=-0.416839927
			12:leaf=-0.047809824
		6:[f216<78.500000000] yes=13,no=14,missing=13
			13:leaf=1.027087569
			14:leaf=3.871459484
booster[45]:
0:[f144<0.066682994] yes=1,no=2,missing=1
	1:[f177<0.500000000] yes=3,no=4,missing=3
		3:[f56<1.500000000] yes=7,no=8,missing=7
			7:leaf=-0.440575361
			8:leaf=1.349611282
		4:[f7<1.500000000] yes=9,no=10,missing=9
			9:leaf=-1.242258072
			10:leaf=-0.761304677
	2:[f212<5.500000000] yes=5,no=6,missing=5
		5:[f47<5.500000000] yes=11,no=12,missing=11
			11:leaf=0.131652698
			12:leaf=-0.143027782
		6:[f208<0.500000000] yes=13,no=14,missing=13
			13:leaf=-0.022084482
			14:leaf=-0.395288140
booster[46]:
0:[f196<514473.500000000] yes=1,no=2,missing=1
	1:[f4<740.500000000] yes=3,no=4,missing=3
		3:[f45<0.005890000] yes=7,no=8,missing=7
			7:leaf=-0.832605898
			8:leaf=0.094674692
		4:leaf=0.881592512
	2:[f10<145.500000000] yes=5,no=6,missing=5
		5:[f200<5.500000000] yes=9,no=10,missing=9
			9:leaf=0.054309618
			10:leaf=-0.086251214
		6:[f216<85.500000000] yes=11,no=12,missing=11
			11:leaf=0.223062903
			12:leaf=-0.445479840
booster[47]:
0:[f209<165.500000000] yes=1,no=2,missing=1
	1:[f142<0.005374500] yes=3,no=4,missing=3
		3:[f155<0.170796499] yes=7,no=8,missing=7
			7:leaf=0.120148338
			8:leaf=-0.783469856
		4:[f165<0.633333325] yes=9,no=10,missing=9
			9:leaf=-0.582074285
			10:leaf=0.001625068
	2:[f213<92.500000000] yes=5,no=6,missing=5
		5:[f216<84.500000000] yes=11,no=12,missing=11
			11:leaf=-1.127346516
			12:leaf=0.151744068
		6:[f160<7.500000000] yes=13,no=14,missing=13
			13:leaf=3.549364090
			14:leaf=0.722590923
booster[48]:
0:[f58<0.266056508] yes=1,no=2,missing=1
	1:[f128<0.247898996] yes=3,no=4,missing=3
		3:[f32<0.039981499] yes=7,no=8,missing=7
			7:leaf=-0.106960356
			8:leaf=0.024837017
		4:[f212<0.500000000] yes=9,no=10,missing=9
			9:leaf=0.782357275
			10:leaf=0.013350888
	2:[f209<0.500000000] yes=5,no=6,missing=5
		5:[f202<255.000000000] yes=11,no=12,missing=11
			11:leaf=0.915539324
			12:leaf=-0.382526368
		6:[f196<626840.000000000] yes=13,no=14,missing=13
			13:leaf=1.359895110
			14:leaf=-0.580837607
booster[49]:
0:[f9<0.683259964] yes=1,no=2,missing=1
	1:[f209<91.500000000] yes=3,no=4,missing=3
		3:[f46<0.219640493] yes=7,no=8,missing=7
			7:leaf=0.014473947
			8:leaf=0.618747115
		4:[f148<3.500000000] yes=9,no=10,missing=9
			9:leaf=-0.650438905
			10:leaf=0.063152090
	2:[f7<0.500000000] yes=5,no=6,missing=5
		5:[f10<13.500000000] yes=11,no=12,missing=11
			11:leaf=-0.224525958
			12:leaf=0.438568950
		6:[f58<0.292961478] yes=13,no=14,missing=13
			13:leaf=-0.452522010
			14:leaf=0.418560117
booster[50]:
0:[f8<734.500000000] yes=1,no=2,missing=1
	1:[f157<0.023135001] yes=3,no=4,missing=3
		3:[f214<0.500000000] yes=7,no=8,missing=7
			7:leaf=1.977041721
			8:leaf=0.221157536
		4:[f129<0.024015751] yes=9,no=10,missing=9
			9:leaf=-0.362425655
			10:leaf=0.004454015
	2:[f5<39.000000000] yes=5,no=6,missing=5
		5:[f127<0.827766180] yes=11,no=12,missing=11
			11:leaf=-0.296944350
			12:leaf=1.014774323
		6:[f213<99.500000000] yes=13,no=14,missing=13
			13:leaf=-0.890800059
			14:leaf=-0.237264395
booster[51]:
0:[f202<11.500000000] yes=1,no=2,missing=1
	1:[f116<0.034398500] yes=3,no=4,missing=3
		3:[f213<0.500000000] yes=7,no=8,missing=7
			7:leaf=1.898769736
			8:leaf=0.376063913
		4:[f130<0.083802998] yes=9,no=10,missing=9
			9:leaf=-1.016696453
			10:leaf=0.087669224
	2:[f210<2.500000000] yes=5,no=6,missing=5
		5:[f130<0.014847625] yes=11,no=12,missing=11
			11:leaf=-1.002467871
			12:leaf=-0.005101988
		6:[f196<685369.000000000] yes=13,no=14,missing=13
			13:leaf=-0.232414901
			14:leaf=-1.476643443
booster[52]:
0:[f202<22.000000000] yes=1,no=2,missing=1
	1:[f128<0.009978250] yes=3,no=4,missing=3
		3:[f188<8.500000000] yes=7,no=8,missing=7
			7:leaf=-0.462367326
			8:leaf=1.844680786
		4:[f117<5.500000000] yes=9,no=10,missing=9
			9:leaf=-0.409266740
			10:leaf=0.283812195
	2:[f138<15.500000000] yes=5,no=6,missing=5
		5:[f138<4.500000000] yes=11,no=12,missing=11
			11:leaf=0.047973100
			12:leaf=-0.058702305
		6:[f19<2.500000000] yes=13,no=14,missing=13
			13:leaf=4.165527344
			14:leaf=0.273630798
booster[53]:
0:[f124<3.450000048] yes=1,no=2,missing=1
	1:[f190<21.500000000] yes=3,no=4,missing=3
		3:[f218<0.500000000] yes=7,no=8,missing=7
			7:leaf=0.010331484
			8:leaf=-0.394247204
		4:[f202<310.500000000] yes=9,no=10,missing=9
			9:leaf=-0.405136853
			10:leaf=0.603179514
	2:[f193<6.500000000] yes=5,no=6,missing=5
		5:[f196<550575.000000000] yes=11,no=12,missing=11
			11:leaf=2.211439371
			12:leaf=-0.323307514
		6:[f7<1.500000000] yes=13,no=14,missing=13
			13:leaf=-1.221122503
			14:leaf=-0.236233354
booster[54]:
0:[f207<3.500000000] yes=1,no=2,missing=1
	1:[f190<5.500000000] yes=3,no=4,missing=3
		3:[f47<4.500000000] yes=7,no=8,missing=7
			7:leaf=0.064575151
			8:leaf=0.936516583
		4:[f2<211.500000000] yes=9,no=10,missing=9
			9:leaf=-0.226264328
			10:leaf=-0.019111827
	2:[f202<290.500000000] yes=5,no=6,missing=5
		5:[f33<3.500000000] yes=11,no=12,missing=11
			11:leaf=-0.114612088
			12:leaf=0.739671350
		6:[f173<12.500000000] yes=13,no=14,missing=13
			13:leaf=0.612324774
			14:leaf=2.577376127
booster[55]:
0:[f202<298.500000000] yes=1,no=2,missing=1
	1:[f180<1.450000048] yes=3,no=4,missing=3
		3:[f216<55.500000000] yes=7,no=8,missing=7
			7:leaf=0.737133741
			8:leaf=-0.358623683
		4:[f149<55.500000000] yes=9,no=10,missing=9
			9:leaf=0.034546193
			10:leaf=-0.187283024
	2:[f23<1.500000000] yes=5,no=6,missing=5
		5:[f127<0.671081841] yes=11,no=12,missing=11
			11:leaf=-0.157810554
			12:leaf=-0.569179356
		6:[f196<528953.500000000] yes=13,no=14,missing=13
			13:leaf=-0.799536347
			14:leaf=0.420493841
booster[56]:
0:[f158<0.052532502] yes=1,no=2,missing=1
	1:[f7<1.500000000] yes=3,no=4,missing=3
		3:[f58<0.006625500] yes=7,no=8,missing=7
			7:leaf=-0.674924970
			8:leaf=0.547401786
		4:[f47<4.500000000] yes=9,no=10,missing=9
			9:leaf=-0.170983002
			10:leaf=1.021901011
	2:[f183<0.061187498] yes=5,no=6,missing=5
		5:[f60<0.052484497] yes=11,no=12,missing=11
			11:leaf=0.021244515
			12:leaf=0.939464092
		6:[f9<0.793443501] yes=13,no=14,missing=13
			13:leaf=-0.003179998
			14:leaf=-0.603176177
booster[57]:
0:[f213<80.500000000] yes=1,no=2,missing=1
	1:[f192<0.500000000] yes=3,no=4,missing=3
		3:[f58<0.173877001] yes=7,no=8,missing=7
			7:leaf=-0.000178173
			8:leaf=-0.280637681
		4:[f208<0.500000000] yes=9,no=10,missing=9
			9:leaf=-0.517936170
			10:leaf=0.497024387
	2:[f214<0.500000000] yes=5,no=6,missing=5
		5:[f217<0.500000000] yes=11,no=12,missing=11
			11:leaf=1.177751303
			12:leaf=-0.602906048
		6:[f213<98.500000000] yes=13,no=14,missing=13
			13:leaf=0.143333554
			14:leaf=-0.006933214
booster[58]:
0:[f6<125.500000000] yes=1,no=2,missing=1
	1:[f212<19.500000000] yes=3,no=4,missing=3
		3:[f6<82.500000000] yes=7,no=8,missing=7
			7:leaf=0.011228552
			8:leaf=0.177168280
		4:[f144<0.153641999] yes=9,no=10,missing=9
			9:leaf=0.493147850
			10:leaf=-0.278826624
	2:[f55<3.500000000] yes=5,no=6,missing=5
		5:[f7<1.500000000] yes=11,no=12,missing=11
			11:leaf=-0.255776644
			12:leaf=0.006970600
		6:[f2<1252.000000000] yes=13,no=14,missing=13
			13:leaf=-0.484699637
			14:leaf=2.513008118
booster[59]:
0:[f129<0.190348506] yes=1,no=2,missing=1
	1:[f172<0.186660498] yes=3,no=4,missing=3
		3:[f183<0.186548501] yes=7,no=8,missing=7
			7:leaf=-0.024603032
			8:leaf=1.975447655
		4:[f185<7.500000000] yes=9,no=10,missing=9
			9:leaf=-0.873307705
			10:leaf=-0.035848297
	2:[f188<7.500000000] yes=5,no=6,missing=5
		5:[f9<0.578734517] yes=11,no=12,missing=11
			11:leaf=1.112954378
			12:leaf=-0.030250680
		6:[f6<9.500000000] yes=13,no=14,missing=13
			13:leaf=-0.796794772
			14:leaf=0.337346852
booster[60]:
0:[f188<4.500000000] yes=1,no=2,missing=1
	1:[f173<798.500000000] yes=3,no=4,missing=3
		3:[f113<0.272073984] yes=7,no=8,missing=7
			7:leaf=0.088341214
			8:leaf=0.654255927
		4:[f209<4.500000000] yes=9,no=10,missing=9
			9:leaf=-1.072770000
			10:leaf=0.025567053
	2:[f160<96.500000000] yes=5,no=6,missing=5
		5:[f19<22.500000000] yes=11,no=12,missing=11
			11:leaf=-0.014916491
			12:leaf=-0.209886432
		6:[f113<0.252279997] yes=13,no=14,missing=13
			13:leaf=-0.004072193
			14:leaf=0.632959485
booster[61]:
0:[f113<0.217508003] yes=1,no=2,missing=1
	1:[f114<0.211582005] yes=3,no=4,missing=3
		3:[f55<4.500000000] yes=7,no=8,missing=7
			7:leaf=0.012068605
			8:leaf=-1.094740272
		4:[f10<142.000000000] yes=9,no=10,missing=9
			9:leaf=0.232687756
			10:leaf=2.504540443
	2:[f32<0.092282996] yes=5,no=6,missing=5
		5:[f6<852.500000000] yes=11,no=12,missing=11
			11:leaf=-0.692173719
			12:leaf=0.758895874
		6:[f7<3.500000000] yes=13,no=14,missing=13
			13:leaf=-0.166735888
			14:leaf=0.620377958
booster[62]:
0:[f16<0.006068500] yes=1,no=2,missing=1
	1:[f16<0.005063000] yes=3,no=4,missing=3
		3:[f17<0.076286003] yes=7,no=8,missing=7
			7:leaf=-0.044212308
			8:leaf=1.658317804
		4:[f8<611.500000000] yes=9,no=10,missing=9
			9:leaf=-0.383099973
			10:leaf=1.686648726
	2:[f5<24.500000000] yes=5,no=6,missing=5
		5:[f8<739.500000000] yes=11,no=12,missing=11
			11:leaf=-0.872098863
			12:leaf=0.720699370
		6:[f216<55.500000000] yes=13,no=14,missing=13
			13:leaf=-0.356218040
			14:leaf=0.033129811
booster[63]:
0:[f18<0.155434996] yes=1,no=2,missing=1
	1:[f48<8.500000000] yes=3,no=4,missing=3
		3:[f18<0.150530010] yes=7,no=8,missing=7
			7:leaf=-0.010410455
			8:leaf=0.500649154
		4:[f39<0.224999994] yes=9,no=10,missing=9
			9:leaf=1.548281312
			10:leaf=0.153326169
	2:[f17<0.084940493] yes=5,no=6,missing=5
		5:[f202<263.000000000] yes=11,no=12,missing=11
			11:leaf=3.346162558
			12:leaf=0.384615541
		6:[f16<0.156578496] yes=13,no=14,missing=13
			13:leaf=-0.557267368
			14:leaf=-0.036897957
booster[64]:
0:[f47<14.500000000] yes=1,no=2,missing=1
	1:[f6<1297.500000000] yes=3,no=4,missing=3
		3:[f189<4.500000000] yes=7,no=8,missing=7
			7:leaf=-0.360402912
			8:leaf=0.008451041
		4:[f4<127.500000000] yes=9,no=10,missing=9
			9:leaf=-0.696478486
			10:leaf=1.269654632
	2:[f59<0.046497002] yes=5,no=6,missing=5
		5:[f170<0.009050000] yes=11,no=12,missing=11
			11:leaf=0.430026352
			12:leaf=-0.604825318
		6:leaf=1.374146104
booster[65]:
0:[f216<85.500000000] yes=1,no=2,missing=1
	1:[f169<0.019167501] yes=3,no=4,missing=3
		3:[f127<0.477818012] yes=7,no=8,missing=7
			7:leaf=-0.517909408
			8:leaf=0.797667265
		4:[f160<4.500000000] yes=9,no=10,missing=9
			9:leaf=-0.172065631
			10:leaf=0.148205757
	2:[f169<0.018615499] yes=5,no=6,missing=5
		5:[f199<2.500000000] yes=11,no=12,missing=11
			11:leaf=0.052078102
			12:leaf=0.809775233
		6:[f2<10.500000000] yes=13,no=14,missing=13
			13:leaf=-0.704750478
			14:leaf=-0.035720196
booster[66]:
0:[f132<7.633333206] yes=1,no=2,missing=1
	1:[f169<1.190191507] yes=3,no=4,missing=3
		3:[f46<0.065279499] yes=7,no=8,missing=7
			7:leaf=-0.069832355
			8:leaf=0.172603652
		4:[f6<81.500000000] yes=9,no=10,missing=9
			9:leaf=3.460630178
			10:leaf=-0.164745376
	2:[f45<0.048564002] yes=5,no=6,missing=5
		5:[f169<0.052641500] yes=11,no=12,missing=11
			11:leaf=-0.102820069
			12:leaf=0.090760484
		6:[f45<0.049001001] yes=13,no=14,missing=13
			13:leaf=-1.696288943
			14:leaf=-0.103477292
booster[67]:
0:[f169<1.843867064] yes=1,no=2,missing=1
	1:[f138<2.500000000] yes=3,no=4,missing=3
		3:[f9<0.640306473] yes=7,no=8,missing=7
			7:leaf=-0.182506025
			8:leaf=0.111903168
		4:[f9<0.588665962] yes=9,no=10,missing=9
			9:leaf=0.084168509
			10:leaf=-0.030834448
	2:[f17<0.067453995] yes=5,no=6,missing=5
		5:[f189<3.000000000] yes=11,no=12,missing=11
			11:leaf=-0.021691540
			12:leaf=-1.073995352
		6:[f17<0.152882501] yes=13,no=14,missing=13
			13:leaf=0.075904854
			14:leaf=-0.698129296
booster[68]:
0:[f125<30.450000763] yes=1,no=2,missing=1
	1:[f2<7796.500000000] yes=3,no=4,missing=3
		3:[f145<4940.500000000] yes=7,no=8,missing=7
			7:leaf=0.005735879
			8:leaf=0.844822168
		4:[f196<531966.500000000] yes=9,no=10,missing=9
			9:leaf=0.165509090
			10:leaf=-0.769436777
	2:[f2<3384.500000000] yes=5,no=6,missing=5
		5:[f47<5.500000000] yes=11,no=12,missing=11
			11:leaf=-0.152808666
			12:leaf=-0.888070583
		6:[f30<0.038633499] yes=13,no=14,missing=13
			13:leaf=-0.195140824
			14:leaf=0.909652948
booster[69]:
0:[f146<3824.500000000] yes=1,no=2,missing=1
	1:[f5<97.500000000] yes=3,no=4,missing=3
		3:[f144<0.052172501] yes=7,no=8,missing=7
			7:leaf=0.714460969
			8:leaf=0.001125935
		4:[f216<98.500000000] yes=9,no=10,missing=9
			9:leaf=-1.069840908
			10:leaf=0.408811420
	2:[f220<0.500000000] yes=5,no=6,missing=5
		5:[f117<33.500000000] yes=11,no=12,missing=11
			11:leaf=-0.547496676
			12:leaf=1.547132611
		6:leaf=1.913358331
booster[70]:
0:[f172<0.005888000] yes=1,no=2,missing=1
	1:[f217<0.500000000] yes=3,no=4,missing=3
		3:[f18<0.057979502] yes=7,no=8,missing=7
			7:leaf=-0.315638721
			8:leaf=1.602527857
		4:[f125<7.816666603] yes=9,no=10,missing=9
			9:leaf=-0.713194668
			10:leaf=-0.014512854
	2:[f169<0.005894000] yes=5,no=6,missing=5
		5:[f4<11.500000000] yes=11,no=12,missing=11
			11:leaf=1.747559309
			12:leaf=-0.907704592
		6:[f213<94.500000000] yes=13,no=14,missing=13
			13:leaf=-0.040941488
			14:leaf=0.040280961
booster[71]:
0:[f128<0.002753000] yes=1,no=2,missing=1
	1:[f15<0.140547514] yes=3,no=4,missing=3
		3:[f202<234.500000000] yes=7,no=8,missing=7
			7:leaf=-0.221585959
			8:leaf=1.130140424
		4:[f135<5.291666985] yes=9,no=10,missing=9
			9:leaf=-0.017871140
			10:leaf=-0.754305065
	2:[f23<2.500000000] yes=5,no=6,missing=5
		5:[f57<0.285015494] yes=11,no=12,missing=11
			11:leaf=-0.029068941
			12:leaf=0.432845056
		6:[f18<0.100328505] yes=13,no=14,missing=13
			13:leaf=-0.010579459
			14:leaf=0.469425112
booster[72]:
0:[f149<31.500000000] yes=1,no=2,missing=1
	1:[f6<1038.500000000] yes=3,no=4,missing=3
		3:[f190<7.500000000] yes=7,no=8,missing=7
			7:leaf=-0.036737524
			8:leaf=0.064751126
		4:[f15<9.622018814] yes=9,no=10,missing=9
			9:leaf=-0.671044588
			10:leaf=1.100495577
	2:[f183<0.076242998] yes=5,no=6,missing=5
		5:[f33<41.500000000] yes=11,no=12,missing=11
			11:leaf=0.107191518
			12:leaf=3.442553520
		6:[f19<17.500000000] yes=13,no=14,missing=13
			13:leaf=-0.050196964
			14:leaf=-0.328241825
booster[73]:
0:[f190<8.500000000] yes=1,no=2,missing=1
	1:[f208<1.500000000] yes=3,no=4,missing=3
		3:[f202<311.500000000] yes=7,no=8,missing=7
			7:leaf=0.057453386
			8:leaf=-0.332928896
		4:[f6<91.500000000] yes=9,no=10,missing=9
			9:leaf=-0.066894449
			10:leaf=2.958648920
	2:[f204<0.500000000] yes=5,no=6,missing=5
		5:[f158<0.068409003] yes=11,no=12,missing=11
			11:leaf=-0.286163390
			12:leaf=-0.037899639
		6:[f16<0.080830500] yes=13,no=14,missing=13
			13:leaf=0.247830018
			14:leaf=3.073750496
booster[74]:
0:[f34<45.500000000] yes=1,no=2,missing=1
	1:[f169<0.266054004] yes=3,no=4,missing=3
		3:[f30<0.258444995] yes=7,no=8,missing=7
			7:leaf=0.009240787
			8:leaf=0.624765873
		4:[f132<12.291666031] yes=9,no=10,missing=9
			9:leaf=-0.442652434
			10:leaf=-0.006393756
	2:[f65<0.500000000] yes=5,no=6,missing=5
		5:[f107<8.500000000] yes=11,no=12,missing=11
			11:leaf=-1.058930159
			12:leaf=1.739670396
		6:[f112<2.500000000] yes=13,no=14,missing=13
			13:leaf=-1.078518867
			14:leaf=0.301800281
booster[75]:
0:[f34<21.500000000] yes=1,no=2,missing=1
	1:[f4<181.500000000] yes=3,no=4,missing=3
		3:[f75<3.500000000] yes=7,no=8,missing=7
			7:leaf=0.006183277
			8:leaf=0.765336812
		4:[f3<0.500000000] yes=9,no=10,missing=9
			9:leaf=-0.548600316
			10:leaf=0.054565769
	2:[f56<1.500000000] yes=5,no=6,missing=5
		5:[f212<37.500000000] yes=11,no=12,missing=11
			11:leaf=-0.581298530
			12:leaf=0.796235263
		6:[f158<0.086977497] yes=13,no=14,missing=13
			13:leaf=-0.361670077
			14:leaf=1.324561834
booster[76]:
0:[f208<1.500000000] yes=1,no=2,missing=1
	1:[f173<4.500000000] yes=3,no=4,missing=3
		3:[f157<0.030740499] yes=7,no=8,missing=7
			7:leaf=0.242740884
			8:leaf=-0.031260762
		4:[f103<6.500000000] yes=9,no=10,missing=9
			9:leaf=0.116104379
			10:leaf=2.738581419
	2:[f180<16.899999619] yes=5,no=6,missing=5
		5:[f209<27.500000000] yes=11,no=12,missing=11
			11:leaf=-0.155508518
			12:leaf=-0.888111830
		6:[f58<0.028086500] yes=13,no=14,missing=13
			13:leaf=0.023035269
			14:leaf=2.158223152
booster[77]:
0:[f45<0.024363000] yes=1,no=2,missing=1
	1:[f44<0.019734500] yes=3,no=4,missing=3
		3:[f57<0.132358000] yes=7,no=8,missing=7
			7:leaf=-0.027766073
			8:leaf=-0.339416891
		4:[f144<0.261352479] yes=9,no=10,missing=9
			9:leaf=-0.891416311
			10:leaf=0.951211810
	2:[f190<12.500000000] yes=5,no=6,missing=5
		5:[f143<0.151522502] yes=11,no=12,missing=11
			11:leaf=0.466343611
			12:leaf=0.054432459
		6:[f202<311.500000000] yes=13,no=14,missing=13
			13:leaf=-0.148977697
			14:leaf=0.464847863
booster[78]:
0:[f129<0.038106333] yes=1,no=2,missing=1
	1:[f43<0.099331498] yes=3,no=4,missing=3
		3:[f129<0.037784003] yes=7,no=8,missing=7
			7:leaf=-0.066781215
			8:leaf=-0.825667739
		4:[f16<0.007443000] yes=9,no=10,missing=9
			9:leaf=-0.367182255
			10:leaf=-1.697916627
	2:[f157<0.039001502] yes=5,no=6,missing=5
		5:[f184<16.500000000] yes=11,no=12,missing=11
			11:leaf=1.927363157
			12:leaf=-0.364619136
		6:[f158<0.055011999] yes=13,no=14,missing=13
			13:leaf=-0.339786977
			14:leaf=0.017687347
booster[79]:
0:[f127<1.064517617] yes=1,no=2,missing=1
	1:[f29<0.121126503] yes=3,no=4,missing=3
		3:[f30<0.071984500] yes=7,no=8,missing=7
			7:leaf=0.001784479
			8:leaf=-0.259176999
		4:[f7<0.500000000] yes=9,no=10,missing=9
			9:leaf=0.244958803
			10:leaf=-0.042803798
	2:[f115<0.151652500] yes=5,no=6,missing=5
		5:[f46<0.161587998] yes=11,no=12,missing=11
			11:leaf=-0.100262068
			12:leaf=0.471300632
		6:[f200<4.500000000] yes=13,no=14,missing=13
			13:leaf=-1.251851678
			14:leaf=-0.136544243
booster[80]:
0:[f30<0.213459000] yes=1,no=2,missing=1
	1:[f190<4.500000000] yes=3,no=4,missing=3
		3:[f65<0.500000000] yes=7,no=8,missing=7
			7:leaf=0.413430333
			8:leaf=-0.031789206
		4:[f195<2.500000000] yes=9,no=10,missing=9
			9:leaf=0.000196956
			10:leaf=-0.315991551
	2:[f188<13.500000000] yes=5,no=6,missing=5
		5:[f4<6.500000000] yes=11,no=12,missing=11
			11:leaf=-0.062519632
			12:leaf=-0.871067345
		6:[f190<16.500000000] yes=13,no=14,missing=13
			13:leaf=-0.804091454
			14:leaf=-0.050838642
booster[81]:
0:[f155<0.078521997] yes=1,no=2,missing=1
	1:[f30<0.006851500] yes=3,no=4,missing=3
		3:[f220<1.500000000] yes=7,no=8,missing=7
			7:leaf=-0.710297823
			8:leaf=0.655806720
		4:[f132<18.100000381] yes=9,no=10,missing=9
			9:leaf=0.405214310
			10:leaf=-0.563309669
	2:[f155<0.078620501] yes=5,no=6,missing=5
		5:leaf=1.876184702
		6:[f18<0.091496497] yes=11,no=12,missing=11
			11:leaf=0.058807198
			12:leaf=-0.033237368
booster[82]:
0:[f132<12.183333397] yes=1,no=2,missing=1
	1:[f130<0.025437800] yes=3,no=4,missing=3
		3:[f146<13.500000000] yes=7,no=8,missing=7
			7:leaf=-0.536373019
			8:leaf=1.652457833
		4:[f130<0.031956248] yes=9,no=10,missing=9
			9:leaf=-0.725666881
			10:leaf=-0.050606776
	2:[f185<10.500000000] yes=5,no=6,missing=5
		5:[f202<212.500000000] yes=11,no=12,missing=11
			11:leaf=0.101813287
			12:leaf=-0.104133695
		6:[f100<0.221177503] yes=13,no=14,missing=13
			13:leaf=0.224139214
			14:leaf=3.000691891
booster[83]:
0:[f130<0.027658600] yes=1,no=2,missing=1
	1:[f37<1.500000000] yes=3,no=4,missing=3
		3:[f196<521228.500000000] yes=7,no=8,missing=7
			7:leaf=-0.311690062
			8:leaf=1.356845856
		4:[f59<0.034628000] yes=9,no=10,missing=9
			9:leaf=-0.546917498
			10:leaf=1.260504961
	2:[f130<0.028295200] yes=5,no=6,missing=5
		5:[f6<99.500000000] yes=11,no=12,missing=11
			11:leaf=2.672898769
			12:leaf=-0.627603233
		6:[f185<6.500000000] yes=13,no=14,missing=13
			13:leaf=0.038286272
			14:leaf=-0.051514778
booster[84]:
0:[f202<45.500000000] yes=1,no=2,missing=1
	1:[f216<94.500000000] yes=3,no=4,missing=3
		3:[f200<5.500000000] yes=7,no=8,missing=7
			7:leaf=-0.111546844
			8:leaf=-0.427808911
		4:[f190<11.500000000] yes=9,no=10,missing=9
			9:leaf=-0.051078543
			10:leaf=0.437794298
	2:[f159<3.500000000] yes=5,no=6,missing=5
		5:[f117<1.500000000] yes=11,no=12,missing=11
			11:leaf=0.177953750
			12:leaf=1.029861569
		6:[f140<5.500000000] yes=13,no=14,missing=13
			13:leaf=0.045291692
			14:leaf=-0.077451847
booster[85]:
0:[f6<184.500000000] yes=1,no=2,missing=1
	1:[f212<68.500000000] yes=3,no=4,missing=3
		3:[f169<0.062470000] yes=7,no=8,missing=7
			7:leaf=0.070946485
			8:leaf=-0.050998174
		4:[f173<141.500000000] yes=9,no=10,missing=9
			9:leaf=-0.716307163
			10:leaf=0.991181672
	2:[f113<0.093018994] yes=5,no=6,missing=5
		5:[f127<0.550835729] yes=11,no=12,missing=11
			11:leaf=0.127318546
			12:leaf=-0.244443014
		6:[f153<2.500000000] yes=13,no=14,missing=13
			13:leaf=-0.386855125
			14:leaf=0.706122816
booster[86]:
0:[f129<0.044338502] yes=1,no=2,missing=1
	1:[f16<0.004285000] yes=3,no=4,missing=3
		3:[f8<538.500000000] yes=7,no=8,missing=7
			7:leaf=-0.229987189
			8:leaf=0.412635386
		4:[f158<0.102462001] yes=9,no=10,missing=9
			9:leaf=-0.160318807
			10:leaf=0.506253958
	2:[f157<0.044870999] yes=5,no=6,missing=5
		5:[f188<5.500000000] yes=11,no=12,missing=11
			11:leaf=2.937317133
			12:leaf=0.614503264
		6:[f184<157.500000000] yes=13,no=14,missing=13
			13:leaf=0.018916303
			14:leaf=-0.600002646
booster[87]:
0:[f185<2.500000000] yes=1,no=2,missing=1
	1:[f9<0.725486994] yes=3,no=4,missing=3
		3:[f145<592.500000000] yes=7,no=8,missing=7
			7:leaf=-0.133495837
			8:leaf=0.297542989
		4:[f193<3.500000000] yes=9,no=10,missing=9
			9:leaf=2.239987850
			10:leaf=0.404059172
	2:[f170<0.002415500] yes=5,no=6,missing=5
		5:[f159<31.500000000] yes=11,no=12,missing=11
			11:leaf=-0.655150771
			12:leaf=0.010625481
		6:[f125<3.708333492] yes=13,no=14,missing=13
			13:leaf=-0.030338841
			14:leaf=0.081709988
booster[88]:
0:[f190<6.500000000] yes=1,no=2,missing=1
	1:[f2<532.500000000] yes=3,no=4,missing=3
		3:[f24<0.500000000] yes=7,no=8,missing=7
			7:leaf=-0.060215872
			8:leaf=0.272342563
		4:[f202<225.500000000] yes=9,no=10,missing=9
			9:leaf=-0.230480745
			10:leaf=0.093469337
	2:[f190<7.500000000] yes=5,no=6,missing=5
		5:[f213<0.500000000] yes=11,no=12,missing=11
			11:leaf=1.073938251
			12:leaf=-0.209943146
		6:[f29<0.088241503] yes=13,no=14,missing=13
			13:leaf=-0.073179491
			14:leaf=0.064402595
booster[89]:
0:[f9<0.568889499] yes=1,no=2,missing=1
	1:[f124<1.154761910] yes=3,no=4,missing=3
		3:[f16<0.008200999] yes=7,no=8,missing=7
			7:leaf=-0.388095826
			8:leaf=0.008889841
		4:[f139<3.500000000] yes=9,no=10,missing=9
			9:leaf=1.115170598
			10:leaf=0.163465589
	2:[f137<0.447222233] yes=5,no=6,missing=5
		5:leaf=1.978668690
		6:[f216<36.500000000] yes=11,no=12,missing=11
			11:leaf=0.396253586
			12:leaf=-0.043606196
booster[90]:
0:[f202<37.500000000] yes=1,no=2,missing=1
	1:[f3<1.500000000] yes=3,no=4,missing=3
		3:[f212<0.500000000] yes=7,no=8,missing=7
			7:leaf=-0.409138322
			8:leaf=0.124795668
		4:[f156<0.041786499] yes=9,no=10,missing=9
			9:leaf=-0.091771640
			10:leaf=0.617425561
	2:[f132<130.550003052] yes=5,no=6,missing=5
		5:[f174<124.500000000] yes=11,no=12,missing=11
			11:leaf=-0.002676838
			12:leaf=2.134710550
		6:[f44<0.232189998] yes=13,no=14,missing=13
			13:leaf=-0.149014354
			14:leaf=0.486266851
booster[91]:
0:[f135<8.633333206] yes=1,no=2,missing=1
	1:[f96<2.500000000] yes=3,no=4,missing=3
		3:[f135<8.225000381] yes=7,no=8,missing=7
			7:leaf=-0.028263267
			8:leaf=-0.526212513
		4:[f19<172.500000000] yes=9,no=10,missing=9
			9:leaf=0.295197338
			10:leaf=3.227706432
	2:[f45<0.090180993] yes=5,no=6,missing=5
		5:[f138<7.500000000] yes=11,no=12,missing=11
			11:leaf=0.104656719
			12:leaf=-0.317734241
		6:[f32<0.144318998] yes=13,no=14,missing=13
			13:leaf=1.771601915
			14:leaf=-1.044520974
booster[92]:
0:[f155<0.034926500] yes=1,no=2,missing=1
	1:[f2<156.500000000] yes=3,no=4,missing=3
		3:leaf=2.371569395
		4:leaf=-0.387788951
	2:[f155<0.107204497] yes=5,no=6,missing=5
		5:[f209<17.500000000] yes=7,no=8,missing=7
			7:leaf=-0.345210493
			8:leaf=0.309204072
		6:[f137<0.632499993] yes=9,no=10,missing=9
			9:leaf=-0.159989446
			10:leaf=0.012486363
booster[93]:
0:[f115<0.073206499] yes=1,no=2,missing=1
	1:[f107<4.000000000] yes=3,no=4,missing=3
		3:[f199<4.500000000] yes=7,no=8,missing=7
			7:leaf=-0.136040658
			8:leaf=-0.698117733
		4:[f145<60.500000000] yes=9,no=10,missing=9
			9:leaf=0.072855018
			10:leaf=-0.032253310
	2:[f135<9.550000191] yes=5,no=6,missing=5
		5:[f2<4988.000000000] yes=11,no=12,missing=11
			11:leaf=-0.072426595
			12:leaf=0.931003928
		6:[f19<16.500000000] yes=13,no=14,missing=13
			13:leaf=-1.054970622
			14:leaf=-0.241265044
booster[94]:
0:[f159<2.500000000] yes=1,no=2,missing=1
	1:[f216<95.500000000] yes=3,no=4,missing=3
		3:[f132<91.166671753] yes=7,no=8,missing=7
			7:leaf=-0.569758236
			8:leaf=0.932250381
		4:[f209<1.500000000] yes=9,no=10,missing=9
			9:leaf=0.786227107
			10:leaf=-0.312797695
	2:[f57<0.249637008] yes=5,no=6,missing=5
		5:[f57<0.108015500] yes=11,no=12,missing=11
			11:leaf=-0.010262757
			12:leaf=0.106044903
		6:[f127<0.253827989] yes=13,no=14,missing=13
			13:leaf=-1.015688300
			14:leaf=-0.095629774
booster[95]:
0:[f188<41.500000000] yes=1,no=2,missing=1
	1:[f190<32.500000000] yes=3,no=4,missing=3
		3:[f208<3.500000000] yes=7,no=8,missing=7
			7:leaf=-0.005719733
			8:leaf=0.276262194
		4:[f188<23.500000000] yes=9,no=10,missing=9
			9:leaf=-0.955586791
			10:leaf=0.280569524
	2:[f45<0.066562504] yes=5,no=6,missing=5
		5:leaf=-1.059706688
		6:[f132<22.575000763] yes=11,no=12,missing=11
			11:leaf=0.451344818
			12:leaf=-0.615590870
booster[96]:
0:[f208<1.500000000] yes=1,no=2,missing=1
	1:[f10<6.500000000] yes=3,no=4,missing=3
		3:[f7<5.500000000] yes=7,no=8,missing=7
			7:leaf=0.096719094
			8:leaf=1.749033332
		4:[f144<0.102977000] yes=9,no=10,missing=9
			9:leaf=0.345968515
			10:leaf=-0.015951246
	2:[f2<964.500000000] yes=5,no=6,missing=5
		5:[f202<257.500000000] yes=11,no=12,missing=11
			11:leaf=0.293107808
			12:leaf=-0.345185667
		6:[f114<0.066596001] yes=13,no=14,missing=13
			13:leaf=-0.503342450
			14:leaf=1.178321362
booster[97]:
0:[f144<0.129440993] yes=1,no=2,missing=1
	1:[f4<7.500000000] yes=3,no=4,missing=3
		3:[f7<0.500000000] yes=7,no=8,missing=7
			7:leaf=-0.259558886
			8:leaf=0.316868037
		4:[f143<0.092630997] yes=9,no=10,missing=9
			9:leaf=-0.523843348
			10:leaf=-0.000149392
	2:[f144<0.131665498] yes=5,no=6,missing=5
		5:[f180<3.900000095] yes=11,no=12,missing=11
			11:leaf=2.453466654
			12:leaf=0.258673668
		6:[f196<548946.500000000] yes=13,no=14,missing=13
			13:leaf=0.191570342
			14:leaf=-0.001750853
booster[98]:
0:[f144<0.243173003] yes=1,no=2,missing=1
	1:[f15<0.392297506] yes=3,no=4,missing=3
		3:[f16<0.050270498] yes=7,no=8,missing=7
			7:leaf=-0.100849785
			8:leaf=-0.419912726
		4:[f6<39.500000000] yes=9,no=10,missing=9
			9:leaf=0.338416725
			10:leaf=-0.054818638
	2:[f142<0.088780500] yes=5,no=6,missing=5
		5:[f7<0.500000000] yes=11,no=12,missing=11
			11:leaf=0.661909223
			12:leaf=-0.182529420
		6:[f213<98.500000000] yes=13,no=14,missing=13
			13:leaf=0.048392419
			14:leaf=-0.068880819
booster[99]:
0:[f144<0.069700003] yes=1,no=2,missing=1
	1:[f144<0.068397507] yes=3,no=4,missing=3
		3:[f142<0.009431000] yes=7,no=8,missing=7
			7:leaf=-0.759053528
			8:leaf=0.482923687
		4:[f202<211.000000000] yes=9,no=10,missing=9
			9:leaf=-0.204935625
			10:leaf=3.373479128
	2:[f202<276.500000000] yes=5,no=6,missing=5
		5:[f6<316.500000000] yes=11,no=12,missing=11
			11:leaf=-0.022793053
			12:leaf=-0.279923946
		6:[f16<0.249361500] yes=13,no=14,missing=13
			13:leaf=0.022333773
			14:leaf=0.565338135
booster[100]:
0:[f144<0.078563496] yes=1,no=2,missing=1
	1:[f6<4.500000000] yes=3,no=4,missing=3
		3:[f155<0.094996497] yes=7,no=8,missing=7
			7:leaf=0.067883223
			8:leaf=-1.274992228
		4:[f213<64.500000000] yes=9,no=10,missing=9
			9:leaf=0.331898898
			10:leaf=-0.473179072
	2:[f128<0.333581507] yes=5,no=6,missing=5
		5:[f58<0.329951495] yes=11,no=12,missing=11
			11:leaf=0.002787674
			12:leaf=1.285129905
		6:[f216<75.500000000] yes=13,no=14,missing=13
			13:leaf=0.572744966
			14:leaf=-0.685911715
booster[101]:
0:[f213<94.500000000] yes=1,no=2,missing=1
	1:[f173<1.500000000] yes=3,no=4,missing=3
		3:[f193<14.500000000] yes=7,no=8,missing=7
			7:leaf=0.125727102
			8:leaf=-0.183723688
		4:[f4<3.500000000] yes=9,no=10,missing=9
			9:leaf=-0.188026130
			10:leaf=0.068672419
	2:[f3<0.500000000] yes=5,no=6,missing=5
		5:[f213<99.500000000] yes=11,no=12,missing=11
			11:leaf=0.332929641
			12:leaf=0.024924116
		6:[f202<20.500000000] yes=13,no=14,missing=13
			13:leaf=-0.885930240
			14:leaf=-0.029840400
booster[102]:
0:[f193<13.500000000] yes=1,no=2,missing=1
	1:[f193<12.500000000] yes=3,no=4,missing=3
		3:[f10<6.500000000] yes=7,no=8,missing=7
			7:leaf=0.119365767
			8:leaf=-0.058019720
		4:[f6<107.500000000] yes=9,no=10,missing=9
			9:leaf=-0.155468091
			10:leaf=-1.031763434
	2:[f6<15.500000000] yes=5,no=6,missing=5
		5:[f213<78.500000000] yes=11,no=12,missing=11
			11:leaf=-0.474485576
			12:leaf=0.108785138
		6:[f213<11.500000000] yes=13,no=14,missing=13
			13:leaf=0.281360000
			14:leaf=0.030483183
booster[103]:
0:[f30<0.017951000] yes=1,no=2,missing=1
	1:[f30<0.008246999] yes=3,no=4,missing=3
		3:[f126<2.549999952] yes=7,no=8,missing=7
			7:leaf=-0.050812054
			8:leaf=0.194897637
		4:[f13<6.500000000] yes=9,no=10,missing=9
			9:leaf=0.176625967
			10:leaf=-0.388819426
	2:[f156<0.018615499] yes=5,no=6,missing=5
		5:[f136<0.224999994] yes=11,no=12,missing=11
			11:leaf=0.189827427
			12:leaf=2.847206593
		6:[f216<91.500000000] yes=13,no=14,missing=13
			13:leaf=0.088818558
			14:leaf=-0.030644830
booster[104]:
0:[f158<0.031224001] yes=1,no=2,missing=1
	1:[f4<16.500000000] yes=3,no=4,missing=3
		3:[f25<0.708333373] yes=7,no=8,missing=7
			7:leaf=0.260625780
			8:leaf=-1.304558754
		4:[f127<0.025980249] yes=9,no=10,missing=9
			9:leaf=-1.113055229
			10:leaf=0.340008318
	2:[f130<0.021349832] yes=5,no=6,missing=5
		5:[f213<1.500000000] yes=11,no=12,missing=11
			11:leaf=-0.605860591
			12:leaf=1.763031125
		6:[f210<1.000000000] yes=13,no=14,missing=13
			13:leaf=-0.009728432
			14:leaf=0.239502400
booster[105]:
0:[f130<0.029890373] yes=1,no=2,missing=1
	1:[f18<0.079027504] yes=3,no=4,missing=3
		3:[f129<0.023461834] yes=7,no=8,missing=7
			7:leaf=-0.279879332
			8:leaf=-0.859510601
		4:leaf=1.212811947
	2:[f17<0.034736499] yes=5,no=6,missing=5
		5:[f212<39.500000000] yes=9,no=10,missing=9
			9:leaf=0.066854618
			10:leaf=0.840432286
		6:[f17<0.040463500] yes=11,no=12,missing=11
			11:leaf=-0.258941501
			12:leaf=0.000841722
booster[106]:
0:[f142<0.022752000] yes=1,no=2,missing=1
	1:[f212<0.500000000] yes=3,no=4,missing=3
		3:[f185<1.500000000] yes=7,no=8,missing=7
			7:leaf=1.060770273
			8:leaf=-0.002660644
		4:[f183<0.052938998] yes=9,no=10,missing=9
			9:leaf=0.231307805
			10:leaf=-0.384155750
	2:[f202<17.000000000] yes=5,no=6,missing=5
		5:[f125<10.774999619] yes=11,no=12,missing=11
			11:leaf=0.163550511
			12:leaf=1.264994740
		6:[f192<0.500000000] yes=13,no=14,missing=13
			13:leaf=0.015496278
			14:leaf=-0.157844543
booster[107]:
0:[f213<24.500000000] yes=1,no=2,missing=1
	1:[f200<4.500000000] yes=3,no=4,missing=3
		3:[f214<0.500000000] yes=7,no=8,missing=7
			7:leaf=-0.156119913
			8:leaf=-0.507104099
		4:[f5<52.500000000] yes=9,no=10,missing=9
			9:leaf=-0.253021687
			10:leaf=0.105618164
	2:[f213<28.500000000] yes=5,no=6,missing=5
		5:[f17<0.036730498] yes=11,no=12,missing=11
			11:leaf=-0.904273450
			12:leaf=1.502950668
		6:[f190<18.500000000] yes=13,no=14,missing=13
			13:leaf=0.029342353
			14:leaf=-0.208331332
booster[108]:
0:[f207<4.500000000] yes=1,no=2,missing=1
	1:[f55<3.500000000] yes=3,no=4,missing=3
		3:[f18<0.091458000] yes=7,no=8,missing=7
			7:leaf=0.058374356
			8:leaf=-0.027749477
		4:[f58<0.021343999] yes=9,no=10,missing=9
			9:leaf=0.080945164
			10:leaf=-0.839376450
	2:[f213<0.500000000] yes=5,no=6,missing=5
		5:[f10<13.500000000] yes=11,no=12,missing=11
			11:leaf=1.955469251
			12:leaf=-0.871976852
		6:[f170<0.005418500] yes=13,no=14,missing=13
			13:leaf=0.715770125
			14:leaf=-0.692303240
booster[109]:
0:[f144<0.135136992] yes=1,no=2,missing=1
	1:[f144<0.125604004] yes=3,no=4,missing=3
		3:[f196<562294.500000000] yes=7,no=8,missing=7
			7:leaf=-0.149778381
			8:leaf=0.359090924
		4:[f196<538825.000000000] yes=9,no=10,missing=9
			9:leaf=0.220744610
			10:leaf=-0.598430634
	2:[f144<0.137188494] yes=5,no=6,missing=5
		5:[f185<1.500000000] yes=11,no=12,missing=11
			11:leaf=2.211858511
			12:leaf=0.317433447
		6:[f16<0.006068500] yes=13,no=14,missing=13
			13:leaf=-0.105534628
			14:leaf=0.028351219
booster[110]:
0:[f185<1.500000000] yes=1,no=2,missing=1
	1:[f24<0.500000000] yes=3,no=4,missing=3
		3:[f6<94.500000000] yes=7,no=8,missing=7
			7:leaf=-0.097484134
			8:leaf=0.442907155
		4:[f149<95.500000000] yes=9,no=10,missing=9
			9:leaf=-0.262961656
			10:leaf=2.314373255
	2:[f14<5.500000000] yes=5,no=6,missing=5
		5:[f55<4.500000000] yes=11,no=12,missing=11
			11:leaf=0.007785229
			12:leaf=-1.014959931
		6:[f174<1.500000000] yes=13,no=14,missing=13
			13:leaf=-0.231011346
			14:leaf=2.185443640
booster[111]:
0:[f149<85.500000000] yes=1,no=2,missing=1
	1:[f202<45.500000000] yes=3,no=4,missing=3
		3:[f202<42.000000000] yes=7,no=8,missing=7
			7:leaf=-0.044300944
			8:leaf=-0.630383134
		4:[f138<9.500000000] yes=9,no=10,missing=9
			9:leaf=0.033288475
			10:leaf=-0.265700012
	2:[f139<25.500000000] yes=5,no=6,missing=5
		5:[f2<560.500000000] yes=11,no=12,missing=11
			11:leaf=-0.878956795
			12:leaf=0.772404730
		6:leaf=-1.050945401
booster[112]:
0:[f183<0.047080502] yes=1,no=2,missing=1
	1:[f29<0.075589493] yes=3,no=4,missing=3
		3:[f33<11.500000000] yes=7,no=8,missing=7
			7:leaf=0.059391767
			8:leaf=1.015717387
		4:[f157<0.038304500] yes=9,no=10,missing=9
			9:leaf=2.186979771
			10:leaf=-0.305629700
	2:[f183<0.048521500] yes=5,no=6,missing=5
		5:[f212<9.500000000] yes=11,no=12,missing=11
			11:leaf=-1.112468958
			12:leaf=-0.275501251
		6:[f129<0.017917667] yes=13,no=14,missing=13
			13:leaf=-0.515330017
			14:leaf=-0.002574371
booster[113]:
0:[f152<2.500000000] yes=1,no=2,missing=1
	1:[f8<541.500000000] yes=3,no=4,missing=3
		3:[f158<0.028264500] yes=7,no=8,missing=7
			7:leaf=0.532337487
			8:leaf=-0.264033824
		4:[f200<11.500000000] yes=9,no=10,missing=9
			9:leaf=-0.008322244
			10:leaf=1.214960814
	2:[f169<0.162186503] yes=5,no=6,missing=5
		5:[f29<0.182028502] yes=11,no=12,missing=11
			11:leaf=0.098065630
			12:leaf=-1.018128514
		6:[f169<0.187808990] yes=13,no=14,missing=13
			13:leaf=3.625824928
			14:leaf=0.449257582
booster[114]:
0:[f143<0.051663503] yes=1,no=2,missing=1
	1:[f16<0.029580001] yes=3,no=4,missing=3
		3:[f183<0.040224999] yes=7,no=8,missing=7
			7:leaf=0.351664960
			8:leaf=-0.520787895
		4:[f142<0.033515498] yes=9,no=10,missing=9
			9:leaf=2.148350239
			10:leaf=0.090550013
	2:[f143<0.052367501] yes=5,no=6,missing=5
		5:[f144<0.085292995] yes=11,no=12,missing=11
			11:leaf=2.655866385
			12:leaf=-0.273040384
		6:[f212<163.500000000] yes=13,no=14,missing=13
			13:leaf=0.001445268
			14:leaf=-0.554489017
booster[115]:
0:[f9<0.513481498] yes=1,no=2,missing=1
	1:[f188<10.500000000] yes=3,no=4,missing=3
		3:leaf=-1.031002998
		4:leaf=0.378421992
	2:[f4<2155.500000000] yes=5,no=6,missing=5
		5:[f6<766.500000000] yes=7,no=8,missing=7
			7:leaf=-0.005893500
			8:leaf=0.286694854
		6:[f146<6.500000000] yes=9,no=10,missing=9
			9:leaf=1.302890658
			10:leaf=-0.647647262
booster[116]:
0:[f195<69.500000000] yes=1,no=2,missing=1
	1:[f127<0.033764876] yes=3,no=4,missing=3
		3:[f4<1.500000000] yes=5,no=6,missing=5
			5:leaf=0.136027530
			6:leaf=-0.822610199
		4:[f195<19.500000000] yes=7,no=8,missing=7
			7:leaf=0.001188007
			8:leaf=-0.755212545
	2:leaf=1.500060558
booster[117]:
0:[f5<53.500000000] yes=1,no=2,missing=1
	1:[f125<1.225000024] yes=3,no=4,missing=3
		3:[f193<16.500000000] yes=7,no=8,missing=7
			7:leaf=0.043995380
			8:leaf=0.590778947
		4:[f195<3.500000000] yes=9,no=10,missing=9
			9:leaf=-0.018140318
			10:leaf=0.178625643
	2:[f112<1.500000000] yes=5,no=6,missing=5
		5:[f127<0.340160012] yes=11,no=12,missing=11
			11:leaf=-0.910803854
			12:leaf=-0.141338259
		6:[f7<2.500000000] yes=13,no=14,missing=13
			13:leaf=1.988958955
			14:leaf=-0.582075715
booster[118]:
0:[f195<2.500000000] yes=1,no=2,missing=1
	1:[f132<2.775000095] yes=3,no=4,missing=3
		3:[f193<8.500000000] yes=7,no=8,missing=7
			7:leaf=0.073461376
			8:leaf=-0.242164031
		4:[f202<261.500000000] yes=9,no=10,missing=9
			9:leaf=0.064978786
			10:leaf=-0.041256983
	2:[f169<0.205736503] yes=5,no=6,missing=5
		5:[f116<0.044403002] yes=11,no=12,missing=11
			11:leaf=0.116046585
			12:leaf=-0.242209181
		6:[f155<1.088526011] yes=13,no=14,missing=13
			13:leaf=-0.357335955
			14:leaf=-1.006751776
booster[119]:
0:[f142<1.051104546] yes=1,no=2,missing=1
	1:[f100<0.183009505] yes=3,no=4,missing=3
		3:[f99<0.176964998] yes=7,no=8,missing=7
			7:leaf=0.001782270
			8:leaf=-0.939710915
		4:[f209<17.500000000] yes=9,no=10,missing=9
			9:leaf=0.109836519
			10:leaf=1.813357830
	2:[f139<14.500000000] yes=5,no=6,missing=5
		5:[f200<6.500000000] yes=11,no=12,missing=11
			11:leaf=-0.382229418
			12:leaf=0.672780871
		6:[f213<96.500000000] yes=13,no=14,missing=13
			13:leaf=-0.210831240
			14:leaf=1.031991363
booster[120]:
0:[f34<46.500000000] yes=1,no=2,missing=1
	1:[f33<33.500000000] yes=3,no=4,missing=3
		3:[f196<802205.500000000] yes=7,no=8,missing=7
			7:leaf=-0.005460351
			8:leaf=0.652320981
		4:[f216<92.500000000] yes=9,no=10,missing=9
			9:leaf=-0.298679233
			10:leaf=1.569805264
	2:[f145<869.500000000] yes=5,no=6,missing=5
		5:[f132<21.899999619] yes=11,no=12,missing=11
			11:leaf=0.247029305
			12:leaf=-0.851063609
		6:leaf=0.948444664
booster[121]:
0:[f34<21.500000000] yes=1,no=2,missing=1
	1:[f193<17.500000000] yes=3,no=4,missing=3
		3:[f207<2.500000000] yes=7,no=8,missing=7
			7:leaf=-0.203874052
			8:leaf=0.027421962
		4:[f137<0.677083373] yes=9,no=10,missing=9
			9:leaf=0.387487203
			10:leaf=-0.135614544
	2:[f118<12.500000000] yes=5,no=6,missing=5
		5:[f170<0.002945000] yes=11,no=12,missing=11
			11:leaf=0.611202836
			12:leaf=-0.512116671
		6:[f188<13.500000000] yes=13,no=14,missing=13
			13:leaf=0.818908393
			14:leaf=-0.498481154
booster[122]:
0:[f190<3.500000000] yes=1,no=2,missing=1
	1:[f150<4.500000000] yes=3,no=4,missing=3
		3:[f67<0.416666687] yes=7,no=8,missing=7
			7:leaf=-0.720281422
			8:leaf=0.556024849
		4:[f19<1.500000000] yes=9,no=10,missing=9
			9:leaf=0.528352022
			10:leaf=2.611431122
	2:[f202<209.500000000] yes=5,no=6,missing=5
		5:[f5<47.000000000] yes=11,no=12,missing=11
			11:leaf=-0.262938738
			12:leaf=-0.013075604
		6:[f57<0.154633000] yes=13,no=14,missing=13
			13:leaf=-0.007926404
			14:leaf=0.153728992
booster[123]:
0:[f44<0.249710500] yes=1,no=2,missing=1
	1:[f5<26.000000000] yes=3,no=4,missing=3
		3:[f212<0.500000000] yes=7,no=8,missing=7
			7:leaf=0.353806943
			8:leaf=-0.042612392
		4:[f5<44.500000000] yes=9,no=10,missing=9
			9:leaf=-0.883145332
			10:leaf=-0.001228246
	2:[f209<10.500000000] yes=5,no=6,missing=5
		5:[f132<9.125000000] yes=11,no=12,missing=11
			11:leaf=-0.104635648
			12:leaf=-0.513038695
		6:[f9<0.690238476] yes=13,no=14,missing=13
			13:leaf=-0.545506656
			14:leaf=0.366363585
booster[124]:
0:[f212<2.500000000] yes=1,no=2,missing=1
	1:[f209<7.500000000] yes=3,no=4,missing=3
		3:[f124<1.633333445] yes=7,no=8,missing=7
			7:leaf=-0.074203141
			8:leaf=0.138722837
		4:[f212<0.500000000] yes=9,no=10,missing=9
			9:leaf=-0.575160146
			10:leaf=-0.050536674
	2:[f209<0.500000000] yes=5,no=6,missing=5
		5:[f19<28.500000000] yes=11,no=12,missing=11
			11:leaf=-0.177000597
			12:leaf=-0.997408390
		6:[f48<5.500000000] yes=13,no=14,missing=13
			13:leaf=0.015556647
			14:leaf=0.202053308
booster[125]:
0:[f190<8.500000000] yes=1,no=2,missing=1
	1:[f16<0.275110006] yes=3,no=4,missing=3
		3:[f115<0.024363000] yes=7,no=8,missing=7
			7:leaf=-0.041100338
			8:leaf=0.110489137
		4:[f202<29.000000000] yes=9,no=10,missing=9
			9:leaf=2.153881788
			10:leaf=0.342215359
	2:[f53<0.366666675] yes=5,no=6,missing=5
		5:[f17<0.048005998] yes=11,no=12,missing=11
			11:leaf=-0.167314678
			12:leaf=0.192613959
		6:[f213<0.500000000] yes=13,no=14,missing=13
			13:leaf=-0.553741693
			14:leaf=-0.076689526
booster[126]:
0:[f16<0.301963985] yes=1,no=2,missing=1
	1:[f113<0.117450997] yes=3,no=4,missing=3
		3:[f113<0.114072993] yes=7,no=8,missing=7
			7:leaf=0.016959341
			8:leaf=0.683588982
		4:[f159<16.500000000] yes=9,no=10,missing=9
			9:leaf=-0.219114557
			10:leaf=0.002539443
	2:[f127<0.635273695] yes=5,no=6,missing=5
		5:[f196<794563.500000000] yes=11,no=12,missing=11
			11:leaf=-0.704820693
			12:leaf=0.326620042
		6:[f127<0.664113283] yes=13,no=14,missing=13
			13:leaf=1.128309011
			14:leaf=-0.141405091
booster[127]:
0:[f196<808654.000000000] yes=1,no=2,missing=1
	1:[f196<804424.500000000] yes=3,no=4,missing=3
		3:[f53<0.916666627] yes=7,no=8,missing=7
			7:leaf=-0.039051808
			8:leaf=0.039076544
		4:[f145<6.500000000] yes=9,no=10,missing=9
			9:leaf=0.194435894
			10:leaf=2.430471897
	2:[f6<29.500000000] yes=5,no=6,missing=5
		5:[f190<7.500000000] yes=11,no=12,missing=11
			11:leaf=-1.479433537
			12:leaf=-0.601437807
		6:[f190<7.500000000] yes=13,no=14,missing=13
			13:leaf=-0.682387710
			14:leaf=1.248428226
booster[128]:
0:[f118<12.500000000] yes=1,no=2,missing=1
	1:[f10<206.500000000] yes=3,no=4,missing=3
		3:[f183<0.083023995] yes=7,no=8,missing=7
			7:leaf=0.090017036
			8:leaf=-0.017760264
		4:[f2<503.000000000] yes=9,no=10,missing=9
			9:leaf=0.936888695
			10:leaf=0.027356219
	2:[f6<22.500000000] yes=5,no=6,missing=5
		5:[f47<7.500000000] yes=11,no=12,missing=11
			11:leaf=0.107578605
			12:leaf=1.700099468
		6:[f213<7.500000000] yes=13,no=14,missing=13
			13:leaf=0.258579224
			14:leaf=-0.236818150
booster[129]:
0:[f40<1.500000000] yes=1,no=2,missing=1
	1:[f42<1.500000000] yes=3,no=4,missing=3
		3:[f2<1375.500000000] yes=7,no=8,missing=7
			7:leaf=0.025146285
			8:leaf=-0.081832290
		4:[f174<3.500000000] yes=9,no=10,missing=9
			9:leaf=0.066902287
			10:leaf=1.426115155
	2:[f190<4.500000000] yes=5,no=6,missing=5
		5:[f160<6.500000000] yes=11,no=12,missing=11
			11:leaf=2.498533964
			12:leaf=0.438321173
		6:[f142<0.285905480] yes=13,no=14,missing=13
			13:leaf=-0.122825705
			14:leaf=0.829543114
booster[130]:
0:[f125<19.774999619] yes=1,no=2,missing=1
	1:[f125<16.774999619] yes=3,no=4,missing=3
		3:[f13<64.500000000] yes=7,no=8,missing=7
			7:leaf=-0.012147296
			8:leaf=0.847146332
		4:[f2<1483.500000000] yes=9,no=10,missing=9
			9:leaf=-0.507361710
			10:leaf=0.077142209
	2:[f34<6.500000000] yes=5,no=6,missing=5
		5:[f190<20.500000000] yes=11,no=12,missing=11
			11:leaf=0.164258823
			12:leaf=1.162852526
		6:[f20<38.500000000] yes=13,no=14,missing=13
			13:leaf=0.654077172
			14:leaf=-0.935838819
booster[131]:
0:[f145<395.500000000] yes=1,no=2,missing=1
	1:[f209<12.500000000] yes=3,no=4,missing=3
		3:[f193<19.500000000] yes=7,no=8,missing=7
			7:leaf=0.006621118
			8:leaf=0.693547368
		4:[f132<1.549999952] yes=9,no=10,missing=9
			9:leaf=0.796328843
			10:leaf=-0.079776697
	2:[f6<3.500000000] yes=5,no=6,missing=5
		5:[f135<8.750000000] yes=11,no=12,missing=11
			11:leaf=-0.917140782
			12:leaf=-0.037196379
		6:[f149<32.500000000] yes=13,no=14,missing=13
			13:leaf=0.217032105
			14:leaf=-0.389833301
booster[132]:
0:[f185<98.500000000] yes=1,no=2,missing=1
	1:[f15<9.413120270] yes=3,no=4,missing=3
		3:[f155<6.402068138] yes=7,no=8,missing=7
			7:leaf=-0.000027060
			8:leaf=-0.348851860
		4:[f213<52.500000000] yes=9,no=10,missing=9
			9:leaf=-0.439613432
			10:leaf=0.806614578
	2:[f144<0.184729993] yes=5,no=6,missing=5
		5:[f2<11692.500000000] yes=11,no=12,missing=11
			11:leaf=1.676957130
			12:leaf=-0.541419685
		6:[f2<8247.000000000] yes=13,no=14,missing=13
			13:leaf=-0.880671978
			14:leaf=0.225621864
booster[133]:
0:[f139<384.500000000] yes=1,no=2,missing=1
	1:[f208<5.500000000] yes=3,no=4,missing=3
		3:[f13<338.500000000] yes=7,no=8,missing=7
			7:leaf=0.002034664
			8:leaf=1.084957480
		4:[f202<234.500000000] yes=9,no=10,missing=9
			9:leaf=-0.943134606
			10:leaf=0.159581929
	2:[f166<2.500000000] yes=5,no=6,missing=5
		5:[f67<0.583333373] yes=11,no=12,missing=11
			11:leaf=-0.942126811
			12:leaf=0.381780893
		6:leaf=0.760718048
booster[134]:
0:[f117<209.500000000] yes=1,no=2,missing=1
	1:[f118<85.500000000] yes=3,no=4,missing=3
		3:[f117<71.500000000] yes=7,no=8,missing=7
			7:leaf=-0.001634640
			8:leaf=0.760320365
		4:[f45<0.109940000] yes=9,no=10,missing=9
			9:leaf=-0.881499112
			10:leaf=0.342536956
	2:[f20<9.500000000] yes=5,no=6,missing=5
		5:leaf=-0.513280272
		6:leaf=2.256019831
booster[135]:
0:[f9<0.701072991] yes=1,no=2,missing=1
	1:[f196<701605.000000000] yes=3,no=4,missing=3
		3:[f116<0.202838495] yes=7,no=8,missing=7
			7:leaf=-0.005006147
			8:leaf=0.493456632
		4:[f199<3.500000000] yes=9,no=10,missing=9
			9:leaf=0.443456769
			10:leaf=2.246975660
	2:[f9<0.703859448] yes=5,no=6,missing=5
		5:[f96<0.500000000] yes=11,no=12,missing=11
			11:leaf=-0.765483141
			12:leaf=0.704997897
		6:[f9<0.705006480] yes=13,no=14,missing=13
			13:leaf=0.846788049
			14:leaf=-0.091864713
booster[136]:
0:[f9<0.677082002] yes=1,no=2,missing=1
	1:[f143<0.530773520] yes=3,no=4,missing=3
		3:[f144<0.501607537] yes=7,no=8,missing=7
			7:leaf=0.012101328
			8:leaf=-0.281666517
		4:[f199<2.500000000] yes=9,no=10,missing=9
			9:leaf=0.216931447
			10:leaf=-0.125290558
	2:[f8<698.500000000] yes=5,no=6,missing=5
		5:[f213<96.500000000] yes=11,no=12,missing=11
			11:leaf=-0.353234857
			12:leaf=-0.047111526
		6:[f207<3.500000000] yes=13,no=14,missing=13
			13:leaf=0.005299744
			14:leaf=0.759333789
booster[137]:
0:[f118<225.500000000] yes=1,no=2,missing=1
	1:[f117<208.500000000] yes=3,no=4,missing=3
		3:[f144<0.082637504] yes=5,no=6,missing=5
			5:leaf=-0.185614526
			6:leaf=0.001445744
		4:leaf=1.448622108
	2:leaf=-0.863190353
booster[138]:
0:[f72<0.133893490] yes=1,no=2,missing=1
	1:[f190<6.500000000] yes=3,no=4,missing=3
		3:[f6<1213.500000000] yes=7,no=8,missing=7
			7:leaf=0.053548906
			8:leaf=1.309966683
		4:[f74<0.090628505] yes=9,no=10,missing=9
			9:leaf=-0.018061671
			10:leaf=1.444339752
	2:[f196<631832.500000000] yes=5,no=6,missing=5
		5:leaf=-1.405919909
		6:[f9<0.631201029] yes=13,no=14,missing=13
			13:leaf=0.805700421
			14:leaf=-0.201711997
booster[139]:
0:[f218<0.500000000] yes=1,no=2,missing=1
	1:[f4<1156.500000000] yes=3,no=4,missing=3
		3:[f4<318.500000000] yes=7,no=8,missing=7
			7:leaf=0.003539139
			8:leaf=-0.296021193
		4:[f3<0.500000000] yes=9,no=10,missing=9
			9:leaf=-0.229855984
			10:leaf=1.435665846
	2:[f202<247.000000000] yes=5,no=6,missing=5
		5:[f103<2.500000000] yes=11,no=12,missing=11
			11:leaf=-0.634605289
			12:leaf=0.394924939
		6:[f202<272.500000000] yes=13,no=14,missing=13
			13:leaf=1.596970439
			14:leaf=-0.201229945
booster[140]:
0:[f4<1519.500000000] yes=1,no=2,missing=1
	1:[f129<0.022524625] yes=3,no=4,missing=3
		3:[f137<0.622023821] yes=7,no=8,missing=7
			7:leaf=-0.150510043
			8:leaf=0.492216527
		4:[f160<8117.500000000] yes=9,no=10,missing=9
			9:leaf=-0.001923138
			10:leaf=-0.655417383
	2:[f192<1.500000000] yes=5,no=6,missing=5
		5:[f169<0.099725999] yes=11,no=12,missing=11
			11:leaf=-0.988131642
			12:leaf=0.245356634
		6:leaf=1.466365814
booster[141]:
0:[f17<0.060137503] yes=1,no=2,missing=1
	1:[f17<0.056040499] yes=3,no=4,missing=3
		3:[f117<4.500000000] yes=7,no=8,missing=7
			7:leaf=-0.052284840
			8:leaf=0.154286012
		4:[f12<2.500000000] yes=9,no=10,missing=9
			9:leaf=-0.470659345
			10:leaf=0.578851759
	2:[f16<0.058363497] yes=5,no=6,missing=5
		5:[f188<16.500000000] yes=11,no=12,missing=11
			11:leaf=0.101260245
			12:leaf=1.273690701
		6:[f4<3.500000000] yes=13,no=14,missing=13
			13:leaf=-0.082741730
			14:leaf=0.140109688
booster[142]:
0:[f129<0.167858988] yes=1,no=2,missing=1
	1:[f157<0.167525500] yes=3,no=4,missing=3
		3:[f30<0.166985005] yes=7,no=8,missing=7
			7:leaf=-0.032824211
			8:leaf=1.768384814
		4:[f190<5.500000000] yes=9,no=10,missing=9
			9:leaf=0.332233161
			10:leaf=-1.289604068
	2:[f156<0.168327495] yes=5,no=6,missing=5
		5:[f127<0.362289906] yes=11,no=12,missing=11
			11:leaf=-0.215772584
			12:leaf=2.320479393
		6:[f145<286.500000000] yes=13,no=14,missing=13
			13:leaf=0.103448369
			14:leaf=-0.101889402
booster[143]:
0:[f117<10.500000000] yes=1,no=2,missing=1
	1:[f9<0.558201551] yes=3,no=4,missing=3
		3:[f40<2.500000000] yes=7,no=8,missing=7
			7:leaf=0.070302159
			8:leaf=0.624738514
		4:[f196<526120.500000000] yes=9,no=10,missing=9
			9:leaf=1.460621715
			10:leaf=-0.005978507
	2:[f6<360.500000000] yes=5,no=6,missing=5
		5:[f180<13.366666794] yes=11,no=12,missing=11
			11:leaf=-0.064862147
			12:leaf=-0.328799486
		6:[f188<3.500000000] yes=13,no=14,missing=13
			13:leaf=2.140435219
			14:leaf=0.193834260
booster[144]:
0:[f183<0.053059500] yes=1,no=2,missing=1
	1:[f139<70.500000000] yes=3,no=4,missing=3
		3:[f9<0.549776495] yes=7,no=8,missing=7
			7:leaf=-0.160934299
			8:leaf=1.177525401
		4:[f132<3.708333492] yes=9,no=10,missing=9
			9:leaf=0.600702941
			10:leaf=-0.847854912
	2:[f144<0.055071499] yes=5,no=6,missing=5
		5:leaf=1.563817501
		6:[f6<993.500000000] yes=11,no=12,missing=11
			11:leaf=0.008528690
			12:leaf=-0.302948833
booster[145]:
0:[f5<53.500000000] yes=1,no=2,missing=1
	1:[f74<0.047392502] yes=3,no=4,missing=3
		3:[f72<0.046205997] yes=7,no=8,missing=7
			7:leaf=0.007286082
			8:leaf=1.377857089
		4:[f35<0.500000000] yes=9,no=10,missing=9
			9:leaf=-0.099468790
			10:leaf=-1.360753655
	2:[f137<0.763888896] yes=5,no=6,missing=5
		5:[f135<12.125000000] yes=11,no=12,missing=11
			11:leaf=1.148770213
			12:leaf=-0.156719863
		6:[f133<0.154761910] yes=13,no=14,missing=13
			13:leaf=-0.796326935
			14:leaf=0.561301410
booster[146]:
0:[f166<2.500000000] yes=1,no=2,missing=1
	1:[f167<27.500000000] yes=3,no=4,missing=3
		3:[f169<1.346431971] yes=7,no=8,missing=7
			7:leaf=0.004294830
			8:leaf=0.516730249
		4:[f136<0.125000000] yes=9,no=10,missing=9
			9:leaf=1.280626774
			10:leaf=-0.498974293
	2:[f145<100.500000000] yes=5,no=6,missing=5
		5:[f169<0.448404998] yes=11,no=12,missing=11
			11:leaf=-0.097665429
			12:leaf=1.163800836
		6:[f209<14.500000000] yes=13,no=14,missing=13
			13:leaf=-0.998430371
			14:leaf=-0.118841924
booster[147]:
0:[f169<0.402952015] yes=1,no=2,missing=1
	1:[f169<0.394528508] yes=3,no=4,missing=3
		3:[f167<12.500000000] yes=7,no=8,missing=7
			7:leaf=0.006722561
			8:leaf=-0.688994050
		4:[f212<6.500000000] yes=9,no=10,missing=9
			9:leaf=2.539495707
			10:leaf=-0.106681898
	2:[f209<1.500000000] yes=5,no=6,missing=5
		5:[f188<0.500000000] yes=11,no=12,missing=11
			11:leaf=0.578678846
			12:leaf=-0.431652099
		6:[f19<22.500000000] yes=13,no=14,missing=13
			13:leaf=-0.628922582
			14:leaf=0.270566851
booster[148]:
0:[f139<63.500000000] yes=1,no=2,missing=1
	1:[f140<15.500000000] yes=3,no=4,missing=3
		3:[f9<0.545660496] yes=7,no=8,missing=7
			7:leaf=0.135530457
			8:leaf=-0.020423837
		4:[f193<13.500000000] yes=9,no=10,missing=9
			9:leaf=-1.093551397
			10:leaf=-0.031190034
	2:[f153<53.500000000] yes=5,no=6,missing=5
		5:[f6<50.500000000] yes=11,no=12,missing=11
			11:leaf=2.346907377
			12:leaf=0.641207397
		6:[f2<1062.500000000] yes=13,no=14,missing=13
			13:leaf=-0.274844348
			14:leaf=0.200942159
booster[149]:
0:[f196<525899.500000000] yes=1,no=2,missing=1
	1:[f202<46.500000000] yes=3,no=4,missing=3
		3:[f158<0.083714500] yes=7,no=8,missing=7
			7:leaf=-0.460094064
			8:leaf=1.225536823
		4:[f144<0.048030503] yes=9,no=10,missing=9
			9:leaf=0.326912463
			10:leaf=-0.466772884
	2:[f143<0.023955001] yes=5,no=6,missing=5
		5:leaf=1.659923673
		6:[f196<525983.500000000] yes=11,no=12,missing=11
			11:leaf=1.389141679
			12:leaf=0.001996825
booster[150]:
0:[f150<2.500000000] yes=1,no=2,missing=1
	1:[f180<15.071428299] yes=3,no=4,missing=3
		3:[f4<10.500000000] yes=7,no=8,missing=7
			7:leaf=0.035184965
			8:leaf=-0.134608701
		4:[f2<1724.500000000] yes=9,no=10,missing=9
			9:leaf=-0.351925999
			10:leaf=0.039702363
	2:[f184<26.500000000] yes=5,no=6,missing=5
		5:[f200<5.500000000] yes=11,no=12,missing=11
			11:leaf=0.051687136
			12:leaf=-0.131211624
		6:[f127<2.601919174] yes=13,no=14,missing=13
			13:leaf=0.242482737
			14:leaf=-0.350307435
booster[151]:
0:[f2<1366.500000000] yes=1,no=2,missing=1
	1:[f2<1348.500000000] yes=3,no=4,missing=3
		3:[f6<416.500000000] yes=7,no=8,missing=7
			7:leaf=0.014847674
			8:leaf=-0.846261203
		4:[f180<12.875000000] yes=9,no=10,missing=9
			9:leaf=0.081448071
			10:leaf=1.404904604
	2:[f209<7.500000000] yes=5,no=6,missing=5
		5:[f6<61.500000000] yes=11,no=12,missing=11
			11:leaf=-0.238261208
			12:leaf=0.130342782
		6:[f116<0.168279499] yes=13,no=14,missing=13
			13:leaf=-0.129782930
			14:leaf=-0.608696401
booster[152]:
0:[f209<28.500000000] yes=1,no=2,missing=1
	1:[f6<92.500000000] yes=3,no=4,missing=3
		3:[f212<58.500000000] yes=7,no=8,missing=7
			7:leaf=0.012738623
			8:leaf=1.713979125
		4:[f209<11.500000000] yes=9,no=10,missing=9
			9:leaf=-0.145062134
			10:leaf=0.048564419
	2:[f190<11.500000000] yes=5,no=6,missing=5
		5:[f44<0.012694500] yes=11,no=12,missing=11
			11:leaf=0.007185488
			12:leaf=0.317314059
		6:[f44<0.002046000] yes=13,no=14,missing=13
			13:leaf=0.422451079
			14:leaf=-0.321100205
booster[153]:
0:[f48<10.500000000] yes=1,no=2,missing=1
	1:[f157<0.043440998] yes=3,no=4,missing=3
		3:[f34<3.500000000] yes=7,no=8,missing=7
			7:leaf=0.174562737
			8:leaf=-0.146567702
		4:[f128<0.032122098] yes=9,no=10,missing=9
			9:leaf=-0.150492623
			10:leaf=-0.003800701
	2:[f16<0.232189998] yes=5,no=6,missing=5
		5:[f188<14.500000000] yes=11,no=12,missing=11
			11:leaf=0.208260879
			12:leaf=-0.396201134
		6:[f6<122.500000000] yes=13,no=14,missing=13
			13:leaf=1.715171337
			14:leaf=-0.500233531
booster[154]:
0:[f196<616875.500000000] yes=1,no=2,missing=1
	1:[f196<616679.000000000] yes=3,no=4,missing=3
		3:[f32<0.133026004] yes=7,no=8,missing=7
			7:leaf=0.014235785
			8:leaf=0.505527198
		4:[f6<67.500000000] yes=9,no=10,missing=9
			9:leaf=3.083318233
			10:leaf=-0.088421568
	2:[f196<618420.500000000] yes=5,no=6,missing=5
		5:[f48<5.500000000] yes=11,no=12,missing=11
			11:leaf=-0.910733402
			12:leaf=-0.132888019
		6:[f143<0.187263504] yes=13,no=14,missing=13
			13:leaf=0.554707944
			14:leaf=-0.057767753
booster[155]:
0:[f139<2.500000000] yes=1,no=2,missing=1
	1:[f156<0.034061998] yes=3,no=4,missing=3
		3:[f170<0.020446500] yes=7,no=8,missing=7
			7:leaf=-0.562811255
			8:leaf=1.219675541
		4:[f170<0.046455503] yes=9,no=10,missing=9
			9:leaf=-0.915520847
			10:leaf=-0.104027629
	2:[f129<0.033354051] yes=5,no=6,missing=5
		5:[f170<0.004744000] yes=11,no=12,missing=11
			11:leaf=0.247994080
			12:leaf=-0.208309472
		6:[f129<0.034800373] yes=13,no=14,missing=13
			13:leaf=0.487696797
			14:leaf=0.010225809
booster[156]:
0:[f209<12.500000000] yes=1,no=2,missing=1
	1:[f2<627.500000000] yes=3,no=4,missing=3
		3:[f4<4.500000000] yes=7,no=8,missing=7
			7:leaf=-0.074948132
			8:leaf=0.154998273
		4:[f128<0.345321000] yes=9,no=10,missing=9
			9:leaf=0.066580236
			10:leaf=1.263316393
	2:[f174<453.500000000] yes=5,no=6,missing=5
		5:[f132<177.291656494] yes=11,no=12,missing=11
			11:leaf=-0.074376240
			12:leaf=0.189073458
		6:[f16<0.231236488] yes=13,no=14,missing=13
			13:leaf=-0.752086043
			14:leaf=0.229919747
booster[157]:
0:[f4<1.500000000] yes=1,no=2,missing=1
	1:[f58<0.006775000] yes=3,no=4,missing=3
		3:[f158<0.085697994] yes=7,no=8,missing=7
			7:leaf=-0.149655119
			8:leaf=0.026676487
		4:[f156<0.006944000] yes=9,no=10,missing=9
			9:leaf=2.008922100
			10:leaf=0.100967728
	2:[f132<91.366668701] yes=5,no=6,missing=5
		5:[f29<0.136965498] yes=11,no=12,missing=11
			11:leaf=0.071099699
			12:leaf=-0.163375914
		6:[f6<375.500000000] yes=13,no=14,missing=13
			13:leaf=-0.348174185
			14:leaf=0.402598649
booster[158]:
0:[f44<0.330483496] yes=1,no=2,missing=1
	1:[f58<0.310227513] yes=3,no=4,missing=3
		3:[f58<0.289442003] yes=7,no=8,missing=7
			7:leaf=-0.000582747
			8:leaf=-0.620165944
		4:[f209<4.500000000] yes=9,no=10,missing=9
			9:leaf=1.095630765
			10:leaf=-0.198596284
	2:[f190<7.500000000] yes=5,no=6,missing=5
		5:[f209<13.000000000] yes=11,no=12,missing=11
			11:leaf=-1.322700024
			12:leaf=0.091169186
		6:[f190<8.500000000] yes=13,no=14,missing=13
			13:leaf=0.610358059
			14:leaf=-0.636378825
booster[159]:
0:[f9<0.591252506] yes=1,no=2,missing=1
	1:[f43<0.123123497] yes=3,no=4,missing=3
		3:[f144<0.488116503] yes=7,no=8,missing=7
			7:leaf=0.016845269
			8:leaf=0.972083390
		4:[f127<0.141455248] yes=9,no=10,missing=9
			9:leaf=2.099334240
			10:leaf=0.304468930
	2:[f196<592502.500000000] yes=5,no=6,missing=5
		5:[f196<552140.500000000] yes=11,no=12,missing=11
			11:leaf=0.820574105
			12:leaf=-0.290570349
		6:[f8<589.500000000] yes=13,no=14,missing=13
			13:leaf=-0.328253925
			14:leaf=0.009784619
booster[160]:
0:[f2<96.500000000] yes=1,no=2,missing=1
	1:[f167<3.500000000] yes=3,no=4,missing=3
		3:[f7<0.500000000] yes=7,no=8,missing=7
			7:leaf=-0.231466129
			8:leaf=0.309510291
		4:[f2<62.500000000] yes=9,no=10,missing=9
			9:leaf=0.147066683
			10:leaf=3.023907423
	2:[f5<24.500000000] yes=5,no=6,missing=5
		5:[f29<0.346060991] yes=11,no=12,missing=11
			11:leaf=-0.825881541
			12:leaf=0.617951989
		6:[f2<99.500000000] yes=13,no=14,missing=13
			13:leaf=-1.096823215
			14:leaf=-0.009192573
booster[161]:
0:[f216<64.500000000] yes=1,no=2,missing=1
	1:[f58<0.216605008] yes=3,no=4,missing=3
		3:[f196<584236.500000000] yes=7,no=8,missing=7
			7:leaf=-0.332061052
			8:leaf=0.095717430
		4:[f193<12.500000000] yes=9,no=10,missing=9
			9:leaf=-0.787107527
			10:leaf=0.458220690
	2:[f160<39.500000000] yes=5,no=6,missing=5
		5:[f156<0.035122000] yes=11,no=12,missing=11
			11:leaf=0.074061468
			12:leaf=-0.065710589
		6:[f127<0.213931501] yes=13,no=14,missing=13
			13:leaf=-0.057110339
			14:leaf=0.087592736
booster[162]:
0:[f2<1318.500000000] yes=1,no=2,missing=1
	1:[f139<116.500000000] yes=3,no=4,missing=3
		3:[f2<1246.500000000] yes=7,no=8,missing=7
			7:leaf=0.011600240
			8:leaf=0.305950969
		4:[f126<3.875000000] yes=9,no=10,missing=9
			9:leaf=-0.716968000
			10:leaf=0.627715170
	2:[f6<97.500000000] yes=5,no=6,missing=5
		5:[f213<31.500000000] yes=11,no=12,missing=11
			11:leaf=0.108945653
			12:leaf=-0.296116978
		6:[f196<701795.000000000] yes=13,no=14,missing=13
			13:leaf=-0.016351232
			14:leaf=0.850974143
booster[163]:
0:[f114<0.216917008] yes=1,no=2,missing=1
	1:[f127<2.005529404] yes=3,no=4,missing=3
		3:[f155<3.551395416] yes=7,no=8,missing=7
			7:leaf=0.003952147
			8:leaf=-0.186091766
		4:[f113<0.294246495] yes=9,no=10,missing=9
			9:leaf=0.131607935
			10:leaf=0.915536880
	2:[f209<2.500000000] yes=5,no=6,missing=5
		5:[f47<7.500000000] yes=11,no=12,missing=11
			11:leaf=-0.132470757
			12:leaf=1.093246698
		6:[f4<5.500000000] yes=13,no=14,missing=13
			13:leaf=-0.517886877
			14:leaf=0.567675948
booster[164]:
0:[f212<45.500000000] yes=1,no=2,missing=1
	1:[f212<39.500000000] yes=3,no=4,missing=3
		3:[f6<308.500000000] yes=7,no=8,missing=7
			7:leaf=0.008935028
			8:leaf=-0.184894085
		4:[f6<94.500000000] yes=9,no=10,missing=9
			9:leaf=-0.347206652
			10:leaf=0.762840927
	2:[f4<217.500000000] yes=5,no=6,missing=5
		5:[f137<0.559027791] yes=11,no=12,missing=11
			11:leaf=1.210477233
			12:leaf=-0.273094147
		6:[f9<0.569370031] yes=13,no=14,missing=13
			13:leaf=-0.098975800
			14:leaf=2.225100994
booster[165]:
0:[f210<9.500000000] yes=1,no=2,missing=1
	1:[f10<218.500000000] yes=3,no=4,missing=3
		3:[f210<4.500000000] yes=7,no=8,missing=7
			7:leaf=-0.001685541
			8:leaf=0.647732437
		4:[f199<4.500000000] yes=9,no=10,missing=9
			9:leaf=-0.113330126
			10:leaf=-1.521016479
	2:[f210<17.500000000] yes=5,no=6,missing=5
		5:leaf=-1.251641393
		6:[f125<1.450000048] yes=11,no=12,missing=11
			11:leaf=0.654225886
			12:leaf=-0.621821404
booster[166]:
0:[f166<2.500000000] yes=1,no=2,missing=1
	1:[f210<2.500000000] yes=3,no=4,missing=3
		3:[f45<0.072986498] yes=7,no=8,missing=7
			7:leaf=0.029856728
			8:leaf=-0.029625526
		4:[f209<2.500000000] yes=9,no=10,missing=9
			9:leaf=-0.765693903
			10:leaf=0.163851559
	2:[f216<95.500000000] yes=5,no=6,missing=5
		5:[f4<27.500000000] yes=11,no=12,missing=11
			11:leaf=-0.433913767
			12:leaf=1.171174526
		6:[f29<0.085804000] yes=13,no=14,missing=13
			13:leaf=-0.194721848
			14:leaf=0.971908152
booster[167]:
0:[f57<0.225591511] yes=1,no=2,missing=1
	1:[f57<0.223169506] yes=3,no=4,missing=3
		3:[f199<1.500000000] yes=7,no=8,missing=7
			7:leaf=-0.040027611
			8:leaf=0.026182065
		4:[f72<0.224968001] yes=9,no=10,missing=9
			9:leaf=-0.950359404
			10:leaf=0.451907218
	2:[f27<2.500000000] yes=5,no=6,missing=5
		5:[f208<3.500000000] yes=11,no=12,missing=11
			11:leaf=0.065182455
			12:leaf=1.045828462
		6:[f16<0.118451506] yes=13,no=14,missing=13
			13:leaf=2.244081497
			14:leaf=0.237831369
booster[168]:
0:[f190<21.500000000] yes=1,no=2,missing=1
	1:[f47<22.500000000] yes=3,no=4,missing=3
		3:[f183<0.053270999] yes=7,no=8,missing=7
			7:leaf=-0.139753252
			8:leaf=0.008951131
		4:leaf=1.620073438
	2:[f209<0.500000000] yes=5,no=6,missing=5
		5:[f193<6.500000000] yes=9,no=10,missing=9
			9:leaf=-0.572415888
			10:leaf=0.464487642
		6:[f209<23.500000000] yes=11,no=12,missing=11
			11:leaf=-0.757717371
			12:leaf=0.170248404
booster[169]:
0:[f196<520662.500000000] yes=1,no=2,missing=1
	1:[f212<15.500000000] yes=3,no=4,missing=3
		3:[f196<519787.500000000] yes=7,no=8,missing=7
			7:leaf=0.327237159
			8:leaf=2.046602488
		4:[f17<0.016270500] yes=9,no=10,missing=9
			9:leaf=0.753539801
			10:leaf=-0.791340172
	2:[f196<526683.500000000] yes=5,no=6,missing=5
		5:[f129<0.022449000] yes=11,no=12,missing=11
			11:leaf=0.191202983
			12:leaf=-0.513357878
		6:[f196<530271.500000000] yes=13,no=14,missing=13
			13:leaf=0.494455695
			14:leaf=-0.004848675
booster[170]:
0:[f196<545919.500000000] yes=1,no=2,missing=1
	1:[f126<3.366666794] yes=3,no=4,missing=3
		3:[f140<10.500000000] yes=7,no=8,missing=7
			7:leaf=-0.095622808
			8:leaf=-0.793697655
		4:[f45<0.017571000] yes=9,no=10,missing=9
			9:leaf=0.081871495
			10:leaf=2.352113008
	2:[f196<546878.500000000] yes=5,no=6,missing=5
		5:[f125<20.899999619] yes=11,no=12,missing=11
			11:leaf=0.257831484
			12:leaf=2.323648214
		6:[f212<87.500000000] yes=13,no=14,missing=13
			13:leaf=-0.002317601
			14:leaf=0.443640590
booster[171]:
0:[f125<80.708328247] yes=1,no=2,missing=1
	1:[f167<59.500000000] yes=3,no=4,missing=3
		3:[f209<57.500000000] yes=7,no=8,missing=7
			7:leaf=0.004494725
			8:leaf=-0.148789048
		4:[f190<7.500000000] yes=9,no=10,missing=9
			9:leaf=-0.475854099
			10:leaf=1.586768150
	2:[f209<171.500000000] yes=5,no=6,missing=5
		5:[f19<310.500000000] yes=11,no=12,missing=11
			11:leaf=-0.560158312
			12:leaf=0.808946192
		6:leaf=0.645678580
booster[172]:
0:[f169<0.299682975] yes=1,no=2,missing=1
	1:[f169<0.293994993] yes=3,no=4,missing=3
		3:[f8<769.500000000] yes=7,no=8,missing=7
			7:leaf=0.004012817
			8:leaf=1.747668505
		4:[f43<0.294067502] yes=9,no=10,missing=9
			9:leaf=1.760023355
			10:leaf=0.069113627
	2:[f127<0.694117486] yes=5,no=6,missing=5
		5:[f213<33.500000000] yes=11,no=12,missing=11
			11:leaf=-0.538053989
			12:leaf=-0.097073451
		6:[f3<0.500000000] yes=13,no=14,missing=13
			13:leaf=0.230236471
			14:leaf=-0.188982174
booster[173]:
0:[f196<704779.500000000] yes=1,no=2,missing=1
	1:[f196<701867.000000000] yes=3,no=4,missing=3
		3:[f43<0.406613529] yes=7,no=8,missing=7
			7:leaf=-0.000427461
			8:leaf=0.948578715
		4:[f213<98.500000000] yes=9,no=10,missing=9
			9:leaf=1.150550961
			10:leaf=-0.070092626
	2:[f196<711412.500000000] yes=5,no=6,missing=5
		5:[f158<0.216605008] yes=11,no=12,missing=11
			11:leaf=0.585951865
			12:leaf=-0.532502949
		6:[f169<0.235828996] yes=13,no=14,missing=13
			13:leaf=0.708240986
			14:leaf=-0.105829202
booster[174]:
0:[f190<11.500000000] yes=1,no=2,missing=1
	1:[f212<38.500000000] yes=3,no=4,missing=3
		3:[f209<3.500000000] yes=7,no=8,missing=7
			7:leaf=-0.042468932
			8:leaf=0.082850449
		4:[f5<26.000000000] yes=9,no=10,missing=9
			9:leaf=0.190840721
			10:leaf=-0.429320186
	2:[f100<0.068267502] yes=5,no=6,missing=5
		5:[f4<1.500000000] yes=11,no=12,missing=11
			11:leaf=0.015732026
			12:leaf=-0.293252766
		6:[f209<0.500000000] yes=13,no=14,missing=13
			13:leaf=-0.238069341
			14:leaf=-1.042201400
booster[175]:
0:[f209<0.500000000] yes=1,no=2,missing=1
	1:[f118<49.500000000] yes=3,no=4,missing=3
		3:[f58<0.026620500] yes=7,no=8,missing=7
			7:leaf=0.113464780
			8:leaf=-0.101321228
		4:[f193<18.500000000] yes=9,no=10,missing=9
			9:leaf=-0.800536871
			10:leaf=0.788704693
	2:[f33<9.500000000] yes=5,no=6,missing=5
		5:[f5<47.000000000] yes=11,no=12,missing=11
			11:leaf=-0.169100195
			12:leaf=-0.007060805
		6:[f213<83.500000000] yes=13,no=14,missing=13
			13:leaf=-0.106158271
			14:leaf=0.416353732
booster[176]:
0:[f5<26.000000000] yes=1,no=2,missing=1
	1:[f216<90.500000000] yes=3,no=4,missing=3
		3:[f33<2.500000000] yes=7,no=8,missing=7
			7:leaf=0.076605916
			8:leaf=-0.220328271
		4:[f142<0.077386998] yes=9,no=10,missing=9
			9:leaf=0.737564266
			10:leaf=0.147520199
	2:[f207<2.500000000] yes=5,no=6,missing=5
		5:[f3<1.500000000] yes=11,no=12,missing=11
			11:leaf=-0.660968244
			12:leaf=0.338694245
		6:[f216<84.500000000] yes=13,no=14,missing=13
			13:leaf=0.118861094
			14:leaf=-0.038484257
booster[177]:
0:[f57<0.103824005] yes=1,no=2,missing=1
	1:[f146<20.500000000] yes=3,no=4,missing=3
		3:[f212<8.500000000] yes=7,no=8,missing=7
			7:leaf=0.118833274
			8:leaf=-0.176530838
		4:[f212<4.500000000] yes=9,no=10,missing=9
			9:leaf=-0.114655107
			10:leaf=0.023836289
	2:[f183<0.106189996] yes=5,no=6,missing=5
		5:[f216<97.500000000] yes=11,no=12,missing=11
			11:leaf=0.191593453
			12:leaf=1.263918519
		6:[f188<0.500000000] yes=13,no=14,missing=13
			13:leaf=-0.636017919
			14:leaf=0.054077622
booster[178]:
0:[f132<2.183333397] yes=1,no=2,missing=1
	1:[f130<0.172775507] yes=3,no=4,missing=3
		3:[f156<0.048867002] yes=7,no=8,missing=7
			7:leaf=-0.047302291
			8:leaf=-0.541290104
		4:[f193<3.500000000] yes=9,no=10,missing=9
			9:leaf=1.178303242
			10:leaf=-0.026259633
	2:[f137<0.806249976] yes=5,no=6,missing=5
		5:[f16<0.043575499] yes=11,no=12,missing=11
			11:leaf=0.015848920
			12:leaf=0.279554486
		6:[f34<6.500000000] yes=13,no=14,missing=13
			13:leaf=0.008705253
			14:leaf=-0.147280514
booster[179]:
0:[f117<46.500000000] yes=1,no=2,missing=1
	1:[f118<53.500000000] yes=3,no=4,missing=3
		3:[f158<0.033957999] yes=7,no=8,missing=7
			7:leaf=-0.398520499
			8:leaf=-0.004459430
		4:leaf=-0.879221499
	2:[f145<70.500000000] yes=5,no=6,missing=5
		5:[f185<8.500000000] yes=11,no=12,missing=11
			11:leaf=0.121656343
			12:leaf=2.087639809
		6:[f212<17.500000000] yes=13,no=14,missing=13
			13:leaf=-0.175072834
			14:leaf=0.748461425
booster[180]:
0:[f135<15.774999619] yes=1,no=2,missing=1
	1:[f135<15.183333397] yes=3,no=4,missing=3
		3:[f135<14.267856598] yes=7,no=8,missing=7
			7:leaf=0.006487656
			8:leaf=-0.510086477
		4:[f145<10.500000000] yes=9,no=10,missing=9
			9:leaf=2.763867378
			10:leaf=0.250042886
	2:[f74<0.030851500] yes=5,no=6,missing=5
		5:[f16<0.019224500] yes=11,no=12,missing=11
			11:leaf=0.140543133
			12:leaf=-0.219840467
		6:[f20<1.500000000] yes=13,no=14,missing=13
			13:leaf=0.323467046
			14:leaf=-1.063174009
booster[181]:
0:[f170<0.004960000] yes=1,no=2,missing=1
	1:[f32<0.102644995] yes=3,no=4,missing=3
		3:[f17<0.110624000] yes=7,no=8,missing=7
			7:leaf=-0.066124290
			8:leaf=-1.116477966
		4:[f188<8.500000000] yes=9,no=10,missing=9
			9:leaf=-1.409580946
			10:leaf=-0.327443570
	2:[f6<284.500000000] yes=5,no=6,missing=5
		5:[f6<274.500000000] yes=11,no=12,missing=11
			11:leaf=-0.002850388
			12:leaf=-0.508917511
		6:[f180<1.450000048] yes=13,no=14,missing=13
			13:leaf=-0.817810893
			14:leaf=0.195400789
booster[182]:
0:[f213<61.500000000] yes=1,no=2,missing=1
	1:[f19<14.500000000] yes=3,no=4,missing=3
		3:[f33<17.500000000] yes=7,no=8,missing=7
			7:leaf=-0.068660676
			8:leaf=0.735128582
		4:[f45<0.047780998] yes=9,no=10,missing=9
			9:leaf=0.274699897
			10:leaf=-0.036792066
	2:[f214<0.500000000] yes=5,no=6,missing=5
		5:[f6<126.500000000] yes=11,no=12,missing=11
			11:leaf=-0.646791399
			12:leaf=0.439282298
		6:[f216<97.500000000] yes=13,no=14,missing=13
			13:leaf=-0.036205322
			14:leaf=0.064927973
booster[183]:
0:[f143<0.052132502] yes=1,no=2,missing=1
	1:[f128<0.038809501] yes=3,no=4,missing=3
		3:[f124<1.309523821] yes=7,no=8,missing=7
			7:leaf=-0.559889138
			8:leaf=-0.100289240
		4:[f19<203.500000000] yes=9,no=10,missing=9
			9:leaf=-0.317314923
			10:leaf=2.179487705
	2:[f143<0.053576998] yes=5,no=6,missing=5
		5:[f137<0.618055582] yes=11,no=12,missing=11
			11:leaf=-0.831949532
			12:leaf=0.946779430
		6:[f53<0.916666627] yes=13,no=14,missing=13
			13:leaf=-0.031003704
			14:leaf=0.030749772
booster[184]:
0:[f169<1.602702498] yes=1,no=2,missing=1
	1:[f169<1.580899954] yes=3,no=4,missing=3
		3:[f132<121.708328247] yes=7,no=8,missing=7
			7:leaf=0.011789334
			8:leaf=-0.063891515
		4:leaf=1.752702594
	2:[f216<86.500000000] yes=5,no=6,missing=5
		5:[f207<2.500000000] yes=9,no=10,missing=9
			9:leaf=0.519818544
			10:leaf=-0.951166153
		6:[f184<25.500000000] yes=11,no=12,missing=11
			11:leaf=0.321431935
			12:leaf=-0.381762892
booster[185]:
0:[f196<681539.000000000] yes=1,no=2,missing=1
	1:[f196<681503.500000000] yes=3,no=4,missing=3
		3:[f216<41.500000000] yes=7,no=8,missing=7
			7:leaf=0.279278249
			8:leaf=0.004980710
		4:leaf=2.023504019
	2:[f4<21.500000000] yes=5,no=6,missing=5
		5:[f158<0.192012504] yes=9,no=10,missing=9
			9:leaf=1.502593994
			10:leaf=-0.069384322
		6:[f209<8.500000000] yes=11,no=12,missing=11
			11:leaf=-0.023465142
			12:leaf=-1.372729182
booster[186]:
0:[f58<0.235233992] yes=1,no=2,missing=1
	1:[f58<0.232997000] yes=3,no=4,missing=3
		3:[f200<7.500000000] yes=7,no=8,missing=7
			7:leaf=-0.000862656
			8:leaf=-0.141418189
		4:leaf=-0.896299243
	2:[f127<0.259023011] yes=5,no=6,missing=5
		5:[f19<85.000000000] yes=9,no=10,missing=9
			9:leaf=0.189685270
			10:leaf=1.644343376
		6:[f190<10.500000000] yes=11,no=12,missing=11
			11:leaf=0.185009867
			12:leaf=-0.310455143
booster[187]:
0:[f2<213.500000000] yes=1,no=2,missing=1
	1:[f30<0.262101501] yes=3,no=4,missing=3
		3:[f145<34.500000000] yes=7,no=8,missing=7
			7:leaf=-0.020841569
			8:leaf=-0.295474291
		4:[f169<0.280278504] yes=9,no=10,missing=9
			9:leaf=1.410267234
			10:leaf=-0.025142098
	2:[f2<215.500000000] yes=5,no=6,missing=5
		5:[f155<0.286643505] yes=11,no=12,missing=11
			11:leaf=-0.629769027
			12:leaf=1.726480126
		6:[f74<0.169891998] yes=13,no=14,missing=13
			13:leaf=0.003337071
			14:leaf=0.495012254
booster[188]:
0:[f9<0.658953547] yes=1,no=2,missing=1
	1:[f9<0.655919552] yes=3,no=4,missing=3
		3:[f116<0.182789505] yes=7,no=8,missing=7
			7:leaf=0.007393918
			8:leaf=0.586188197
		4:[f214<0.500000000] yes=9,no=10,missing=9
			9:leaf=1.149322629
			10:leaf=0.150120914
	2:[f127<0.300867975] yes=5,no=6,missing=5
		5:[f15<0.243564501] yes=11,no=12,missing=11
			11:leaf=-0.103915215
			12:leaf=-0.482763469
		6:[f172<0.166238993] yes=13,no=14,missing=13
			13:leaf=-0.757098258
			14:leaf=0.013124413
booster[189]:
0:[f188<41.500000000] yes=1,no=2,missing=1
	1:[f185<6.500000000] yes=3,no=4,missing=3
		3:[f102<0.080193505] yes=7,no=8,missing=7
			7:leaf=0.012748506
			8:leaf=0.351289332
		4:[f17<0.025416002] yes=9,no=10,missing=9
			9:leaf=0.599644780
			10:leaf=-0.041887525
	2:leaf=-0.735259712
booster[190]:
0:[f157<0.020718500] yes=1,no=2,missing=1
	1:[f29<0.043286502] yes=3,no=4,missing=3
		3:[f113<0.071115501] yes=7,no=8,missing=7
			7:leaf=-0.177422807
			8:leaf=1.370772123
		4:[f212<4.500000000] yes=9,no=10,missing=9
			9:leaf=-1.248616457
			10:leaf=-0.226190984
	2:[f15<1.759329557] yes=5,no=6,missing=5
		5:[f27<7.500000000] yes=11,no=12,missing=11
			11:leaf=-0.013530854
			12:leaf=0.849970579
		6:[f199<2.500000000] yes=13,no=14,missing=13
			13:leaf=0.124279954
			14:leaf=-0.138403118
booster[191]:
0:[f27<10.500000000] yes=1,no=2,missing=1
	1:[f127<1.060832858] yes=3,no=4,missing=3
		3:[f127<1.054151416] yes=7,no=8,missing=7
			7:leaf=0.007322016
			8:leaf=1.353051186
		4:[f188<5.500000000] yes=9,no=10,missing=9
			9:leaf=0.099908002
			10:leaf=-0.217598468
	2:[f200<5.500000000] yes=5,no=6,missing=5
		5:leaf=-1.147611618
		6:leaf=0.133371547
booster[192]:
0:[f30<0.262987494] yes=1,no=2,missing=1
	1:[f30<0.261205018] yes=3,no=4,missing=3
		3:[f33<18.500000000] yes=7,no=8,missing=7
			7:leaf=0.007926531
			8:leaf=-0.190241575
		4:leaf=1.407487512
	2:[f212<1.500000000] yes=5,no=6,missing=5
		5:[f8<731.500000000] yes=9,no=10,missing=9
			9:leaf=-0.363971144
			10:leaf=0.481164426
		6:[f33<18.500000000] yes=11,no=12,missing=11
			11:leaf=-0.506832838
			12:leaf=0.690438032
booster[193]:
0:[f30<0.329003990] yes=1,no=2,missing=1
	1:[f29<0.288475007] yes=3,no=4,missing=3
		3:[f29<0.273815006] yes=7,no=8,missing=7
			7:leaf=-0.001982678
			8:leaf=-0.433280557
		4:[f132<48.583335876] yes=9,no=10,missing=9
			9:leaf=0.083722621
			10:leaf=0.830712914
	2:[f43<0.367581487] yes=5,no=6,missing=5
		5:[f196<802355.000000000] yes=11,no=12,missing=11
			11:leaf=-1.258932590
			12:leaf=-0.276069283
		6:leaf=0.621581793
booster[194]:
0:[f34<13.500000000] yes=1,no=2,missing=1
	1:[f48<20.500000000] yes=3,no=4,missing=3
		3:[f193<17.500000000] yes=7,no=8,missing=7
			7:leaf=0.005206411
			8:leaf=-0.085802674
		4:[f174<3.500000000] yes=9,no=10,missing=9
			9:leaf=0.389290184
			10:leaf=-1.070538163
	2:[f155<0.430511504] yes=5,no=6,missing=5
		5:[f158<0.083563998] yes=11,no=12,missing=11
			11:leaf=-0.180157691
			12:leaf=0.850923479
		6:[f32<0.096398503] yes=13,no=14,missing=13
			13:leaf=-0.302480668
			14:leaf=0.121372730
booster[195]:
0:[f33<18.500000000] yes=1,no=2,missing=1
	1:[f145<662.500000000] yes=3,no=4,missing=3
		3:[f174<592.500000000] yes=7,no=8,missing=7
			7:leaf=0.004131190
			8:leaf=0.809603393
		4:[f196<582288.000000000] yes=9,no=10,missing=9
			9:leaf=0.119315453
			10:leaf=-0.292743176
	2:[f190<10.500000000] yes=5,no=6,missing=5
		5:[f129<0.040716749] yes=11,no=12,missing=11
			11:leaf=1.235701442
			12:leaf=-0.084550254
		6:[f5<26.000000000] yes=13,no=14,missing=13
			13:leaf=0.513492107
			14:leaf=-0.569957793
booster[196]:
0:[f174<662.500000000] yes=1,no=2,missing=1
	1:[f15<0.364408493] yes=3,no=4,missing=3
		3:[f139<26.500000000] yes=7,no=8,missing=7
			7:leaf=-0.034178961
			8:leaf=-0.468442559
		4:[f127<0.192588955] yes=9,no=10,missing=9
			9:leaf=0.217886284
			10:leaf=0.005770503
	2:[f213<92.500000000] yes=5,no=6,missing=5
		5:[f209<33.500000000] yes=11,no=12,missing=11
			11:leaf=-0.613689184
			12:leaf=0.528973043
		6:[f2<2027.500000000] yes=13,no=14,missing=13
			13:leaf=-0.292778313
			14:leaf=0.470543772
booster[197]:
0:[f44<0.051070001] yes=1,no=2,missing=1
	1:[f44<0.049619999] yes=3,no=4,missing=3
		3:[f114<0.187392503] yes=7,no=8,missing=7
			7:leaf=-0.025039125
			8:leaf=0.447307795
		4:[f144<0.539965510] yes=9,no=10,missing=9
			9:leaf=-0.835984886
			10:leaf=1.025744200
	2:[f44<0.056752499] yes=5,no=6,missing=5
		5:[f8<579.500000000] yes=11,no=12,missing=11
			11:leaf=-0.213874727
			12:leaf=0.751639664
		6:[f127<0.091182999] yes=13,no=14,missing=13
			13:leaf=0.812740982
			14:leaf=0.009865665
booster[198]:
0:[f58<0.272812486] yes=1,no=2,missing=1
	1:[f29<0.536329031] yes=3,no=4,missing=3
		3:[f29<0.467956483] yes=7,no=8,missing=7
			7:leaf=-0.008749252
			8:leaf=0.468274862
		4:[f2<117.000000000] yes=9,no=10,missing=9
			9:leaf=0.585213780
			10:leaf=-0.672200143
	2:[f196<756800.500000000] yes=5,no=6,missing=5
		5:[f19<2.500000000] yes=11,no=12,missing=11
			11:leaf=1.132381201
			12:leaf=0.141733021
		6:[f6<94.500000000] yes=13,no=14,missing=13
			13:leaf=0.040519711
			14:leaf=-1.084688783
booster[199]:
0:[f183<0.084537499] yes=1,no=2,missing=1
	1:[f60<0.080908000] yes=3,no=4,missing=3
		3:[f32<0.083769500] yes=7,no=8,missing=7
			7:leaf=0.021222385
			8:leaf=0.909370780
		4:[f172<0.083023503] yes=9,no=10,missing=9
			9:leaf=1.351094723
			10:leaf=-0.370783359
	2:[f143<0.054548498] yes=5,no=6,missing=5
		5:[f9<0.540096045] yes=11,no=12,missing=11
			11:leaf=0.492191136
			12:leaf=-0.675798953
		6:[f158<0.085304499] yes=13,no=14,missing=13
			13:leaf=-0.445019007
			14:leaf=-0.007412079
booster[200]:
0:[f17<0.108498998] yes=1,no=2,missing=1
	1:[f18<0.139926001] yes=3,no=4,missing=3
		3:[f18<0.121117994] yes=7,no=8,missing=7
			7:leaf=-0.024922522
			8:leaf=0.186580762
		4:[f200<5.500000000] yes=9,no=10,missing=9
			9:leaf=-0.522040486
			10:leaf=0.172622263
	2:[f143<0.118349500] yes=5,no=6,missing=5
		5:[f193<6.500000000] yes=11,no=12,missing=11
			11:leaf=-0.205717802
			12:leaf=2.367326498
		6:[f4<3.500000000] yes=13,no=14,missing=13
			13:leaf=-0.008712005
			14:leaf=0.140626818
booster[201]:
0:[f158<0.112029500] yes=1,no=2,missing=1
	1:[f183<0.111745000] yes=3,no=4,missing=3
		3:[f196<605025.500000000] yes=7,no=8,missing=7
			7:leaf=0.018605871
			8:leaf=0.925098121
		4:[f128<0.055187333] yes=9,no=10,missing=9
			9:leaf=2.559535742
			10:leaf=0.238629490
	2:[f158<0.112197503] yes=5,no=6,missing=5
		5:[f190<9.500000000] yes=11,no=12,missing=11
			11:leaf=-1.284160614
			12:leaf=0.135322586
